static int mdlfile_total_layer_num=3;
static int mdlfile_num_per_layer[]={261, 32, 2, };
static float mdlfile_weights01[][264]={
{0.045384, -0.280187, -0.255017, 0.018159, -0.275917, -0.336710, -0.002037, 0.105629, 0.074387, 0.603939, 0.727450, 0.298141, 0.010271, -0.046333, 0.101306, 0.018349, 0.334058, 0.069655, -0.189591, -0.059867, 0.110865, 0.337489, 0.080059, 0.283057, 0.445398, 0.409632, 0.333888, 0.387546, 0.741147, -0.791048, -0.922595, -0.780326, -0.574811, -0.501186, -0.865068, -0.963887, -0.826383, -0.903748, -1.281409, -0.979871, -1.062776, -0.877315, -0.911863, -0.344847, -0.814445, -0.644883, -0.836149, -0.511500, -0.414494, -0.856311, -1.074108, -1.273106, -1.141999, -1.162484, -1.131686, -1.351164, -1.551058, -1.378503, 0.488918, 0.238525, 0.204079, 0.156103, 0.495044, 0.067455, -0.070118, -0.127080, -0.070934, -0.169841, -0.018447, -0.036845, -0.015367, -0.009802, -0.283124, -0.156765, -0.263756, -0.255520, -0.020400, -0.083774, -0.218083, -0.150026, -0.147836, -0.022653, -0.034849, 0.141243, 0.552941, 0.588237, 0.237421, 0.147104, -0.152201, -0.112797, 0.145680, 0.095172, -0.168995, 0.032928, 0.258269, 0.210234, 0.629758, 0.727047, 0.270532, 0.153611, 0.100690, 0.267583, 0.112687, 0.356369, 0.067935, 0.014252, 0.071988, 0.145084, 0.352504, 0.184241, 0.323546, 0.519121, 0.453434, 0.379299, 0.459713, 0.786072, 0.261072, -0.023735, 0.027180, 0.275218, 0.487480, -0.050723, -0.012105, 0.054525, 0.099981, -0.150096, -0.011550, 0.008148, 0.090394, 0.048701, 0.386093, 0.095910, 0.164250, 0.032247, 0.407671, 0.434071, 0.126165, 0.079519, -0.042343, 0.160783, 0.071187, 0.153269, 0.066153, -0.069993, -0.076284, 0.772225, 0.441015, 0.148992, 0.054104, 0.269650, 0.065357, 0.145223, 0.170041, 0.288593, 0.322579, 0.288071, 0.242724, 0.182591, 0.255764, -0.152769, 0.120151, -0.110576, 0.036589, 0.108278, 0.136714, 0.177432, 0.286592, 0.334855, 0.264596, 0.228321, 0.328587, 0.503054, 0.467050, 0.196722, 0.105237, -0.242769, -0.214316, 0.082727, 0.124558, -0.181034, 0.002983, 0.150680, 0.146410, 0.623154, 0.654069, 0.176679, 0.007448, -0.101268, 0.132386, -0.036754, 0.184746, -0.091193, -0.131654, 0.079677, 0.156724, 0.367090, 0.166122, 0.392409, 0.535089, 0.533335, 0.417892, 0.563510, 0.775545, 0.474457, 0.032758, -0.254132, -0.101358, 0.276013, -0.057319, 0.096196, 0.262026, 0.270872, 0.116427, 0.293816, 0.115886, 0.101712, 0.198847, 0.307232, 0.237707, 0.233266, 0.104435, 0.459055, 0.563864, 0.300967, 0.273739, 0.117465, 0.203704, 0.177194, 0.236305, 0.125721, -0.057376, -0.234919, -0.045217, -0.309805, -0.602786, -0.593691, -0.586469, -0.702788, -0.671757, -0.433083, -0.373380, -0.400542, -0.390807, -0.353061, -0.326976, -0.353121, -0.599190, -0.263378, -0.623508, -0.390715, -0.320254, -0.432532, -0.340018, -0.421795, -0.259014, -0.527999, -0.416562, -0.348282, -0.391510, -0.586471, -0.653340, 0.0, 0.0, 0.0, },
{0.214856, 0.285384, 0.294934, 0.278682, 0.274887, 0.190007, 0.120474, 0.096115, 0.157413, 0.183212, 0.165610, 0.122202, 0.126536, 0.141585, 0.085574, -0.010795, -0.093734, -0.120859, -0.210580, -0.257815, -0.257105, -0.280571, -0.257909, -0.225382, -0.266569, -0.315446, -0.321178, -0.296159, -0.295832, 0.552890, 0.690216, 0.774914, 0.894317, 1.102567, 1.024330, 0.868318, 0.827736, 0.794370, 0.727317, 0.609708, 0.614835, 0.646775, 0.623049, 0.561537, 0.568294, 0.495005, 0.478478, 0.440360, 0.375993, 0.298110, 0.206518, 0.004781, 0.035890, -0.064560, -0.127869, -0.215664, -0.176824, -0.201202, -0.723385, -0.833295, -0.812246, -0.743631, -0.619839, -0.270623, -0.059853, 0.014422, -0.049938, -0.073844, 0.023614, 0.200630, 0.272510, 0.264648, 0.219059, 0.175035, 0.150213, 0.190947, 0.324210, 0.337408, 0.341569, 0.433602, 0.383659, 0.319023, 0.369156, 0.426136, 0.467660, 0.446310, 0.423868, 0.261460, 0.365005, 0.394570, 0.404857, 0.478868, 0.409065, 0.348591, 0.317161, 0.355310, 0.377903, 0.329004, 0.295885, 0.305013, 0.296799, 0.201520, 0.118991, 0.027976, -0.020732, -0.087073, -0.150371, -0.147481, -0.195243, -0.190867, -0.146151, -0.215502, -0.275644, -0.298342, -0.256586, -0.274453, 0.072482, 0.153273, 0.240723, 0.383073, 0.606483, 0.682574, 0.639738, 0.637350, 0.563692, 0.466215, 0.416641, 0.497324, 0.554011, 0.575113, 0.486406, 0.425390, 0.374647, 0.377341, 0.418749, 0.344669, 0.306111, 0.270953, 0.066872, 0.068200, 0.012322, -0.023793, -0.072197, -0.061964, -0.090220, -0.703601, -0.899575, -0.957915, -1.031600, -1.062537, -0.765230, -0.544912, -0.440970, -0.486228, -0.494498, -0.292546, -0.157428, -0.073411, -0.036358, -0.014539, -0.089847, -0.090830, -0.049750, 0.104422, 0.144543, 0.179927, 0.291874, 0.389844, 0.274405, 0.351630, 0.442971, 0.519450, 0.454735, 0.461878, 0.211245, 0.311426, 0.388297, 0.458722, 0.554026, 0.529365, 0.481613, 0.480445, 0.514852, 0.508255, 0.466779, 0.474254, 0.506305, 0.478278, 0.371924, 0.259809, 0.165657, 0.116501, 0.077303, 0.005353, 0.001836, -0.027997, -0.086463, -0.051812, -0.132580, -0.205294, -0.220530, -0.196973, -0.207934, -0.079270, -0.166388, -0.159908, -0.109051, 0.085046, 0.264930, 0.289825, 0.345850, 0.238420, 0.118022, 0.197987, 0.294918, 0.412994, 0.433066, 0.364414, 0.265681, 0.188298, 0.206140, 0.315765, 0.264810, 0.257764, 0.269340, 0.187348, 0.112586, 0.076780, 0.081416, 0.079406, 0.068776, 0.041583, -0.312605, -0.540501, -0.670670, -0.888740, -1.013209, -0.872962, -0.697540, -0.620183, -0.612456, -0.564290, -0.361398, -0.306170, -0.280308, -0.215656, -0.126678, -0.138830, -0.131718, -0.104818, -0.006424, 0.051455, 0.088365, 0.175588, 0.389644, 0.283747, 0.359537, 0.461626, 0.523840, 0.458662, 0.465707, 0.0, 0.0, 0.0, },
{0.233762, 0.625567, 0.034948, 0.677181, -0.013339, 0.085310, 0.627191, 0.418360, 0.562941, 0.509316, 0.339504, 0.348359, -0.190108, 0.186945, -0.154968, -0.176147, 0.083447, 0.169288, 0.398014, 0.455378, 0.045840, 0.547421, 0.532159, -0.102240, 0.538872, 0.152778, 0.493340, 0.142785, 0.783727, -0.798538, -0.422681, -0.348084, -0.685076, -0.431083, -0.435753, -0.421647, -0.427695, -0.344955, -0.269217, -0.093848, -0.011732, 0.019179, -0.118490, 0.114698, -0.031275, 0.119053, -0.012529, -0.002713, -0.128832, -0.081971, -0.280893, 0.008005, 0.166258, 0.117845, 0.134894, 0.127255, 0.251170, -0.454607, 0.905762, 0.538423, 0.698311, 0.885045, 0.807537, 0.629350, 0.878056, 0.965069, 0.823975, 0.484873, 0.126690, 0.233819, -0.034094, 0.111676, 0.047559, 0.067218, 0.072426, 0.134355, 0.423482, 0.368096, 0.290961, 0.627832, 0.514678, 0.164653, 0.482346, 0.278958, 0.249379, 0.247518, 0.964947, -0.695903, 0.182160, -0.406335, 0.372911, -0.531868, -0.461609, -0.061964, -0.035630, 0.050511, 0.159251, 0.170928, 0.347100, -0.030775, 0.040150, -0.028154, -0.079976, 0.079483, 0.095022, 0.095651, 0.160815, -0.121129, 0.223780, -0.025136, -0.335966, 0.303869, -0.053266, 0.289281, 0.037532, 0.434762, -0.676894, -0.278720, -0.409029, -0.682895, -0.622163, -0.742791, -0.668323, -0.634718, -0.623254, -0.338336, -0.166331, -0.165257, -0.016506, -0.090109, -0.100872, -0.035102, 0.103018, -0.039991, -0.346700, -0.316800, -0.333687, -0.468457, -0.445489, -0.322127, -0.247997, -0.187211, -0.116850, -0.164456, -0.709451, -0.550170, -0.131650, -0.247852, -0.026550, 0.000399, -0.126034, -0.085422, -0.008560, -0.036458, 0.068630, 0.186022, 0.327161, 0.047288, 0.075918, 0.034957, 0.116463, -0.009775, 0.020399, 0.060977, 0.045884, 0.127360, 0.116683, 0.192555, 0.078646, 0.252286, 0.127689, 0.181981, 0.063049, 0.233975, -0.448241, 0.157599, -0.279657, 0.160605, -0.856380, -0.829589, -0.462392, -0.471797, -0.371275, -0.407555, -0.183346, -0.141210, -0.168995, -0.195100, -0.266359, -0.234506, -0.060611, -0.046465, -0.189042, -0.263905, -0.658109, -0.578174, -0.501207, -0.851040, -0.070705, -0.344443, -0.038810, -0.437949, 0.191428, -0.538490, -0.122261, -0.449031, -0.424269, -0.594849, -0.423290, -0.388098, -0.602128, -0.394743, -0.178010, 0.003977, -0.147646, -0.040110, -0.026933, -0.118576, -0.146734, -0.064925, 0.057741, -0.105922, -0.171218, -0.136452, -0.302622, -0.160706, -0.181524, -0.229181, -0.217989, -0.054560, -0.076461, -0.471067, -0.642007, -0.244461, -0.316429, -0.689338, -0.885605, -0.915701, -0.689716, -0.633491, -0.544996, -0.486137, -0.257981, -0.297465, -0.086111, -0.280650, -0.112621, -0.194859, 0.097805, -0.126725, -0.261180, -0.293673, -0.596083, -0.663713, -0.512354, -0.288703, -0.155604, -0.183547, 0.002088, -0.050708, -0.669929, 0.0, 0.0, 0.0, },
{-0.189134, -0.201804, -0.205941, -0.513149, -0.254454, 0.038316, -0.207380, -0.290266, 0.045975, -0.382222, -0.710405, -0.387499, 0.397691, 0.653434, 1.661897, 1.076954, -0.141354, -0.120670, 0.330795, -0.078753, 0.129590, 0.173257, -0.361712, 0.003292, 0.209192, 0.306364, 0.607017, 0.446934, -0.398163, 0.346388, 0.100848, -0.314861, -0.106690, -0.055360, -0.164248, -0.249717, -0.179958, 0.039503, 0.121139, -0.119566, -0.499420, -0.811338, -0.399376, -0.788771, -0.427219, 0.095750, -0.046096, -0.322910, -0.050007, 0.093169, -0.042242, 0.180869, 0.175209, 0.072635, 0.045029, -0.197345, 0.063908, 0.261475, -1.325690, -0.658015, -0.451348, -0.975367, -0.572841, -0.462909, -0.325345, -0.698398, -0.484619, -0.999044, -0.617912, -0.481568, -0.204275, -0.064365, 0.264970, 0.517907, 0.345532, 0.114586, -0.090856, -0.110092, 0.275886, 0.646937, 0.711258, 0.457336, 0.301915, 0.565735, 1.140008, 0.700663, 0.690545, 0.150208, 0.354381, 0.183040, -0.046301, 0.343565, 0.606290, 0.443668, 0.101851, 0.518387, 0.136436, -0.176531, -0.006666, 0.507830, 0.809313, 1.716709, 0.997546, -0.128325, -0.132753, 0.267941, -0.273484, -0.134812, -0.227646, -0.832663, -0.450422, -0.245378, -0.146443, 0.301163, 0.100641, -0.741154, 0.709180, 0.490558, 0.093922, 0.316948, 0.346715, 0.173901, 0.173494, 0.251376, 0.360957, 0.431438, 0.227485, -0.072961, -0.297582, 0.014182, -0.163555, -0.173326, -0.102576, -0.031763, -0.103286, -0.124494, -0.127576, -0.114542, -0.189783, -0.224441, -0.138719, -0.246931, -0.400737, -0.321298, -0.161497, 0.407356, 0.385217, 0.395133, 0.312675, 0.524678, 0.440343, 0.247830, 0.131103, 0.245361, 0.195828, 0.199140, 0.238768, 0.247699, 0.373746, 0.373553, 0.197389, 0.029227, 0.019737, 0.049964, -0.072526, 0.004529, -0.034363, -0.191639, -0.217371, -0.231285, 0.018388, 0.064836, -0.185890, -0.184538, 0.546762, 0.570140, 0.177829, -0.114061, 0.316817, 0.433346, 0.370783, 0.145852, 0.549178, -0.034612, -0.382306, -0.138844, 0.306004, 0.647169, 1.469366, 0.734114, -0.082053, -0.161886, 0.138405, -0.294514, -0.354641, -0.595545, -1.198552, -0.749649, -0.468745, -0.270440, 0.050691, -0.172861, -0.891037, 0.831322, 0.343069, 0.054038, 0.130369, 0.199656, 0.069574, 0.072975, 0.225819, 0.424748, 0.412795, 0.137997, 0.078679, -0.203005, 0.261144, 0.089020, -0.073214, -0.240399, -0.073820, -0.032829, 0.018561, -0.069058, -0.499979, -0.533318, -0.237647, -0.213591, -0.138119, -0.515242, -0.371882, -0.414190, 0.499693, 0.150532, -0.378681, -0.141485, 0.002652, -0.080760, -0.102461, -0.110461, 0.140225, 0.051265, -0.381697, -0.775135, -0.757553, -0.287487, -0.301296, -0.132353, 0.055248, -0.088658, -0.441912, -0.347421, -0.067242, -0.035918, 0.059183, -0.022964, -0.105910, 0.025072, 0.101462, 0.015240, 0.152079, 0.0, 0.0, 0.0, },
{0.316295, 0.067144, -0.639115, -0.352443, 0.030171, 0.149251, 0.647992, 1.138827, 0.048159, 0.383331, 0.021071, -0.179391, 0.397990, 0.675837, 0.267573, -0.516702, -0.567191, 0.076575, 0.236862, -0.074399, -0.643139, -0.414438, -0.591483, 0.087470, -0.376469, -0.094318, -0.176088, 0.317367, -0.220733, 0.256776, 0.041007, 0.175848, 0.058608, -0.024163, -0.131955, -0.114911, -0.149964, 0.052757, 0.029267, 0.067186, 0.172497, 0.117964, 0.128720, -0.181363, -0.054624, 0.088116, 0.019196, -0.076020, -0.203987, 0.027992, -0.285504, -0.076453, -0.003737, -0.184822, -0.045054, 0.025195, -0.041201, -0.310438, 0.174074, -0.023445, -0.215504, -0.228750, 0.117631, 0.189912, 0.554428, 0.675916, 0.337070, 0.294256, 0.092558, -0.168487, 0.137453, -0.000461, -0.136620, -0.188145, -0.236478, -0.156309, 0.064578, 0.008223, -0.338711, 0.164633, -0.192976, -0.144218, -0.126797, -0.294639, -0.423254, -0.259704, -0.046857, -0.214172, -0.058811, -0.786118, -0.413088, -0.171296, -0.133788, 0.214792, 0.828663, -0.201383, 0.282976, 0.127377, -0.090140, 0.309157, 0.757772, 0.487508, -0.395779, -0.651571, -0.019388, 0.128371, -0.150360, -0.688792, -0.461482, -0.571857, 0.305434, -0.121311, 0.095414, 0.091288, 0.652654, 0.041642, 0.033341, 0.052489, 0.149523, 0.139088, 0.078537, -0.021827, -0.040292, 0.044552, 0.155640, 0.066765, 0.159212, 0.218491, 0.211517, 0.167923, 0.144629, -0.122069, -0.014034, 0.017829, -0.091875, -0.396916, -0.105841, -0.386915, -0.144941, -0.115020, -0.166703, -0.130547, 0.002284, 0.011195, -0.224430, -0.116590, -0.037554, -0.162799, -0.146536, -0.174561, -0.297611, -0.448630, -0.279116, -0.458602, -0.235118, -0.163059, -0.110482, -0.057971, 0.062267, 0.015095, -0.020846, -0.053351, 0.097108, 0.093767, 0.097931, 0.095659, 0.025322, 0.120699, 0.370247, 0.278465, 0.344165, 0.315426, 0.454540, 0.231569, 0.128216, 0.097454, -0.500261, -0.156082, 0.049638, 0.326903, 0.921463, 1.424422, 0.471155, 0.935698, 0.405576, 0.318403, 0.624850, 1.009575, 0.504431, -0.558966, -0.886147, -0.113108, -0.090495, -0.556893, -1.123148, -0.894797, -1.241540, -0.282654, -0.579384, -0.368778, -0.366490, 0.292008, -0.323208, 0.061494, -0.054990, -0.025079, 0.198030, 0.066332, -0.004324, -0.023653, -0.046389, -0.106738, -0.006419, 0.035379, 0.104321, 0.162745, 0.331741, 0.284661, -0.082632, -0.099852, 0.116107, 0.137537, -0.101199, 0.021010, -0.352153, -0.126260, 0.060142, -0.143578, 0.011797, 0.096717, 0.135930, -0.195635, 0.519214, 0.192446, 0.164935, 0.023841, 0.235963, 0.108423, 0.515567, 0.723933, 0.626731, 0.526342, 0.478038, 0.459496, 0.458312, 0.567725, -0.042973, -0.292155, -0.370791, -0.026665, -0.280572, -0.665739, -0.636415, -0.848483, -0.665016, -0.394240, -0.641652, -0.563096, -0.440699, -0.246118, -0.598114, 0.0, 0.0, 0.0, },
{0.741622, -0.031887, 0.486077, 0.176739, -0.354644, 0.082175, 0.195239, -0.114676, -0.110336, -0.010443, 0.111461, -0.033551, 0.302952, 0.181270, -0.135774, 0.167158, 0.029673, 0.089211, 0.053763, 0.059662, 0.007106, -0.015607, 0.077228, 0.162857, 0.120629, 0.242831, -0.185032, 0.036295, -0.005455, -0.817125, -0.006726, -0.130247, -0.027752, 0.167376, 0.205506, 0.067513, -0.033513, 0.084721, 0.028029, -0.057288, 0.060414, -0.007475, -0.153410, 0.089173, -0.017793, 0.026171, -0.032093, -0.011612, -0.154567, -0.042215, 0.164823, 0.103104, -0.063581, -0.112948, -0.021111, -0.012746, -0.047649, -0.112773, -0.926684, -0.671922, -0.065842, 0.016711, -0.104205, -0.027744, -0.013222, -0.100689, -0.065150, 0.042417, 0.065385, -0.071184, 0.168893, 0.315261, -0.137093, 0.009585, 0.225115, 0.132765, -0.033721, -0.043241, 0.074277, -0.154210, 0.106110, 0.169350, 0.279460, 0.126959, 0.036528, 0.154083, 0.016616, 1.465641, 0.859906, 1.107617, 0.651037, 0.162692, 0.601174, 0.602111, 0.145799, 0.104065, 0.103710, 0.184816, -0.120022, 0.166816, 0.136118, -0.153160, 0.103948, 0.042832, -0.050336, -0.026428, -0.039829, -0.096609, -0.123102, -0.187396, -0.047400, -0.077565, 0.136607, -0.224703, -0.071055, -0.158731, -0.229650, 0.016304, -0.261195, -0.179127, -0.096824, -0.130621, -0.076660, -0.001969, -0.097570, -0.057629, -0.087608, -0.020067, 0.009153, -0.190322, 0.139516, 0.024968, -0.064179, -0.074595, -0.090425, 0.023230, 0.005016, 0.107511, -0.006730, -0.102714, -0.104560, 0.003442, -0.018150, -0.123418, -0.093184, 0.378393, 0.485969, 0.492314, 0.350700, 0.284306, 0.312658, 0.224799, 0.143906, 0.056713, 0.134619, 0.060563, -0.049730, 0.001281, -0.091326, -0.006908, 0.001804, -0.000300, -0.007402, -0.028681, -0.017582, -0.086387, -0.050722, -0.045630, -0.131285, -0.101158, -0.059128, -0.111411, 0.018969, -0.101819, 0.589521, -0.140437, 0.074234, -0.126914, -0.643315, -0.016532, 0.188080, -0.163201, -0.270775, -0.305691, -0.023017, -0.100616, -0.029342, -0.000063, -0.173872, -0.013455, -0.059005, -0.052065, 0.119825, 0.103195, -0.000207, -0.185120, -0.266580, -0.066017, -0.050963, 0.126530, -0.176711, -0.047037, -0.083291, 0.772028, 0.449659, 0.022971, -0.025987, -0.135294, 0.055440, 0.059774, 0.062242, 0.025269, -0.021825, -0.047109, 0.123871, 0.068432, -0.234493, 0.054116, 0.030534, -0.124139, -0.032409, 0.074657, 0.069343, -0.003526, 0.189315, 0.012306, -0.037111, -0.065264, 0.043187, -0.071262, -0.101363, -0.111107, -1.350965, -0.570508, -0.595647, -0.451466, -0.355664, -0.085487, -0.129314, -0.142656, -0.156380, -0.140013, -0.057656, 0.022031, 0.088041, -0.143855, 0.178748, 0.016058, 0.036476, -0.052630, 0.024401, -0.070212, 0.066953, 0.135206, -0.016649, -0.057871, 0.119788, 0.147409, 0.020368, -0.101718, -0.108884, 0.0, 0.0, 0.0, },
{-0.152158, -0.225016, -0.219145, -0.363958, -0.444961, -0.323905, -0.147773, -0.068293, -0.053555, -0.033301, 0.062379, 0.013104, -0.008516, -0.085084, -0.119767, -0.018739, 0.038230, 0.028916, -0.036458, -0.016141, -0.056811, -0.117632, -0.143185, -0.066238, 0.034675, 0.146004, 0.193075, 0.305626, 0.418886, 0.619749, 0.448940, 0.012833, -0.581690, -0.725582, -0.645931, -0.490286, -0.353548, -0.231597, -0.078237, -0.224117, -0.330756, -0.509477, -0.379508, -0.555062, -0.379023, -0.285533, -0.354787, -0.408356, -0.308497, -0.243147, -0.080482, 0.028092, -0.263051, -0.188489, 0.077874, 0.144500, 0.154362, 0.142607, -0.492977, -0.356301, -0.363208, -0.151304, -0.105151, -0.236776, -0.103000, 0.039795, 0.355952, 0.456867, 0.247028, 0.258476, 0.093501, 0.127167, 0.270973, 0.436327, 0.625329, 0.506959, 0.172323, 0.294620, 0.362179, 0.397311, 0.306298, 0.320737, 0.390659, 0.333510, 0.280689, 0.161480, 0.210130, 0.145696, -0.030163, -0.198793, -0.519681, -0.681935, -0.575115, -0.352870, -0.264318, -0.243769, -0.150836, -0.072093, -0.102638, -0.128587, -0.134083, -0.210763, -0.097315, 0.048520, 0.067721, -0.075626, -0.047196, -0.034450, -0.100641, -0.113815, -0.103685, 0.069919, 0.281860, 0.411647, 0.525755, 0.635086, 0.598644, 0.499986, 0.085093, -0.338106, -0.398548, -0.406761, -0.240495, -0.046324, 0.233461, 0.388644, 0.192414, 0.094751, -0.213985, -0.160493, -0.118581, 0.090886, 0.263174, 0.122549, -0.141155, -0.036247, 0.202587, 0.239137, 0.120664, -0.117961, -0.018922, 0.076392, 0.088706, 0.023851, 0.118229, -0.711563, -0.439411, -0.116801, 0.416922, 0.389658, 0.217450, 0.128428, 0.134957, 0.182064, 0.093633, 0.004072, 0.049308, -0.094457, -0.150323, 0.217340, 0.331888, 0.407367, 0.277962, 0.038657, 0.062764, 0.013006, -0.081956, -0.168266, 0.025579, 0.092980, -0.196804, -0.210578, -0.233548, -0.192768, 0.303049, 0.069371, -0.112584, -0.420805, -0.590876, -0.519683, -0.223076, -0.029672, 0.104513, 0.227744, 0.292348, 0.271719, 0.185787, 0.203558, 0.197877, 0.386735, 0.600298, 0.528688, 0.323923, 0.418636, 0.461779, 0.419149, 0.320569, 0.343611, 0.499947, 0.674196, 0.747143, 0.864118, 1.090517, 0.078251, 0.138869, -0.013240, -0.005543, -0.220260, -0.319919, -0.326849, -0.188671, 0.058941, 0.136345, -0.122530, -0.216732, -0.552642, -0.577640, -0.321562, -0.085391, 0.195317, 0.020362, -0.342140, -0.255377, -0.183764, -0.219815, -0.391909, -0.516153, -0.429305, -0.581000, -0.598157, -0.584300, -0.479948, -1.557975, -1.198162, -0.609788, -0.023732, -0.032074, -0.150110, -0.409626, -0.744919, -1.099281, -1.270006, -1.153448, -1.043869, -0.969251, -0.970128, -0.557755, -0.521932, -0.674635, -0.726500, -0.783008, -0.823087, -0.971117, -1.050818, -0.925160, -0.580207, -0.488091, -0.693809, -0.574059, -0.449926, -0.574966, 0.0, 0.0, 0.0, },
{-0.027572, -0.433908, -0.443225, -0.582323, -0.729449, -0.462501, 0.041506, 0.210427, -0.057977, 0.025604, 0.101620, -0.043444, -0.100082, -0.092170, -0.053134, 0.150487, 0.498048, 0.402535, 0.070676, 0.077665, 0.151019, 0.106662, -0.050790, 0.179673, 0.407762, 0.537328, 0.610267, 0.806922, 1.055244, -0.261070, -0.067834, 0.053150, 0.022732, -0.054017, -0.286655, -0.672740, -0.728929, -0.271006, -0.398883, -0.591227, -0.230648, -0.297118, -0.184821, -0.038248, 0.152652, 0.180199, -0.025286, -0.297882, -0.132923, 0.133078, 0.073660, -0.144074, -0.188215, 0.012386, -0.279870, -0.363869, -0.306862, -0.262593, -1.921829, -1.431141, -0.709572, -0.651848, -0.323189, -0.279193, -0.432292, -0.455188, -0.491932, -0.359326, -0.262572, 0.033498, -0.193182, -0.056998, -0.092047, -0.023377, -0.104120, -0.148617, -0.212021, -0.298228, -0.565792, -0.603002, -0.847947, -0.446667, -0.214963, -0.387677, -0.418780, -0.161893, -0.067746, -0.111655, -0.330881, -0.404104, -0.537339, -0.544193, -0.347092, 0.019748, 0.136482, 0.073753, 0.106974, 0.199192, -0.042819, -0.249551, -0.217855, -0.196112, 0.107173, 0.270419, 0.127330, -0.147140, -0.239746, -0.074098, -0.164553, -0.266840, -0.195385, 0.079680, 0.146859, 0.314126, 0.506948, 0.803900, -0.277830, 0.020458, 0.409095, 0.306097, 0.409119, 0.194809, -0.108878, -0.241608, -0.054549, -0.087213, -0.278726, 0.111878, -0.112972, 0.036315, 0.122171, 0.306967, 0.185616, 0.067526, -0.161504, -0.060742, 0.014840, -0.030409, -0.228893, -0.134751, 0.038724, -0.221960, -0.273147, -0.044349, 0.003889, -0.168639, -0.082540, 0.274136, 0.250861, 0.310164, 0.271922, 0.138339, -0.018878, -0.408509, -0.228243, -0.062213, 0.116681, 0.085050, 0.120429, 0.209217, 0.133319, -0.010634, 0.118691, 0.057183, 0.068429, -0.281501, -0.236248, -0.208092, 0.101348, -0.127119, -0.025338, -0.018964, 0.156049, 0.090749, -0.119451, -0.324092, -0.329478, -0.455819, -0.534807, -0.323156, -0.057399, 0.024541, -0.053644, 0.156478, 0.177653, -0.032929, -0.305840, -0.319316, -0.360416, -0.062066, 0.221798, 0.139451, -0.201187, -0.303703, -0.183400, -0.157041, -0.424752, -0.439487, -0.203322, -0.159263, -0.057703, 0.202460, 0.474809, 0.010476, 0.210724, 0.596717, 0.501453, 0.434433, 0.183159, -0.265344, -0.453271, -0.367103, -0.327219, -0.453615, -0.088938, -0.180783, 0.002833, -0.004998, 0.137914, 0.145541, 0.111754, -0.229691, 0.012386, -0.033884, -0.063881, -0.035777, 0.187558, 0.058684, 0.033040, 0.073854, 0.270554, 0.221058, 0.225576, 0.086483, -0.259298, -0.061741, 0.241691, 0.077755, -0.166192, -0.456950, -0.927851, -0.807151, -0.445637, -0.494871, 0.000052, -0.081809, 0.218456, 0.168677, -0.131125, -0.100224, 0.044508, 0.039298, -0.194699, -0.189325, 0.292757, 0.489392, -0.013488, 0.229344, 0.286308, 0.198090, 0.001789, 0.0, 0.0, 0.0, },
{0.448695, -0.108998, -0.348098, 0.589499, 0.267475, 0.074519, -0.173712, -0.146038, -0.233174, -0.394244, -0.358250, -0.169268, -0.274821, -0.224266, 0.511810, 0.367056, -0.384954, -0.505360, 0.257191, -0.154192, 0.046735, -0.399468, -0.347480, -0.015365, 0.265990, 0.160880, 0.892239, 0.036347, 1.492485, 0.517621, 0.603605, 0.188887, -0.129864, -0.192208, -0.168595, -0.232776, 0.035956, 0.157839, 0.351365, 0.308134, 0.196259, 0.144550, -0.046922, 0.051941, -0.210283, 0.100206, 0.040696, 0.317330, 0.322650, 0.110268, 0.037605, -0.244730, -0.249011, -0.354010, -0.487323, -0.336213, -0.276622, -1.033094, 1.654916, 0.803706, 0.727665, 0.643557, 0.545889, 0.323807, 0.143380, 0.441700, 0.037634, 0.019747, 0.196169, -0.072172, 0.143596, -0.114602, 0.033809, -0.260790, -0.800300, -0.462275, -0.250652, -0.830942, -0.661170, -0.536499, -0.109003, -0.045492, -0.339487, -0.399250, -0.400308, -0.334735, -0.580967, -1.157675, -1.527312, -1.444532, -0.399933, -0.467660, -0.431551, -0.501679, -0.386538, -0.460015, -0.510303, -0.530988, -0.042405, -0.125280, -0.109101, 0.510489, 0.329203, -0.222346, -0.239874, 0.599030, 0.010320, 0.390115, -0.044218, 0.056110, 0.384875, 0.567451, 0.602932, 1.227533, 0.445677, 1.721720, -0.156109, 0.374402, 0.224995, -0.121122, -0.074952, 0.002714, 0.059122, -0.002894, 0.301560, 0.175680, 0.169559, 0.206316, 0.153983, 0.010398, 0.187983, 0.045443, 0.251369, 0.263784, 0.399383, 0.437457, 0.158133, 0.102134, -0.130674, -0.268308, -0.150825, -0.115457, -0.232437, -0.129913, -0.331255, -1.482172, -1.414958, -1.128633, -0.717825, -0.571813, -0.620839, -0.455762, -0.099495, -0.387629, -0.158987, -0.087691, -0.066667, 0.101425, -0.008706, 0.204684, 0.354032, 0.110247, 0.151573, 0.313170, 0.299539, 0.309078, 0.308178, 0.295910, 0.413364, 0.525694, 0.672206, 0.679093, 0.540946, 0.795268, 0.139610, -0.026185, -0.105837, 0.567459, 0.135759, 0.092690, 0.059175, 0.171634, -0.049165, -0.205902, -0.352284, 0.147602, 0.214156, 0.106124, 0.446199, 0.252645, -0.281909, -0.386269, 0.492393, 0.055263, 0.118291, -0.212820, -0.540398, -0.153497, 0.066330, -0.062421, 0.578833, -0.236019, 1.115348, -0.487786, 0.031451, -0.209604, -0.009704, 0.001597, -0.021512, -0.074455, -0.369842, -0.072922, -0.177799, -0.249030, 0.027152, -0.103426, -0.009139, 0.198397, 0.235574, 0.225490, -0.002676, 0.294128, 0.414598, 0.176231, 0.064549, -0.222824, -0.006872, -0.006297, 0.086933, 0.154338, 0.204590, 0.449962, 1.304048, 1.327644, 0.997046, 0.403627, 0.347488, 0.133875, 0.170739, 0.476487, 0.496161, 0.477978, 0.284059, 0.417327, 0.299404, 0.126888, 0.199288, 0.147901, -0.137976, 0.022858, 0.561789, 0.146288, 0.072400, -0.258795, -0.681755, -0.535325, -0.629169, -0.821698, -0.794178, -1.048747, -1.209760, 0.0, 0.0, 0.0, },
{0.198713, 0.179487, 0.202761, 0.175986, 0.175183, 0.133858, 0.059825, 0.065059, 0.072056, 0.137536, 0.130609, 0.107195, 0.061555, 0.030375, -0.048356, -0.069019, -0.098300, -0.074708, -0.079951, -0.138543, -0.143687, -0.175509, -0.192264, -0.213101, -0.232683, -0.247639, -0.275470, -0.259561, -0.256731, -0.085493, -0.098741, -0.007746, -0.005980, 0.031852, 0.146586, 0.143876, 0.074897, 0.081556, 0.188952, 0.349814, 0.487399, 0.569157, 0.618092, 0.653193, 0.679748, 0.620882, 0.651711, 0.676203, 0.618852, 0.531233, 0.539798, 0.479901, 0.478938, 0.436217, 0.398979, 0.423479, 0.398138, 0.359562, -0.305483, -0.435659, -0.505232, -0.438161, -0.435431, -0.392103, -0.241098, -0.198241, -0.229147, -0.299741, -0.222681, -0.182943, -0.124170, -0.071776, 0.046901, 0.012895, 0.053038, 0.053001, 0.102141, 0.183402, 0.162592, 0.278203, 0.368806, 0.422252, 0.447921, 0.512333, 0.586832, 0.516118, 0.450667, 0.143124, 0.140603, 0.176432, 0.128769, 0.131864, 0.139438, 0.098172, 0.091347, 0.105607, 0.185606, 0.224635, 0.263943, 0.211657, 0.181302, 0.127821, 0.102884, 0.096230, 0.111737, 0.114362, 0.038536, 0.026169, 0.032924, 0.003731, -0.016680, -0.025464, -0.043165, -0.062727, -0.069331, -0.079175, -0.158180, -0.231901, -0.217059, -0.189107, -0.196766, -0.049192, 0.000771, -0.037769, -0.049643, -0.008678, 0.160279, 0.262315, 0.368791, 0.433391, 0.520131, 0.504771, 0.458405, 0.477811, 0.523593, 0.527734, 0.443433, 0.513919, 0.523127, 0.548935, 0.528188, 0.527006, 0.581111, 0.528061, 0.461872, -0.203637, -0.297413, -0.409653, -0.362718, -0.358304, -0.412607, -0.349545, -0.274197, -0.285095, -0.421333, -0.470374, -0.516780, -0.499514, -0.485369, -0.396722, -0.445110, -0.411142, -0.442231, -0.406774, -0.283396, -0.272899, -0.221416, -0.107444, -0.057056, 0.007836, 0.065163, 0.118265, 0.103383, 0.093858, 0.147106, 0.087970, 0.102376, 0.110420, 0.102748, 0.117127, 0.107319, 0.091955, 0.101176, 0.187199, 0.254873, 0.311625, 0.295767, 0.284817, 0.256959, 0.211463, 0.170227, 0.204471, 0.228190, 0.160103, 0.142310, 0.175631, 0.168936, 0.149498, 0.132414, 0.123009, 0.128802, 0.120122, 0.091073, -0.186564, -0.272864, -0.314254, -0.295756, -0.272277, -0.190422, -0.128949, -0.140525, -0.158875, -0.210837, -0.121921, -0.019163, 0.070690, 0.121163, 0.229836, 0.175655, 0.164160, 0.119695, 0.182879, 0.243541, 0.157698, 0.233789, 0.289434, 0.317246, 0.344179, 0.376702, 0.429352, 0.381273, 0.348578, -0.101237, -0.096826, -0.178493, -0.191729, -0.184851, -0.312677, -0.336172, -0.258900, -0.219782, -0.356338, -0.475095, -0.575854, -0.638880, -0.674413, -0.631034, -0.652089, -0.598093, -0.649647, -0.651024, -0.548454, -0.503735, -0.534419, -0.479870, -0.449891, -0.369923, -0.355409, -0.327361, -0.282481, -0.250200, 0.0, 0.0, 0.0, },
{-0.081472, -0.073206, 0.068972, 0.068656, -0.056248, -0.215467, -0.174068, -0.117750, 0.051688, 0.062167, -0.121422, -0.025734, 0.184880, 0.317659, 0.225609, 0.069429, -0.239962, -0.266903, -0.187764, -0.164568, -0.108383, -0.204784, 0.137840, 0.255779, 0.395803, 0.298680, 0.290710, 0.181938, -0.062934, 1.416101, 1.205647, 1.351857, 0.724711, 0.637427, 0.266517, 0.040732, 0.375703, 0.210414, 0.141493, 0.001433, -0.076207, 0.075093, 0.198293, -0.178190, -0.220412, 0.009810, 0.222923, 0.425023, 0.327547, 0.158449, -0.170462, -0.736044, -0.495439, -0.515930, -0.734348, -0.785573, -0.636352, -0.562388, -1.566949, -1.065829, -1.196612, -1.118216, -0.694230, -0.099686, -0.143429, -0.094167, -0.088088, -0.132178, 0.104031, -0.016683, -0.212444, -0.304697, -0.132738, -0.161394, 0.145210, 0.013894, 0.170735, 0.231369, 0.442436, 0.488557, 0.428543, 0.596434, 0.751894, 0.695477, 0.504687, 0.500543, 0.676346, -0.073288, -0.115974, 0.050934, -0.066034, -0.054568, -0.090656, -0.138842, -0.006662, 0.127616, 0.084423, 0.047046, 0.066244, 0.296373, 0.435416, 0.207395, 0.037117, -0.220481, -0.113330, 0.000687, 0.022551, 0.017008, -0.086982, 0.055704, 0.239467, 0.311530, 0.217649, 0.132790, 0.039758, -0.098473, 0.636627, 0.878130, 0.904989, 0.389406, 0.347620, 0.303445, 0.035765, 0.416158, 0.252523, 0.159082, 0.228336, 0.085536, 0.124272, 0.123702, -0.099645, -0.165601, 0.054600, 0.051663, 0.388377, 0.239067, 0.108936, -0.185260, -0.726278, -0.327881, -0.305968, -0.529620, -0.666926, -0.535682, -0.430771, -1.244591, -0.524449, -0.728934, -0.533197, -0.295067, 0.175703, 0.296827, 0.139652, 0.217762, 0.161779, 0.282846, 0.288040, 0.039382, -0.003343, 0.200487, 0.024618, 0.109150, -0.178019, -0.184115, -0.214761, -0.071355, 0.104940, 0.319378, 0.252686, 0.406354, 0.475276, 0.237862, 0.188317, 0.245488, 0.211128, 0.377931, 0.563043, 0.292342, 0.244225, 0.222532, 0.117734, 0.323254, 0.394192, 0.360045, 0.184009, 0.216034, 0.403995, 0.461158, 0.230628, 0.023109, -0.136970, -0.103818, 0.033066, 0.003675, -0.090882, -0.175871, -0.147928, 0.154835, 0.265599, 0.127947, 0.002865, 0.003279, -0.145510, 0.954153, 1.342859, 1.202848, 0.614280, 0.379687, 0.566845, 0.369570, 0.365892, 0.351321, 0.167700, 0.213539, 0.155281, 0.074979, 0.090726, -0.035968, -0.279088, -0.026788, -0.137498, 0.069086, -0.185528, -0.301372, -0.373620, -0.818033, -0.499157, -0.364794, -0.505862, -0.797611, -0.720501, -0.616291, -0.720752, -0.317708, -0.507890, -0.110694, 0.113977, 0.380196, 0.620170, 0.298439, 0.399256, 0.443286, 0.517230, 0.487772, 0.362284, 0.449582, 0.511343, 0.343922, 0.224584, 0.026817, -0.137409, -0.117246, -0.023429, 0.196496, 0.579310, 0.152510, 0.238625, 0.386758, 0.175832, 0.028629, 0.095541, 0.0, 0.0, 0.0, },
{-0.202805, -0.057690, -0.126612, -0.017745, 0.331872, 0.323312, 0.259548, 0.223454, 0.184877, 0.151663, 0.208139, 0.368066, 0.546833, 0.703857, 0.997795, 1.031634, 0.878605, 0.958907, 1.088441, 1.061675, 1.178157, 1.223664, 1.114434, 1.099774, 0.961047, 0.879512, 0.874937, 0.787521, 0.722339, 0.028062, -0.056787, -0.089428, 0.062963, 0.003459, 0.109714, 0.208787, 0.104891, 0.033872, 0.114009, 0.092420, 0.105434, 0.155565, 0.218628, 0.167737, 0.232780, 0.074760, 0.066593, 0.109278, 0.178110, 0.187797, 0.076893, -0.070068, -0.060425, -0.143760, -0.175430, -0.119379, -0.095983, -0.093125, 0.440219, 0.398799, 0.267681, 0.134659, -0.220705, -0.380406, -0.450990, -0.373316, -0.339027, -0.314143, -0.478406, -0.219712, -0.334805, -0.449022, -0.634512, -0.667855, -0.585538, -0.598536, -0.783452, -0.714178, -0.728750, -0.779245, -0.588342, -0.574743, -0.551404, -0.535285, -0.581226, -0.557769, -0.537611, -0.217227, -0.116593, -0.199217, -0.060539, 0.272864, 0.316171, 0.249994, 0.218854, 0.186213, 0.161232, 0.131385, 0.328251, 0.578694, 0.680158, 0.961032, 1.035733, 0.836080, 0.849705, 1.015145, 1.005347, 1.135960, 1.127198, 0.988379, 0.982482, 0.813052, 0.722265, 0.740308, 0.639810, 0.579576, 0.205297, 0.107520, 0.002629, 0.125781, -0.017535, 0.072550, 0.142573, 0.086480, 0.125109, 0.206025, 0.066260, 0.299410, 0.242735, 0.279351, 0.207335, 0.242317, 0.141024, 0.128624, 0.096059, 0.213224, 0.239718, 0.071939, 0.003200, -0.024209, -0.093387, -0.111980, -0.115727, -0.057452, -0.051133, 0.450250, 0.457025, 0.393231, 0.210129, -0.005101, -0.159277, -0.244221, -0.148773, -0.086924, -0.072815, -0.068648, 0.038566, -0.129161, -0.152608, -0.212502, -0.310056, -0.184184, -0.138234, -0.286923, -0.317399, -0.425838, -0.398716, -0.201340, -0.215888, -0.129672, -0.081103, -0.161279, -0.138184, -0.104724, -0.164851, -0.060700, -0.209717, -0.072600, 0.217979, 0.235187, 0.241740, 0.202912, 0.167406, 0.146686, 0.104979, 0.289522, 0.531134, 0.690144, 0.905108, 1.013655, 0.804097, 0.839948, 0.984448, 0.997489, 1.142973, 1.120100, 0.969795, 0.934621, 0.767014, 0.661931, 0.642374, 0.528599, 0.495777, 0.407566, 0.314566, 0.253160, 0.260149, 0.049137, 0.140894, 0.207339, 0.178805, 0.205890, 0.323274, 0.236474, 0.443395, 0.313309, 0.346519, 0.326938, 0.273656, 0.261290, 0.280360, 0.233702, 0.245104, 0.142567, 0.035673, 0.045238, 0.022977, 0.022495, 0.010254, -0.029601, 0.012988, 0.076357, 0.482893, 0.503098, 0.511602, 0.236794, 0.096542, -0.065615, -0.215935, -0.135853, -0.069486, -0.068257, 0.004213, -0.090971, -0.265455, -0.335017, -0.311629, -0.432000, -0.325987, -0.305870, -0.389280, -0.545508, -0.698864, -0.623573, -0.458059, -0.467582, -0.324691, -0.260556, -0.267643, -0.275667, -0.248465, 0.0, 0.0, 0.0, },
{0.064514, 0.010074, 0.048665, -0.021216, -0.087180, -0.129004, -0.192897, -0.236013, -0.301280, -0.277992, -0.157705, -0.132433, -0.053338, -0.027833, 0.062411, 0.029280, -0.109757, -0.157925, -0.097503, -0.128329, -0.024333, -0.005685, -0.039195, -0.029837, -0.014099, -0.020538, -0.049591, -0.021939, -0.098048, -1.114443, -0.889091, -0.742616, -0.546611, -0.329044, -0.193616, -0.113449, -0.087359, -0.096062, -0.091429, -0.207663, -0.178894, -0.128591, -0.095407, 0.108921, 0.267168, 0.283150, 0.280963, 0.291595, 0.454148, 0.605048, 0.837649, 0.893651, 0.885100, 0.964098, 1.039983, 1.000987, 1.021217, 1.161059, -0.276175, -0.063086, 0.169088, 0.312460, 0.434877, 0.523182, 0.472583, 0.322987, 0.271872, 0.288848, 0.057086, 0.026986, 0.119348, 0.244522, 0.312255, 0.251470, 0.254401, 0.244285, 0.289621, 0.427435, 0.259656, 0.122262, 0.194233, 0.223095, 0.122256, 0.110146, 0.168885, 0.127308, 0.268456, -0.185246, -0.190144, -0.093432, -0.089977, -0.152612, -0.139891, -0.197794, -0.266308, -0.323651, -0.287082, -0.204741, -0.163478, -0.076272, -0.000137, 0.156977, 0.097772, -0.040261, -0.053417, 0.010319, 0.035638, 0.164523, 0.214078, 0.250023, 0.273056, 0.279988, 0.298150, 0.271177, 0.256045, 0.227765, -1.271371, -0.951346, -0.580058, -0.340530, -0.139603, 0.041465, 0.128699, 0.045778, 0.030223, 0.057597, -0.113829, -0.099442, -0.016307, 0.103515, 0.307315, 0.435067, 0.445289, 0.432823, 0.436041, 0.627862, 0.686430, 0.796288, 0.925717, 0.958610, 0.979365, 1.049878, 1.043292, 1.054488, 1.216183, 0.031040, 0.085637, 0.142904, 0.178619, 0.282633, 0.312934, 0.244951, 0.162094, 0.125829, 0.149484, 0.034803, 0.002627, 0.094665, 0.243565, 0.150796, -0.009663, -0.004154, 0.068305, 0.170044, 0.209745, 0.054310, -0.162318, -0.110871, -0.084743, -0.140225, -0.179345, -0.091666, -0.096592, -0.069007, -0.422715, -0.343175, -0.196060, -0.124823, -0.107132, -0.065693, -0.110257, -0.198672, -0.221400, -0.233194, -0.216548, -0.174862, -0.056643, 0.051488, 0.223278, 0.241716, 0.074435, 0.041188, 0.100181, 0.163463, 0.328324, 0.391832, 0.449398, 0.479219, 0.499487, 0.547522, 0.529248, 0.495512, 0.479788, -1.237355, -0.917476, -0.615215, -0.403132, -0.199060, -0.041172, -0.019231, -0.140426, -0.172870, -0.153952, -0.358768, -0.330853, -0.184230, 0.029467, 0.162064, 0.183778, 0.171874, 0.198227, 0.247414, 0.445508, 0.446915, 0.496622, 0.652479, 0.715227, 0.768844, 0.800951, 0.878509, 0.884674, 1.035588, 0.855825, 0.687626, 0.486955, 0.366976, 0.392089, 0.427658, 0.379410, 0.434667, 0.405358, 0.467995, 0.555590, 0.527929, 0.529494, 0.617100, 0.400291, 0.144194, 0.189200, 0.370932, 0.549534, 0.486036, 0.350307, 0.152682, 0.121555, 0.083954, 0.033765, -0.058985, 0.009684, 0.030713, -0.022874, 0.0, 0.0, 0.0, },
{0.585962, 0.504101, 0.438537, 0.334644, 0.189095, 0.235258, 0.256934, 0.252292, 0.241465, 0.259469, 0.318033, 0.297059, 0.377834, 0.463569, 0.258205, 0.110362, -0.069744, -0.181236, -0.204074, -0.178597, -0.223881, -0.224708, -0.153840, -0.144993, -0.078412, -0.142446, -0.193929, -0.118059, -0.105604, -1.329507, -1.083139, -1.212300, -1.068290, -0.983164, -0.808642, -0.882399, -0.782394, -0.614140, -0.470043, -0.437846, -0.280370, -0.404449, -0.420482, -0.397229, -0.285794, -0.207461, -0.240221, -0.216794, -0.224488, -0.155247, -0.122473, -0.115878, -0.047612, 0.062974, 0.230152, 0.356512, 0.143530, 0.011192, -0.331764, -0.197844, -0.070661, -0.014685, 0.145995, 0.089048, 0.129275, 0.300624, 0.358709, 0.190480, 0.189092, 0.330778, 0.286049, 0.160256, 0.222296, 0.288267, 0.371958, 0.336142, 0.344993, 0.377802, 0.532996, 0.554948, 0.517420, 0.426343, 0.379530, 0.398867, 0.346777, 0.204626, 0.139752, 0.359070, 0.351463, 0.139595, 0.111772, -0.016600, -0.011838, -0.022886, 0.007369, 0.008939, 0.026598, 0.040108, 0.118555, 0.160889, 0.212593, 0.035069, -0.099375, -0.206011, -0.274147, -0.307659, -0.299071, -0.377556, -0.340432, -0.266335, -0.224693, -0.132218, -0.152188, -0.180169, -0.186635, -0.213897, -1.410724, -1.110019, -1.222824, -1.130841, -1.060637, -1.020896, -1.020483, -0.890839, -0.765494, -0.655116, -0.633116, -0.432678, -0.531840, -0.617216, -0.609877, -0.507316, -0.418401, -0.416530, -0.383426, -0.397139, -0.226103, -0.226226, -0.157489, -0.141717, 0.019168, 0.188375, 0.278105, 0.037670, -0.102146, -0.555130, -0.565999, -0.277771, -0.318051, -0.248358, -0.252864, -0.133431, 0.028881, 0.107180, -0.002307, 0.039438, 0.008669, 0.072334, -0.028633, -0.018461, -0.057659, -0.079797, -0.141087, -0.160763, -0.087786, 0.041849, 0.065732, 0.094991, 0.019518, 0.017069, -0.035440, -0.090776, -0.032284, 0.024735, 0.169351, 0.219330, 0.045152, -0.012269, -0.184705, -0.199813, -0.280814, -0.180277, -0.129470, -0.091282, -0.039200, -0.018085, 0.049289, 0.087723, -0.095053, -0.216148, -0.344318, -0.438116, -0.435847, -0.421875, -0.422636, -0.418357, -0.321364, -0.252328, -0.129940, -0.101598, -0.115403, -0.162886, -0.199225, -1.613388, -1.413666, -1.366177, -1.314259, -1.280915, -1.184426, -1.096532, -0.893386, -0.675769, -0.601513, -0.578688, -0.376899, -0.407555, -0.556603, -0.542371, -0.458890, -0.466530, -0.514683, -0.474597, -0.465480, -0.237667, -0.160607, -0.094417, -0.142377, 0.003289, 0.111404, 0.194824, 0.026802, -0.055488, -0.786371, -0.874445, -0.553447, -0.523147, -0.379265, -0.237154, 0.001644, 0.184738, 0.234492, 0.139710, 0.160434, 0.043769, 0.088117, 0.065682, 0.071418, 0.040448, 0.052384, -0.041259, -0.115475, -0.015853, 0.015967, 0.077822, 0.145426, 0.091666, 0.021167, -0.070759, -0.090727, 0.087916, 0.216447, 0.0, 0.0, 0.0, },
{-0.621801, 0.760770, 1.173247, 1.440526, 1.739761, 0.654525, -0.444313, -0.645459, -0.670564, -0.919190, -0.410119, -0.398781, -0.145140, -0.050020, 0.004946, -0.189712, 0.100577, -0.000473, 0.293935, 0.335200, 0.204557, 0.116054, -0.224380, 0.566759, -0.098339, 0.157720, -0.268061, 0.063797, 0.091513, -0.670837, -0.561359, -0.752815, -0.662255, -0.775302, -0.187054, 0.054583, 0.327029, 0.220907, 0.159330, 0.375544, 0.213783, 0.215762, 0.238819, 0.149094, 0.100148, 0.027137, -0.088760, -0.261770, 0.004001, 0.164327, 0.154995, 0.238078, -0.161043, 0.125715, -0.079722, 0.235109, -0.301300, 0.288536, -0.770869, -0.241576, 0.477856, 0.795703, 0.907877, 0.267943, -0.350638, -0.575339, -0.364819, -0.620435, -0.742037, -0.374088, -0.160525, -0.033514, 0.162171, 0.143363, 0.225638, 0.142302, 0.348551, 0.521960, 0.139225, 0.119839, 0.161204, 0.485134, 0.016341, 0.163846, -0.076646, 0.297492, 0.388063, -0.149107, 1.022217, 0.953770, 1.071616, 1.525027, 0.379823, -0.515444, -0.542463, -0.341615, -0.468278, -0.211322, -0.019882, 0.077179, -0.144526, -0.088528, -0.253310, -0.038932, -0.236532, -0.134717, -0.031955, -0.115276, -0.370215, -0.686190, 0.386127, -0.365306, -0.008728, -0.480088, -0.024867, -0.030052, -0.189448, -0.349499, -0.703713, -0.664732, -0.758777, -0.418979, -0.013749, 0.170006, 0.071255, 0.221258, 0.502717, 0.241666, 0.233286, 0.173444, 0.054946, -0.031180, 0.024621, -0.133894, -0.234599, -0.204830, -0.009697, -0.079851, -0.102517, -0.119595, 0.059839, -0.030463, 0.171252, -0.183707, -0.071867, 0.545632, 0.711432, 0.457717, 0.232700, 0.474480, 0.095134, -0.018143, 0.041916, 0.048651, -0.015975, 0.181822, 0.085200, -0.013970, -0.127702, -0.098544, -0.296672, -0.182217, -0.175956, -0.203601, -0.277130, -0.243913, -0.329847, -0.357788, -0.182070, -0.277896, -0.170163, -0.281935, -0.178537, -0.228312, -0.519352, 0.269877, 0.118514, 0.615558, 1.018005, -0.075567, -0.665594, -0.713840, -0.520391, -0.848608, -0.172788, 0.119189, 0.099303, -0.024849, 0.057044, -0.096342, -0.003734, -0.290098, 0.151843, 0.218699, 0.030812, -0.160916, -0.314422, 0.586742, -0.172281, 0.129282, -0.251876, -0.091922, 0.008771, 0.066238, 0.116676, -0.154828, -0.169483, -0.313323, -0.013968, 0.215045, 0.238573, 0.118528, 0.189196, 0.360292, 0.104666, 0.033925, 0.128104, -0.079600, 0.043492, 0.089471, -0.114835, -0.096654, -0.059466, 0.140769, 0.147162, -0.009716, 0.002280, 0.110709, 0.003653, 0.138844, -0.152434, 0.046489, -0.996213, -0.799164, -0.838150, -0.561648, -0.553721, -0.432860, -0.257775, -0.192802, -0.002824, -0.168405, 0.315131, 0.230954, 0.267168, 0.440774, 0.201891, 0.262469, 0.028400, -0.046673, -0.145707, 0.093457, 0.309054, 0.018823, 0.148473, 0.219133, -0.068659, 0.164321, 0.187120, -0.232126, 0.251336, 0.0, 0.0, 0.0, },
{0.233827, 0.204414, 0.328589, 0.187616, -0.025535, -0.051717, 0.040269, 0.226861, 0.195114, 0.509426, 0.667104, 0.665028, 0.452486, 0.317081, 0.065211, -0.191560, -0.284282, -0.187883, -0.040706, 0.011659, 0.147702, 0.186151, 0.067534, -0.077351, 0.131990, 0.103385, -0.005175, -0.020829, -0.119260, 0.466156, 0.346395, 0.508776, 0.385713, 0.341752, 0.016228, 0.203780, 0.240250, 0.224256, 0.166320, 0.065121, -0.192471, -0.183776, -0.382960, -0.539680, -0.508852, -0.455118, -0.391652, -0.671338, -0.892152, -0.964510, -1.060016, -1.117579, -1.139192, -1.282974, -0.977211, -0.783394, -0.775658, -0.719358, -0.166147, -0.511773, -0.387605, -0.439097, -0.434950, -0.221902, -0.374256, -0.462449, -0.113854, -0.595821, -0.625618, -0.326728, 0.041343, 0.215071, 0.389499, 0.491497, 0.557393, 0.515274, 0.396491, 0.497394, 0.370765, 0.331092, 0.163758, 0.449135, 0.417798, 0.388421, 0.340322, 0.091383, 0.225390, 0.215781, 0.162799, 0.372896, 0.142254, -0.086430, -0.160620, -0.072596, 0.103203, 0.114317, 0.365893, 0.557005, 0.490276, 0.355805, 0.160606, -0.096391, -0.334848, -0.384062, -0.275482, -0.252106, -0.239157, -0.092059, -0.125923, -0.306159, -0.407363, -0.191754, -0.145960, -0.228330, -0.231496, -0.295695, 0.580203, 0.377520, 0.515685, 0.314439, 0.171911, 0.053352, -0.000086, 0.155487, 0.385493, 0.139860, 0.114286, -0.058097, 0.031726, -0.114336, -0.255322, -0.269934, -0.104727, -0.037819, -0.388800, -0.559833, -0.700621, -0.764613, -0.806192, -0.613049, -0.678891, -0.495291, -0.423176, -0.583867, -0.473215, -0.043532, 0.123646, 0.050164, 0.167996, 0.077091, 0.266483, 0.048922, -0.001323, 0.175393, -0.100460, -0.204935, 0.059929, 0.165907, 0.332078, 0.430156, 0.487551, 0.546665, 0.434851, 0.410513, 0.458944, 0.285284, 0.386110, 0.379585, 0.618746, 0.683308, 0.425836, 0.256103, 0.063410, 0.219844, 0.376315, 0.200279, 0.437676, 0.207783, -0.082071, -0.202249, -0.128653, 0.050010, 0.081420, 0.293674, 0.486760, 0.341504, 0.232609, 0.010684, -0.318166, -0.542999, -0.572588, -0.478024, -0.453411, -0.443103, -0.326422, -0.418746, -0.613925, -0.682084, -0.464599, -0.404173, -0.413638, -0.443740, -0.515988, 0.801175, 0.812344, 0.766925, 0.669313, 0.411958, 0.290565, 0.166655, 0.261004, 0.492980, 0.255529, 0.186520, 0.137259, 0.071011, -0.102860, -0.136810, -0.166977, 0.015629, 0.095199, -0.381253, -0.521291, -0.704318, -0.707382, -0.688676, -0.325211, -0.433034, -0.436251, -0.476345, -0.709083, -0.484793, -0.444788, 0.147736, 0.018370, 0.259718, 0.269848, 0.443900, 0.345395, 0.191477, 0.063382, -0.011467, -0.193606, 0.014032, 0.042009, 0.278478, 0.415787, 0.551012, 0.549138, 0.441596, 0.656518, 0.675056, 0.506382, 0.695521, 0.835637, 0.948111, 1.016510, 0.705405, 0.521883, 0.466578, 0.571452, 0.0, 0.0, 0.0, },
{-1.077971, -0.465367, -0.827578, -0.410231, -0.278135, -0.575484, -0.706322, -0.678112, -0.688735, -0.426467, -0.234954, -0.423500, -0.393879, -0.154081, -0.275889, -0.279867, -0.331353, -0.499048, 0.262047, -0.584808, -0.043004, 0.107801, -0.284698, 0.382839, 0.167252, 0.277307, 0.272283, 0.401790, 0.373054, 0.129554, -0.072785, 0.171542, -0.270357, -0.217840, 0.144782, 0.106881, 0.093931, 0.233992, 0.068482, 0.116500, 0.022286, -0.004795, -0.049345, 0.031858, -0.092826, -0.032916, 0.104100, -0.162279, -0.007533, -0.218326, -0.014806, -0.096631, -0.113917, 0.139560, -0.014158, -0.075588, 0.061749, -0.266168, -1.920540, -0.609237, -1.143200, -1.226274, -1.148907, -1.392611, -1.466825, -1.376182, -1.192741, -1.032218, -1.126167, -0.710885, -0.510754, -0.390812, -0.340151, -0.254217, -0.404631, -0.465424, -0.376246, -0.582565, -0.001753, -0.417057, -0.084373, 0.244833, 0.020588, -0.119346, 0.082253, -0.005394, 0.025366, 0.221336, 0.149777, 0.136916, 0.502866, 0.635106, 0.492926, 0.617947, 0.471705, 0.519555, 0.492045, 0.487974, 0.354478, 0.405030, 0.254519, 0.186443, 0.350462, -0.035312, -0.006402, 0.752265, 0.004035, 0.490220, 0.703164, -0.027578, 0.618271, 0.426014, 0.530362, 0.345845, 0.444517, 0.676856, 0.756108, 0.071840, 0.522612, 0.323964, 0.609661, 0.744045, 0.738301, 0.792187, 0.703048, 0.645891, 0.703592, 0.425905, 0.138756, 0.183852, 0.099721, 0.014246, 0.111394, 0.082909, 0.080593, -0.004141, -0.278778, -0.189511, -0.354294, -0.406422, -0.219570, -0.131453, -0.327857, -0.364481, -0.554772, 0.740854, 0.610422, 0.569589, 0.609454, 0.692897, 0.571594, 0.668637, 0.559343, 0.592483, 0.340686, 0.334821, 0.451169, 0.395975, 0.461410, 0.395369, 0.332175, 0.365355, 0.568038, 0.648930, 0.478590, 0.633298, 0.570872, 0.596974, 0.650741, 0.602434, 0.563916, 0.569022, 0.653823, 0.731971, -0.231828, -0.184880, -0.180900, 0.351704, 0.488020, 0.451514, 0.552050, 0.381485, 0.474021, 0.628843, 0.576200, 0.542924, 0.096351, 0.221492, 0.074481, 0.037613, -0.236898, -0.216876, 0.365747, -0.360027, -0.120431, -0.231767, -0.798302, -0.299570, -0.178418, -0.079286, -0.553679, -0.385085, -0.360112, 0.475790, -0.121494, 0.165785, 0.256717, 0.345062, 0.455493, 0.456405, 0.427315, 0.247617, 0.359670, 0.502164, 0.083560, 0.063680, -0.115561, -0.062240, -0.041611, -0.052970, -0.068365, -0.040825, -0.102648, -0.172448, 0.102446, -0.315995, -0.347402, -0.080185, 0.000578, -0.255377, -0.026764, -0.142830, -0.233799, -0.417796, -0.065141, -0.372000, -0.041171, 0.255440, 0.122402, 0.237284, 0.433372, 0.272971, 0.535489, 0.127081, -0.197637, -0.030716, -0.208312, -0.168475, -0.360782, -0.204338, -0.331022, -0.480179, -0.581477, -0.652475, -0.984661, -0.731559, -0.435944, -0.430950, -1.037041, -0.628251, -0.976796, 0.0, 0.0, 0.0, },
{-0.415994, -0.268991, 0.030286, -0.017776, 0.137449, 0.225421, -0.006868, 0.144507, 0.124493, 0.034048, 0.189152, 0.385168, 0.265847, 0.037688, 0.112617, 0.169248, -0.475374, -0.403791, -0.011341, -0.270034, -0.080600, -0.227177, 0.799212, 0.311561, 0.010030, -0.187203, 0.479974, -0.183292, 0.143887, 0.217029, 0.179778, -0.139553, -0.475017, -0.266573, -0.213367, 0.015901, 0.059975, -0.276586, 0.193113, 0.148097, 0.087649, 0.136877, 0.132618, -0.083369, -0.387817, -0.586006, -0.166792, 0.180420, 0.215328, -0.029384, -0.242248, -0.376280, -0.382107, 0.002483, 0.345289, 0.191865, -0.197541, -0.170328, 2.281708, 1.806194, 1.095679, 1.562812, 1.308916, 0.505127, 0.216912, -0.090699, -0.212489, -0.336002, -0.502709, -0.714984, -0.376984, -0.276424, -0.339062, -0.122078, -0.176493, -0.226929, -0.082837, -0.255676, -0.470555, -0.376655, -0.329202, -0.335209, -0.551623, -0.694990, -0.593676, -0.649339, -0.575614, -1.435335, -1.282919, -1.058288, -0.694914, -0.575858, -0.420966, -0.408264, -0.101206, -0.108218, 0.018179, 0.087208, 0.301610, 0.229333, 0.089546, 0.340249, 0.269871, -0.480820, -0.482233, 0.105053, -0.041729, 0.228648, 0.007291, 1.067122, 0.374054, 0.207677, 0.259791, 0.848190, 0.024509, 0.451915, -0.774276, -0.324474, -0.476388, -0.604223, -0.503686, -0.177096, -0.058204, 0.213675, 0.188498, 0.453594, 0.481765, 0.425306, 0.525559, 0.288853, 0.119061, -0.030756, -0.111753, -0.048059, 0.239255, 0.398058, 0.370182, 0.291152, 0.131909, -0.022838, 0.400677, 0.648431, 0.551235, 0.182869, 0.397045, -1.411616, -1.151032, -0.983588, -0.621145, -0.574453, -0.397869, -0.250487, -0.330216, -0.208901, -0.311641, -0.205197, -0.089805, -0.030632, -0.013970, -0.096176, 0.081981, -0.258926, -0.140408, -0.052683, -0.116457, -0.084524, 0.184545, 0.182951, 0.192797, 0.186295, 0.222310, 0.368705, 0.108312, 0.107022, -0.842973, -0.717644, -0.524988, -0.406803, -0.468656, -0.254171, -0.106211, 0.280881, 0.421165, 0.284630, 0.467057, 0.565372, 0.377472, 0.187064, 0.226996, 0.216994, -0.636097, -0.415697, 0.167306, -0.073627, 0.355713, 0.103511, 1.214964, 0.348558, 0.182059, 0.323412, 0.987450, 0.044231, 0.462900, -1.812481, -1.041026, -0.891774, -0.788312, -0.699029, -0.170720, 0.035131, 0.247445, 0.245565, 0.609209, 0.749309, 0.818941, 0.782382, 0.490781, 0.410974, 0.338329, -0.007564, -0.022826, 0.105024, 0.179866, 0.382347, 0.356427, 0.422240, 0.163622, 0.651405, 0.695730, 0.742859, 0.239143, 0.422021, 1.012017, 0.691825, 0.215252, -0.346065, -0.338446, -0.055410, 0.229623, 0.262783, 0.218951, 0.514124, 0.345944, 0.488068, 0.413743, 0.300470, -0.169702, -0.516939, -1.045461, -0.471139, 0.359709, 0.410113, 0.054680, 0.191245, 0.055483, 0.172493, 0.140637, 0.599026, 0.683360, 0.198313, 0.075335, 0.0, 0.0, 0.0, },
{-0.342417, -0.360520, -0.407428, -0.339182, -0.296079, -0.275261, -0.317525, -0.313948, -0.277845, -0.251610, -0.287153, -0.381923, -0.405659, -0.429309, -0.445116, -0.335815, -0.199032, -0.208287, -0.250333, -0.260675, -0.294261, -0.315671, -0.362310, -0.307895, -0.305508, -0.221201, -0.184063, -0.148299, -0.069285, -0.309481, -0.068740, 0.015800, 0.057207, 0.040631, 0.081639, 0.049892, -0.151961, -0.255026, -0.146943, -0.224792, -0.260976, -0.216633, -0.233156, -0.243921, -0.372219, -0.359214, -0.398415, -0.385553, -0.308670, -0.364218, -0.327833, -0.309976, -0.335167, -0.395833, -0.440450, -0.484164, -0.420484, -0.366587, 0.126257, 0.095517, 0.078549, 0.032302, 0.142191, 0.168241, 0.188411, 0.286580, 0.255823, 0.328991, 0.405933, 0.457098, 0.438179, 0.338190, 0.432468, 0.378973, 0.249217, 0.370700, 0.381167, 0.398381, 0.411814, 0.457077, 0.656551, 0.621690, 0.551327, 0.595495, 0.657905, 0.640126, 0.568031, -0.373284, -0.328005, -0.334998, -0.311127, -0.282685, -0.246870, -0.284658, -0.320944, -0.328481, -0.278969, -0.334159, -0.385060, -0.410412, -0.451064, -0.470598, -0.403926, -0.276515, -0.290935, -0.334390, -0.299715, -0.354188, -0.365507, -0.396165, -0.378704, -0.367716, -0.300473, -0.284198, -0.211487, -0.134258, -0.298437, -0.118099, -0.039322, -0.005766, 0.073171, 0.067037, 0.010997, -0.146079, -0.230653, -0.066559, -0.102722, -0.156084, -0.127271, -0.110397, -0.059398, -0.203849, -0.253868, -0.236593, -0.218022, -0.129411, -0.184439, -0.109366, 0.002606, -0.029050, -0.123356, -0.156792, -0.173781, -0.127668, -0.127526, 0.362803, 0.137258, 0.017973, -0.046378, 0.033228, 0.009649, 0.067403, 0.256266, 0.320471, 0.345003, 0.464623, 0.486952, 0.453683, 0.375131, 0.479172, 0.519621, 0.443693, 0.588832, 0.621053, 0.573775, 0.626817, 0.613286, 0.732250, 0.718884, 0.676732, 0.752911, 0.803154, 0.745192, 0.652485, -0.415808, -0.377529, -0.427710, -0.398012, -0.339864, -0.294576, -0.310932, -0.356857, -0.387877, -0.325435, -0.426272, -0.515433, -0.536713, -0.560945, -0.569845, -0.533311, -0.427114, -0.393807, -0.446377, -0.408972, -0.476252, -0.468347, -0.496038, -0.475641, -0.488221, -0.402833, -0.392899, -0.309126, -0.212420, -0.085703, -0.080263, -0.089395, -0.101654, 0.017996, -0.012180, 0.008328, 0.020098, -0.013597, 0.115842, 0.143769, 0.085772, 0.092298, 0.052807, 0.144989, 0.067712, 0.013306, 0.068662, 0.096763, 0.204628, 0.229356, 0.257218, 0.379490, 0.354985, 0.261110, 0.269474, 0.297105, 0.306186, 0.261507, 0.506288, 0.213456, 0.025398, -0.086267, -0.136592, -0.128553, -0.065570, 0.111301, 0.231339, 0.198324, 0.365491, 0.431697, 0.361097, 0.264824, 0.288056, 0.402050, 0.413627, 0.473569, 0.450310, 0.332889, 0.421294, 0.339102, 0.272018, 0.254328, 0.293527, 0.340650, 0.341080, 0.288191, 0.214762, 0.0, 0.0, 0.0, },
{0.180591, 0.013179, -0.348519, -0.328684, 0.062354, -0.028821, 0.120674, -0.218325, -0.095036, 0.232006, 0.149470, 0.180435, 0.185132, 0.256633, 0.031399, -0.078108, -0.147166, -0.113907, 0.175987, 0.416411, 0.652422, 1.034396, 1.001356, 0.867547, 0.527908, 0.523341, 0.636268, 0.476927, 0.681935, -0.170166, -0.034235, -0.091755, -0.026343, -0.091383, -0.274648, -0.213443, -0.048719, -0.381567, -0.214147, -0.076468, -0.110853, -0.140713, -0.180243, -0.141540, -0.049722, -0.188645, -0.231652, -0.415371, -0.303800, -0.326454, -0.225879, -0.167347, -0.231150, -0.381558, -0.130223, -0.072620, 0.094443, -0.250439, 0.018190, -0.095540, -0.231335, -0.266437, -0.514663, -0.801155, -0.977484, -0.792242, -0.978617, -1.243543, -1.391061, -1.311321, -0.953956, -0.908464, -0.811144, -0.745882, -0.916664, -0.910474, -0.639461, -0.754897, -0.865390, -1.323772, -0.765558, -0.850289, -0.895561, -0.780500, -0.489897, -0.522443, -0.461993, 0.048992, 0.037283, -0.222454, -0.216243, 0.068105, 0.045654, 0.265947, 0.098016, 0.172837, 0.380821, 0.318133, 0.347678, 0.420388, 0.461641, 0.220359, 0.169583, 0.050834, -0.074547, 0.327098, 0.504659, 0.750255, 1.076838, 1.030494, 0.801930, 0.533482, 0.525324, 0.706639, 0.554076, 0.692359, 0.153757, 0.234338, 0.189060, 0.099008, 0.126226, 0.113384, 0.144136, 0.413738, -0.076607, 0.009755, 0.140329, 0.057318, 0.039845, -0.007487, 0.110934, 0.162331, -0.078980, -0.177534, -0.099558, -0.038451, -0.094782, -0.192777, -0.068931, -0.110573, -0.256967, -0.098097, -0.005929, 0.082673, -0.023128, 0.227590, -0.080932, -0.080851, -0.009156, -0.041976, -0.236390, -0.210854, -0.227121, -0.313096, -0.511434, -0.616017, -0.528058, -0.411465, -0.338281, -0.387730, -0.393497, -0.473059, -0.414497, -0.202372, -0.219332, -0.205810, -0.606476, -0.275039, -0.295608, -0.291059, -0.315623, -0.283437, -0.299792, -0.032737, 0.044792, -0.045927, -0.362224, -0.303221, -0.012504, -0.165284, -0.002022, -0.173911, -0.235046, 0.080586, -0.041172, -0.004860, 0.001938, 0.019889, -0.273637, -0.213119, -0.516030, -0.503357, -0.098049, 0.150060, 0.325403, 0.528350, 0.509381, 0.275934, -0.072371, 0.031524, 0.200304, 0.069273, 0.210959, 0.445547, 0.184602, 0.231255, 0.319078, 0.334332, 0.218870, 0.478279, 0.694812, 0.218327, 0.138545, 0.321229, 0.125469, 0.238552, 0.160246, 0.119078, 0.138682, -0.033547, -0.147234, -0.067314, 0.033030, 0.047107, -0.182356, -0.078551, -0.160948, -0.248750, -0.095905, -0.121147, 0.027099, 0.129505, 0.228457, -0.059457, -0.123064, -0.247092, -0.527805, -0.773601, -0.588407, -0.619806, -0.472760, -0.803673, -0.953085, -0.823600, -0.783339, -0.714899, -0.819013, -1.022837, -0.814671, -0.869793, -0.854777, -0.905004, -0.779870, -0.937182, -0.727912, -0.702525, -0.587423, -0.745431, -0.819336, -0.874521, -0.608960, 0.0, 0.0, 0.0, },
{0.467323, 0.244683, 0.328125, 0.478301, 0.413491, -0.079276, -0.404876, -0.266141, -0.256025, -0.035297, 0.240519, 0.370498, 0.141816, 0.123142, 0.149428, -0.077714, 0.067547, -0.028140, -0.464366, -0.908476, -0.891558, -1.188017, -0.948496, -0.517510, -0.316770, -0.448031, -0.324485, -0.369258, -0.813328, -0.361947, -0.432202, -0.124929, 0.063525, 0.584618, 0.697600, 0.512907, 0.565705, 0.435248, 0.110111, -0.247671, -0.043371, 0.013301, 0.032316, 0.000052, -0.084860, 0.001932, -0.013595, 0.274821, 0.576430, 0.688040, 0.869810, 0.749713, 0.732067, 0.925638, 0.880250, 0.667382, 0.712020, 1.105316, -0.105003, -0.118844, -0.028396, -0.143076, 0.133862, 0.262725, 0.471521, 0.410672, 0.401117, 0.651931, 0.562496, 0.593697, 0.591202, 0.485355, 0.349323, 0.452666, 0.265752, 0.332030, 0.119972, 0.110247, 0.063848, 0.139871, -0.068373, -0.089390, -0.150000, -0.216538, -0.302860, -0.157109, -0.097032, 0.171112, 0.113772, 0.303851, 0.616990, 0.757355, 0.238541, -0.029902, -0.078726, 0.036520, 0.300443, 0.535356, 0.518041, 0.366576, 0.371497, 0.318090, 0.275448, 0.314332, 0.265064, -0.110843, -0.607133, -0.534475, -0.695799, -0.408469, -0.051316, 0.030724, -0.069641, 0.052503, 0.030666, -0.327666, -0.007618, -0.085966, 0.175287, 0.062078, 0.473658, 0.409942, 0.210579, 0.145031, 0.197002, 0.017268, -0.224028, -0.013671, 0.030595, 0.149716, -0.050139, 0.019482, 0.048898, -0.002676, 0.109542, 0.351125, 0.283148, 0.513554, 0.426886, 0.500995, 0.581175, 0.552263, 0.419282, 0.536447, 0.804021, -0.059383, -0.015427, 0.009828, 0.031049, 0.101042, 0.037021, -0.125189, 0.030722, -0.044160, -0.001345, -0.058807, 0.030733, 0.100028, 0.056303, -0.035602, -0.098926, -0.253579, -0.255182, -0.303975, -0.386249, -0.504062, -0.288038, -0.367801, -0.194710, -0.241425, -0.244936, -0.317181, -0.302349, -0.118807, 0.376773, 0.241529, 0.307050, 0.546048, 0.738753, 0.368949, 0.009252, -0.096533, -0.014328, 0.247043, 0.414277, 0.349489, 0.210367, 0.333156, 0.251445, 0.161363, 0.198123, 0.143719, -0.184749, -0.631640, -0.449901, -0.479564, -0.153048, 0.311242, 0.393153, 0.169023, 0.216885, 0.195163, -0.098560, 0.162239, 0.044804, 0.198809, 0.137493, 0.346646, 0.150486, -0.252593, -0.223118, -0.293060, -0.521956, -0.635431, -0.371735, -0.186348, -0.120293, -0.231108, -0.163153, -0.244231, -0.325225, -0.158489, -0.162871, -0.186034, 0.157016, 0.062468, 0.356616, 0.320820, 0.141513, -0.055860, 0.002087, 0.395680, -0.483161, -0.270984, -0.068532, 0.354005, 0.791656, 0.867501, 0.495453, 0.840979, 0.603862, 0.389992, 0.151551, 0.214740, 0.348525, 0.338777, 0.140616, -0.067268, -0.134000, 0.108507, 0.606470, 0.736128, 0.705660, 1.072071, 1.046107, 1.031188, 0.992447, 1.146959, 1.147102, 1.100800, 1.448694, 0.0, 0.0, 0.0, },
{0.004468, 0.437179, -0.335517, 0.441862, -0.154868, -0.183740, -0.262886, -0.289929, -0.432939, -0.275201, 0.252120, 0.923181, 1.104745, 1.109550, 0.495308, -0.318345, -0.352317, -0.632803, -0.005079, -0.289745, -1.029028, -1.131189, 0.441319, -0.442277, -0.287369, 0.040443, 0.417663, -0.040588, 0.033023, 0.170022, -0.253245, 0.076279, -0.032175, 0.093432, -0.018604, 0.168292, 0.261239, 0.127516, 0.049260, -0.192871, -0.401916, -0.410195, -0.450032, -0.208009, 0.001691, 0.068428, 0.081577, 0.021151, 0.200793, 0.419258, 0.227373, -0.114263, 0.403993, 0.370299, 0.088316, -0.294014, 0.045409, 0.127779, 0.526282, 0.389161, 0.134541, 0.383802, 0.160596, 0.196232, -0.091939, 0.089065, 0.061395, -0.037373, 0.170959, 0.148388, 0.228728, 0.301362, 0.292484, 0.260778, -0.002257, -0.125545, 0.028558, -0.218704, -0.455417, -0.584297, -0.461210, -0.432259, -0.425762, -0.329052, 0.093412, 0.183270, -0.120681, -0.541499, -0.137884, -0.842626, 0.101522, -0.366681, -0.429142, -0.461337, -0.433066, -0.563895, -0.399561, 0.084010, 0.799633, 1.055725, 1.009599, 0.442963, -0.229572, -0.340404, -0.535027, 0.162580, -0.147887, -0.666723, -0.767043, 0.878007, -0.072741, -0.063373, 0.249831, 0.519364, 0.028980, 0.183142, -0.030826, -0.091315, -0.034748, -0.047334, 0.079123, -0.005663, 0.117361, 0.173908, 0.092002, 0.116174, -0.075387, -0.120855, -0.111452, -0.227943, -0.133530, -0.146529, -0.078461, -0.009667, -0.064735, 0.067328, 0.227641, 0.135828, 0.153816, 0.339631, 0.165950, 0.153837, -0.129940, -0.050764, 0.099146, -0.555090, -0.472981, -0.463633, -0.204853, -0.342407, -0.276578, -0.194852, -0.279756, -0.255365, -0.191152, -0.138979, -0.000006, 0.084032, 0.070424, 0.080232, 0.016536, 0.107587, -0.001758, 0.095167, 0.128441, 0.075140, 0.050789, 0.326917, 0.196950, 0.101525, 0.196119, 0.283401, 0.069807, 0.191380, -0.200505, 0.353631, -0.439317, 0.445757, -0.024885, -0.058344, -0.113357, -0.041275, -0.196357, 0.002819, 0.315033, 0.977112, 1.169166, 1.050115, 0.356461, -0.292700, -0.382304, -0.621380, -0.005411, -0.235259, -0.807798, -0.827962, 0.728298, -0.264205, -0.179751, 0.122241, 0.195363, -0.215261, -0.071943, -0.235551, 0.039963, -0.055859, -0.045583, -0.024069, -0.111561, 0.083885, -0.027496, -0.049012, -0.014440, 0.063683, 0.133819, 0.186634, 0.002181, -0.056176, -0.283448, -0.146399, -0.196024, -0.150406, -0.006783, 0.038004, -0.042756, 0.362649, 0.244372, 0.137273, 0.206210, -0.149393, -0.170007, 0.061404, 0.364115, 0.054661, 0.184821, 0.205873, 0.391051, 0.080427, 0.287324, 0.402079, 0.207220, 0.200432, -0.014562, -0.104522, 0.034021, -0.078784, 0.009739, -0.155385, -0.201579, -0.182432, 0.027283, -0.056961, 0.083937, -0.206917, 0.034808, 0.168085, 0.129163, -0.000886, -0.175667, -0.244478, 0.103128, 0.0, 0.0, 0.0, },
{0.420710, -0.147433, 0.064887, -0.002834, 0.346415, 0.349132, 0.452138, 0.528948, 0.371030, 0.246299, -0.055183, -0.120154, 0.235870, 0.281741, 0.026228, 0.162939, 0.135565, 0.228474, -0.021835, 0.453610, 0.084553, 0.065588, -0.212631, 0.093350, 0.065565, 0.214780, -0.220201, 0.117259, -0.450026, -0.364244, 0.325197, 0.055677, -0.045180, -0.121371, -0.185471, -0.264787, -0.280745, -0.283662, -0.258904, -0.062665, -0.037854, -0.062222, -0.081782, -0.054411, -0.054248, -0.025751, -0.141113, 0.046960, -0.008496, 0.159761, -0.051081, 0.191944, 0.122447, -0.162141, -0.186591, 0.108850, 0.096345, -0.317676, -0.164659, -0.326791, -0.344374, -0.322296, 0.021420, -0.027868, 0.210961, -0.018151, 0.274711, 0.243722, -0.210312, 0.010789, 0.156161, 0.149548, 0.131520, 0.070191, 0.119620, 0.326019, 0.399631, 0.406408, 0.061326, 0.049563, -0.145311, -0.139944, 0.078850, 0.305730, -0.139522, -0.206106, 0.089741, 1.096292, 0.527719, 0.585105, 0.459715, 0.571056, 0.374882, 0.487958, 0.413842, 0.198013, 0.075407, -0.187464, -0.151622, 0.020391, 0.126452, -0.110871, -0.114164, -0.106531, -0.112051, -0.113833, 0.151294, -0.108667, 0.032198, -0.281917, -0.001971, 0.088183, 0.124938, -0.194239, 0.175508, -0.261474, -0.744322, -0.163853, -0.348144, -0.333730, -0.396167, -0.365537, -0.498905, -0.351169, -0.479237, -0.316696, -0.082567, -0.168628, -0.050311, -0.066636, -0.085695, -0.011497, -0.082859, -0.325880, -0.310871, -0.331847, -0.146091, -0.117549, -0.131394, -0.044681, -0.180342, -0.229337, -0.050387, -0.013872, -0.434388, 1.256801, 1.031406, 0.937129, 0.860561, 0.666510, 0.435834, 0.378262, 0.409882, 0.213971, 0.079510, 0.050146, -0.025528, -0.027330, -0.083573, -0.162440, -0.128242, -0.102475, -0.151399, 0.070449, 0.062868, 0.001883, 0.172220, 0.089003, 0.161192, -0.017773, 0.121284, 0.113730, 0.242508, 0.124856, -0.754908, -0.900074, -0.650138, -0.714639, -0.328276, -0.352902, -0.330069, -0.204591, -0.426671, -0.338604, -0.314010, -0.231182, 0.061145, 0.061161, 0.020941, -0.069590, 0.046281, -0.194791, -0.390426, -0.107035, -0.189045, -0.383487, -0.683208, -0.300646, -0.267443, -0.107619, -0.350668, 0.053038, -0.595222, -0.105346, -0.091152, -0.037359, 0.002012, -0.165783, 0.040112, -0.128900, 0.067807, -0.079571, -0.110274, 0.156759, 0.013820, 0.023503, 0.088158, 0.084062, 0.074422, 0.053117, -0.042651, -0.299601, -0.114318, -0.028239, 0.004818, 0.027166, 0.103763, -0.040553, -0.141358, 0.039758, 0.217963, -0.290488, -1.765964, -0.674590, -1.087963, -1.060601, -0.920380, -0.738878, -0.889431, -0.774353, -0.762318, -0.597556, -0.390375, -0.188938, -0.085139, -0.016338, -0.033663, -0.139526, -0.030628, -0.321896, -0.280759, -0.205613, -0.112758, -0.384077, -0.369414, -0.223367, -0.415675, -0.252539, -0.387546, -0.045067, -0.900382, 0.0, 0.0, 0.0, },
{0.009794, -0.713440, -1.076184, -0.316130, -0.302723, 0.232048, 1.207704, 0.949990, 1.191538, 1.101849, 1.334522, 0.825961, 0.448099, 0.038694, -0.348509, -0.550596, -0.301949, -0.454020, -0.513600, -0.677400, -0.987790, 0.031188, -0.462259, -0.528855, -0.392694, 0.445651, 0.212121, 0.020359, 0.111230, 0.052242, 0.338974, 0.460638, 0.295996, 0.108691, -0.197521, -0.322164, -0.353614, -0.708296, -0.847539, -0.822509, -0.907787, -0.506898, -0.154857, 0.098375, 0.134311, 0.197209, 0.229327, 0.283185, 0.671018, 0.299440, 0.320217, 0.152376, 0.463734, 0.125024, -0.405204, 0.071207, -0.036693, 0.168103, -0.210282, -0.939539, -0.866230, -0.747565, -0.434565, 0.265765, 0.774886, 0.996031, 1.265404, 1.354742, 1.158916, 1.125145, 1.077474, 0.590555, -0.164064, -0.527804, -0.860279, -0.598460, -0.712593, -1.058123, -0.564383, -0.238715, -0.271014, -0.649206, 0.038709, 0.579592, -0.073535, -0.070620, -0.229667, -0.192382, -0.329415, -0.692844, -0.090288, -0.174678, -0.106448, 0.608721, 0.017884, 0.211764, 0.171902, 0.539388, 0.058685, -0.225168, -0.434790, -0.418029, -0.187041, 0.183301, 0.120491, -0.095752, -0.305597, -0.551543, 0.163895, -0.136810, -0.233023, -0.281723, 0.374707, 0.272580, -0.022865, 0.066905, 0.313109, 0.579970, 0.653669, 0.647978, 0.399367, -0.144654, -0.311139, -0.573355, -0.841143, -1.130735, -1.085023, -1.111654, -0.862675, -0.622638, -0.134835, 0.146052, 0.362232, 0.385509, 0.530123, 0.864969, 0.384683, 0.359027, 0.346263, 0.599728, 0.073561, -0.234325, 0.341611, 0.106331, 0.257641, -0.319829, 0.071722, -0.143276, -0.083242, -0.027944, -0.268785, -0.239059, -0.286233, -0.362510, -0.162516, -0.038987, -0.070907, -0.064130, 0.018744, 0.176313, 0.189872, 0.291076, 0.191758, 0.039487, -0.077757, -0.021676, -0.026223, -0.135073, -0.232417, -0.097256, -0.104602, -0.045830, -0.014178, -0.088417, 0.605547, 0.269193, -0.231882, 0.600297, 0.118134, 0.019588, 0.550495, -0.033941, 0.066704, -0.310019, -0.147774, -0.538172, -0.626240, -0.887854, -0.719511, -0.438785, 0.232974, 0.218729, 0.210387, 0.083090, -0.146178, 0.568032, 0.366667, 0.092447, -0.106105, 0.403755, 0.458191, 0.038296, 0.171755, 0.223212, 0.398674, 0.270771, 0.435851, 0.125016, 0.006700, 0.003765, -0.280947, -0.420745, -0.509940, -0.384283, -0.420614, -0.629195, -0.366030, 0.036253, 0.175387, 0.403228, 0.181763, 0.273135, 0.594051, 0.076601, 0.220731, 0.070822, 0.373205, -0.014562, -0.375162, 0.139346, 0.026770, 0.136279, 0.577089, 0.537352, 0.630351, 0.732951, 0.427734, -0.087125, 0.021918, -0.348808, -0.651710, -1.131191, -1.093146, -1.361252, -0.915149, -0.734147, -0.433331, -0.144933, 0.129976, 0.298892, 0.465418, 0.887842, 0.410075, 0.564250, 0.577891, 0.791557, 0.202183, -0.030251, 0.393913, 0.035010, 0.626889, 0.0, 0.0, 0.0, },
{-0.826440, -0.248759, -0.553067, 0.899148, 0.131988, 0.272829, -0.463182, -1.153709, -1.195505, -0.289444, 0.010134, 0.257764, 0.251740, -0.056144, 0.427155, 0.410544, 0.111051, 0.187278, -0.176662, -0.007982, 0.317596, -0.191150, -0.263422, 0.718960, -0.185503, 0.275475, 0.126951, 0.433978, 0.122672, 1.414089, 0.884835, 0.580226, 0.641365, 0.251778, -0.329085, -0.027867, 0.120910, -0.096581, -0.358913, -0.186137, -0.256853, -0.028221, 0.040769, -0.361295, -0.566210, -0.085394, 0.163214, 0.152971, 0.147340, -0.060894, -0.080610, -0.144733, -0.015254, -0.038004, -0.046571, -0.258730, -0.050652, -0.324522, -1.645217, -0.853312, -0.920238, -0.580134, -0.353354, 0.276090, -0.068505, -0.094706, 0.101535, 0.169434, 0.355748, 0.691348, 0.341392, 0.239368, 0.510584, 0.484549, 0.096763, -0.308983, -0.429724, -0.502585, 0.068772, -0.006207, 0.165839, 0.106188, 0.296716, 0.162551, 0.500623, 0.261480, 0.317657, 0.917825, 0.816627, 0.354708, 1.540360, 0.600112, 0.526314, -0.128688, -0.897303, -1.172150, -0.344822, -0.153959, -0.008826, -0.290958, -0.329008, 0.134408, -0.080793, -0.123750, 0.129629, 0.032424, 0.259918, 0.255964, -0.293390, -0.423880, 0.524109, -0.316275, 0.143222, -0.101475, 0.230205, -0.017417, 1.367419, 0.927427, 0.782634, 0.976998, 0.460629, -0.108718, -0.170615, -0.271139, -0.306052, -0.299273, -0.343110, -0.392586, -0.064043, -0.221595, -0.254869, -0.248008, 0.067822, 0.329219, 0.425680, 0.246083, 0.054417, 0.020904, -0.221710, -0.121295, -0.193999, -0.254164, -0.417497, -0.269891, -0.448776, 1.077680, 0.494503, 0.282712, 0.417487, 0.123266, 0.150753, 0.222489, 0.189151, -0.102886, -0.025352, 0.000153, -0.142414, -0.073594, -0.169705, -0.347267, -0.359687, -0.423611, -0.150854, 0.006335, 0.024561, -0.052491, -0.055796, -0.068302, 0.150089, -0.025175, 0.019384, 0.021664, 0.001192, 0.074133, 0.621386, 0.779477, 0.511080, 1.955906, 0.803611, 0.367746, -0.529587, -1.287583, -1.611934, -0.416327, -0.338934, -0.159726, -0.227453, -0.369061, 0.150318, 0.285352, 0.289337, 0.500466, 0.320323, 0.456579, 0.398486, -0.313907, -0.506695, 0.307819, -0.289483, 0.042087, -0.489166, -0.053099, -0.269911, 0.718786, 0.329176, 0.481108, 0.736330, 0.267593, -0.280302, -0.256679, -0.450154, -0.651770, -0.406259, -0.242017, -0.414610, -0.196711, -0.051759, -0.049715, -0.095757, 0.057396, 0.375145, 0.360053, 0.417385, 0.011563, 0.004323, -0.325166, 0.177976, -0.162699, -0.040239, -0.301237, -0.090312, -0.062380, 1.400007, 1.019916, 0.943014, 1.377197, 0.711080, -0.330374, -0.523485, -0.667598, -0.715711, -0.562876, -0.311337, -0.252629, -0.130565, -0.187047, -0.278400, -0.175532, 0.168110, 0.532628, 0.257923, 0.326250, 0.080853, -0.105096, -0.380664, -0.020593, -0.270742, -0.262210, -0.551040, -0.379404, -0.604570, 0.0, 0.0, 0.0, },
{0.483865, -0.216011, 0.236079, 0.076802, 0.097672, -0.093025, 0.001223, -0.380207, -0.261135, -0.138927, -0.158526, -0.043781, -0.158097, -0.067987, -0.166610, -0.230877, 0.022625, 0.160412, -0.070169, 0.120999, -0.066348, -0.203273, -0.149256, 0.101003, -0.034895, -0.096717, -0.137626, 0.045628, 0.585730, 0.234283, -0.086630, -0.012780, 0.011476, -0.077888, 0.034486, -0.177990, 0.091584, 0.050956, -0.073565, 0.030763, -0.048821, 0.000618, 0.005492, -0.048992, 0.052754, -0.026451, -0.090486, -0.012182, 0.093939, 0.133453, -0.043876, -0.102815, -0.013604, -0.004248, 0.024711, 0.032532, -0.013321, 0.110785, -0.170297, -0.170623, -0.283010, -0.165063, -0.149144, -0.298569, -0.176711, -0.276966, -0.263810, -0.158036, -0.107924, -0.020878, -0.123381, -0.148176, -0.015867, -0.182876, 0.094493, 0.026251, 0.148453, -0.020526, -0.003574, 0.065611, 0.120054, 0.106272, -0.121582, -0.197366, -0.064135, 0.015421, -0.086559, 0.243957, -0.324904, 0.101286, -0.037242, -0.054709, -0.255387, -0.040765, -0.433977, -0.361477, -0.044535, -0.187472, -0.131099, -0.131047, -0.129866, -0.268250, -0.407073, -0.175899, -0.023602, -0.206346, -0.002666, -0.209390, -0.288445, -0.304661, -0.141944, -0.220563, -0.283594, -0.345682, -0.100608, 0.425056, 0.308876, 0.062218, 0.200537, 0.188961, 0.080112, 0.172456, 0.199432, 0.249739, 0.229023, 0.213361, 0.136434, 0.134170, 0.060747, 0.174483, 0.001157, 0.081244, -0.040225, -0.011648, -0.103892, 0.029205, 0.084594, -0.047139, -0.063128, 0.079558, 0.073785, 0.076695, 0.056964, 0.089244, 0.291481, 0.192346, 0.026702, 0.050464, 0.025309, 0.060420, 0.036567, 0.080384, -0.039773, -0.017302, -0.027590, 0.012027, -0.004487, -0.066927, 0.009233, 0.058600, -0.012609, 0.067960, 0.029738, 0.069416, 0.030200, 0.025993, 0.028893, 0.008637, 0.059632, 0.011010, 0.042278, 0.011609, 0.027690, 0.132133, 0.658622, 0.060373, 0.466455, 0.315087, 0.335669, 0.263216, 0.496962, 0.115242, 0.216297, 0.510076, 0.541518, 0.488332, 0.411993, 0.344380, 0.176980, 0.069369, 0.355376, 0.466625, 0.237223, 0.476463, 0.342432, 0.311392, 0.387751, 0.637260, 0.510678, 0.344711, 0.151020, 0.328363, 0.864128, 0.620402, 0.096631, 0.356091, 0.228665, -0.016405, 0.099118, -0.042738, -0.072173, -0.021197, -0.012760, -0.139889, -0.125890, 0.002133, -0.025034, -0.236163, -0.070265, -0.116681, -0.072506, -0.197805, -0.068281, -0.132797, -0.138045, -0.271674, -0.105603, -0.013823, 0.013976, -0.024349, 0.089039, 0.363602, 0.413748, -0.023686, 0.024687, 0.066819, -0.051354, 0.027190, 0.030799, 0.146105, 0.168842, 0.112633, 0.176071, 0.071447, 0.048375, 0.065661, -0.105916, -0.083954, -0.049231, -0.084892, -0.034360, 0.106231, 0.207713, -0.060783, -0.191599, -0.038994, -0.136297, -0.073384, -0.047759, 0.030873, 0.262444, 0.0, 0.0, 0.0, },
{-0.118662, 0.076533, 0.121765, 0.273958, -0.150368, -0.245905, -0.504670, -0.744281, -0.044132, -0.150250, -0.147321, 0.307013, 0.104093, -0.236575, -0.536112, -0.783246, -0.503053, -0.280760, -0.469911, -0.476850, 0.036728, 0.717889, 1.817163, 1.046167, 0.595014, 0.244282, -0.102598, -0.335118, 0.380869, 0.485961, -0.031276, 0.163772, -0.014099, 0.092585, -0.227371, 0.003278, 0.048717, 0.045092, -0.177823, -0.107979, -0.424844, -0.400996, -0.302296, -0.207320, -0.196736, 0.010096, 0.383602, 0.378625, 0.212713, -0.049449, 0.140059, -0.460238, -0.015645, 0.086501, 0.242786, -0.259886, -0.107581, 0.015181, 0.023414, 0.270396, 0.155829, 0.145919, -0.205864, -0.295669, -0.529061, -0.790915, -0.344223, -0.205279, -0.258573, -0.007683, -0.078483, 0.058211, 0.118437, 0.223016, -0.083215, -0.169252, -0.109166, -0.017219, -0.125153, -0.296564, 0.360764, 0.156113, -0.001544, 0.063099, 0.431261, 0.344433, 0.182241, -0.881296, -0.471545, -0.396917, -0.103997, -0.289694, -0.091327, -0.353126, -0.439073, 0.214994, 0.060619, 0.205466, 0.608311, 0.324288, 0.132417, -0.420247, -0.559915, -0.399130, -0.192920, -0.550947, -0.467257, 0.008768, 0.726693, 1.789772, 1.071007, 0.625914, 0.165882, -0.376921, -0.561412, 0.253877, 0.745663, 0.303710, 0.415157, 0.390503, 0.467469, 0.298547, 0.320535, 0.453279, 0.332274, 0.128122, 0.111314, -0.160411, -0.080652, -0.236678, -0.434291, -0.399274, -0.095137, 0.142953, 0.203181, -0.022703, 0.020301, 0.067972, -0.261862, -0.023981, -0.105580, -0.110566, -0.529477, -0.489136, -0.350662, -0.898984, -0.673299, -0.709703, -0.593390, -0.455978, -0.213528, -0.314353, -0.245275, -0.088659, -0.031886, 0.058228, 0.184227, 0.199595, 0.149866, 0.176482, 0.159954, 0.171111, 0.069111, -0.078753, -0.002600, 0.159639, 0.233051, 0.388741, 0.185793, 0.273158, 0.275552, 0.148599, 0.114332, 0.142865, 0.695447, 0.830349, 0.731339, 0.859088, 0.642740, 0.581204, 0.210820, 0.045783, 0.523490, 0.187050, 0.208447, 0.294710, 0.072078, -0.186412, -0.865257, -0.897747, -0.737688, -0.399484, -0.589059, -0.553524, -0.077598, 0.385880, 1.447868, 0.560160, 0.042694, -0.463583, -0.964737, -0.981026, -0.099348, 0.282503, 0.007534, 0.212776, 0.082571, 0.141735, 0.137260, 0.330401, 0.425907, 0.261489, 0.087720, 0.202002, -0.048058, -0.031537, -0.308164, -0.347289, -0.558308, -0.234115, 0.054186, 0.016425, -0.127611, 0.000157, 0.417805, 0.248514, 0.192860, 0.126200, 0.208060, -0.506389, -0.298212, 0.015883, 1.731573, 0.883814, 1.259287, 0.907799, 0.828216, 0.310823, 0.290365, 0.275998, 0.368294, -0.023483, -0.108050, -0.498838, -0.441609, -0.488990, -0.877637, -0.709119, -0.297176, 0.205875, 0.313444, 0.061148, -0.168552, -0.033368, -0.125932, -0.009410, -0.081839, -0.321493, -0.785160, -0.852952, -0.397625, 0.0, 0.0, 0.0, },
{-0.608668, -0.446538, -0.475480, -0.371537, -0.233842, -0.132795, 0.021127, 0.164967, 0.248290, 0.223249, 0.023982, -0.009624, 0.007644, 0.007349, 0.120556, 0.101374, -0.100339, -0.124127, -0.146580, -0.213146, -0.181703, -0.216632, -0.063790, -0.017760, 0.074002, -0.022408, -0.112426, -0.157092, -0.259923, 1.569286, 1.214176, 1.081711, 0.811025, 0.568227, 0.380805, 0.497307, 0.653869, 0.562958, 0.377860, 0.151837, 0.140243, 0.188103, 0.477363, 0.419286, 0.187861, 0.110112, 0.083194, 0.055525, 0.113854, -0.182901, -0.307167, -0.356687, -0.029677, -0.290955, -0.288862, -0.299174, -0.266095, -0.330050, 1.370941, 1.120930, 1.136811, 0.674842, 0.259853, -0.034279, -0.288662, -0.187694, -0.256438, -0.272974, -0.289272, -0.302491, -0.296384, -0.285721, -0.355294, -0.420598, -0.229030, -0.223615, -0.168011, -0.071593, 0.030959, 0.005339, -0.257559, 0.002861, -0.087777, -0.268211, -0.256328, -0.128557, -0.035118, -0.293302, -0.160193, -0.051089, -0.075786, 0.076774, 0.074530, 0.152054, 0.242177, 0.372320, 0.348799, -0.007717, -0.067320, 0.022419, 0.090670, 0.191492, 0.170163, -0.055160, -0.091319, -0.166961, -0.180183, -0.180477, -0.197727, -0.101336, -0.018837, -0.005490, -0.066633, -0.155219, -0.250960, -0.319657, 1.919413, 1.511789, 1.556448, 1.020114, 0.574579, 0.324426, 0.299274, 0.437647, 0.395032, 0.187734, 0.103710, 0.079063, 0.123529, 0.346335, 0.229783, 0.069801, 0.034442, 0.069517, -0.023765, 0.079291, -0.162271, -0.244368, -0.374347, 0.062428, -0.237377, -0.392719, -0.427145, -0.295510, -0.335261, 0.799430, 0.986007, 0.952359, 0.647840, 0.560774, 0.428082, 0.128309, 0.215637, 0.080658, -0.088315, 0.056300, -0.068880, -0.185697, -0.346668, -0.360376, -0.410215, -0.147125, -0.144266, -0.052633, -0.198996, -0.051188, -0.028122, -0.280645, -0.277370, -0.289173, -0.470666, -0.504162, -0.365399, -0.217886, -0.061402, 0.029749, 0.187519, 0.165561, 0.181152, 0.165427, 0.280328, 0.436093, 0.529749, 0.430859, 0.140219, 0.112384, 0.210226, 0.309251, 0.338073, 0.192699, -0.014983, 0.001746, -0.008730, -0.021237, -0.053032, -0.130839, -0.058303, 0.173140, 0.095249, -0.030306, -0.140126, -0.168838, -0.294219, 2.329335, 2.164873, 2.275151, 1.579803, 1.112112, 0.803258, 0.540737, 0.636345, 0.508304, 0.225322, 0.143327, -0.023039, -0.008165, 0.036590, 0.023801, -0.133121, -0.067833, -0.020396, -0.000920, -0.106742, -0.211138, -0.327173, -0.615248, -0.283149, -0.594751, -0.775702, -0.819244, -0.642014, -0.553034, 0.402632, 0.974531, 0.748994, 0.623976, 1.110057, 1.148950, 0.990382, 0.974681, 0.815856, 0.599124, 0.772537, 0.530380, 0.298885, 0.065847, 0.073238, 0.093855, 0.381359, 0.344864, 0.402191, 0.102431, 0.239385, 0.327706, 0.102905, -0.241330, -0.173213, -0.263849, -0.329172, -0.361791, -0.156804, 0.0, 0.0, 0.0, },
{0.330840, 0.672111, -0.083478, -0.022613, 0.107980, 0.180565, 0.095646, 0.010375, -0.031944, 0.140562, -0.137837, -0.114557, 0.037569, -0.015981, 0.040230, -0.214255, 0.131347, -0.148267, 0.063409, 0.015603, -0.039948, 0.154903, 0.033304, -0.460739, 0.203943, -0.137068, -0.072566, -0.094378, 0.158843, -1.085139, -0.457465, -0.584679, -0.160326, 0.095995, -0.074632, -0.166406, 0.224308, 0.038904, 0.212281, 0.061013, 0.045197, -0.030233, -0.128550, 0.090496, -0.141781, -0.027116, 0.058092, -0.057472, -0.102690, 0.146967, 0.115333, 0.284020, -0.195040, -0.014617, -0.052037, 0.097776, -0.053204, 0.143303, 0.764862, 0.007317, 0.219872, -0.137150, -0.074936, 0.039554, 0.084611, 0.005044, 0.051530, 0.182367, 0.062786, 0.033646, 0.113901, 0.235076, -0.204337, -0.080357, 0.379148, -0.141172, 0.176813, 0.109794, -0.191206, 0.151784, 0.212432, -0.145057, -0.000668, 0.114650, -0.175828, -0.059257, -0.082656, -0.246064, 0.400332, 0.008381, 0.077594, 0.326827, 0.207751, 0.252013, -0.113709, -0.146414, 0.161434, -0.294250, -0.262006, -0.093641, -0.118545, -0.258442, -0.412571, -0.088607, -0.201928, -0.039087, -0.254951, -0.392151, 0.075065, -0.102405, -0.302914, -0.014957, -0.103207, -0.101344, -0.210175, 0.128914, -2.144711, -1.340827, -1.325493, -0.688802, -0.325962, -0.533870, -0.351761, -0.050595, -0.132566, 0.177676, 0.012257, 0.235642, -0.011707, -0.078953, 0.403801, 0.134178, -0.018272, 0.140100, -0.257567, -0.171918, 0.137867, -0.026214, 0.229600, 0.179682, 0.261311, 0.050010, 0.430483, 0.234499, 0.347847, 1.000538, 1.086560, 0.878495, 0.743990, 0.554213, 0.407732, 0.331199, 0.027270, -0.064154, -0.254292, -0.261552, -0.286231, -0.235637, -0.238222, -0.149958, -0.255298, -0.184951, -0.116819, 0.003592, -0.108785, -0.084457, -0.127630, -0.078576, -0.251479, -0.158511, -0.189725, -0.161851, -0.318238, -0.157181, -2.782788, -1.836218, -2.020161, -1.379457, -0.680565, -0.738248, -0.641923, -0.203034, -0.215796, 0.051886, 0.107834, 0.162109, 0.127211, 0.361921, 0.485575, -0.038597, -0.060405, 0.172314, 0.087515, 0.036486, 0.022660, 0.278333, 0.178298, 0.237901, 0.461418, 0.353208, 0.497514, 0.359758, 0.745940, -0.313050, 0.230387, -0.212554, -0.123097, -0.014764, -0.021539, -0.126523, -0.052870, -0.094751, 0.028571, -0.120807, -0.025293, 0.053655, -0.196386, 0.005077, -0.003674, -0.128120, 0.074786, -0.167290, -0.125051, 0.154700, 0.013630, -0.159411, -0.160956, 0.144119, -0.112359, 0.114277, 0.038553, 0.111599, -4.164259, -2.735458, -2.619143, -1.648210, -0.612945, -0.922578, -0.868664, 0.017185, -0.081343, 0.477858, 0.325916, 0.267325, 0.189883, 0.129429, 0.515868, 0.081351, 0.112893, 0.205591, -0.099067, -0.136576, 0.273224, 0.298332, 0.443413, 0.072985, 0.447319, 0.289691, 0.730264, 0.411733, 0.620284, 0.0, 0.0, 0.0, },
{-3.071604, -1.931727, -1.279374, -0.542394, -0.037660, -0.858196, -0.501791, -0.072370, -0.216395, 0.104140, 0.216636, 0.156113, -0.028236, 0.025833, 0.133556, 0.031241, 0.055997, 0.199168, -0.078907, -0.092436, 0.241178, 0.212049, -0.032714, 0.359464, 0.111717, 0.190556, 0.117445, 0.240609, 0.317894, -0.003889, -0.000475, 0.141752, -0.175618, -0.237522, 0.230532, 0.176465, -0.086748, 0.135472, -0.088912, 0.082029, -0.087029, 0.029609, 0.078419, -0.100743, 0.068137, 0.085300, -0.154715, 0.006914, -0.027034, -0.088972, 0.036721, -0.023552, 0.093980, -0.012289, 0.038943, 0.075137, -0.123495, 0.104646, -4.730875, -2.109836, -1.931393, -0.462518, 0.228769, -0.679863, -0.559414, 0.073566, -0.154235, 0.185410, 0.098505, 0.148313, 0.044326, 0.062104, 0.110279, 0.168322, 0.154609, 0.223947, -0.248079, -0.067583, 0.356131, 0.091172, 0.139781, 0.273374, 0.291460, 0.214602, 0.217908, 0.401175, 0.317769, -0.035903, 0.064623, 0.203060, 0.397706, 0.115767, -0.254973, 0.034014, 0.112302, -0.075409, 0.013909, 0.136749, -0.212261, -0.132135, -0.003978, 0.070271, -0.030941, -0.234916, 0.061614, 0.044013, -0.235496, -0.191431, 0.016615, -0.056086, 0.104970, -0.308972, -0.009384, -0.116834, -0.008680, -0.025434, 1.964192, 0.928678, 1.021135, 0.263867, 0.008083, 0.140869, 0.329302, 0.093253, 0.061407, -0.084368, 0.025154, -0.111657, 0.094059, 0.014878, -0.155130, -0.045770, 0.009656, -0.105778, 0.058326, 0.120595, -0.105835, 0.072069, -0.060138, -0.037543, 0.001191, 0.035480, -0.027380, -0.068935, 0.105108, 1.123488, 0.586973, 0.546284, 0.223501, -0.048188, 0.139391, 0.066824, -0.046179, -0.044575, -0.078343, -0.006297, -0.152513, -0.162556, -0.012565, 0.004494, -0.074131, -0.215340, -0.057583, 0.080958, -0.116203, -0.238198, -0.001019, -0.093968, -0.190526, -0.208509, -0.165620, -0.129125, -0.255933, -0.170632, 0.297590, 0.100169, 0.594715, 0.332747, 0.511503, -0.105036, 0.279318, 0.171034, -0.086848, -0.017924, 0.091480, 0.039141, 0.047719, -0.156930, 0.001433, -0.019246, -0.068149, 0.046759, 0.164050, -0.135661, -0.022576, 0.148305, 0.191677, 0.156548, 0.108770, 0.146338, 0.058477, 0.133657, 0.226718, 1.427174, 0.523161, 0.431391, -0.013488, -0.308431, 0.105140, 0.145838, -0.077432, 0.037042, 0.019956, -0.024923, 0.067089, 0.010056, 0.013177, 0.020673, -0.067972, -0.006832, -0.111921, 0.198301, -0.052039, -0.092822, -0.097277, -0.045537, 0.055477, -0.117628, -0.021919, -0.062484, -0.057456, -0.106981, 0.131175, 0.095189, 0.500321, 0.066355, 0.119981, 0.049229, 0.313212, 0.079548, 0.085135, -0.085461, 0.091782, -0.041848, 0.174356, -0.013336, -0.152207, 0.106101, 0.102081, -0.073323, 0.074666, 0.028248, 0.038676, 0.062824, 0.120739, 0.259989, 0.157640, 0.288192, 0.126666, 0.158150, 0.335673, 0.0, 0.0, 0.0, },
{0.517379, 0.214468, 0.476521, 1.896365, 0.205645, -1.162286, -0.281755, -0.523142, -1.094892, -1.011072, -1.653617, -1.429519, -0.790107, -0.071389, 0.541090, 0.942770, 0.441498, 0.144627, 1.509875, 0.945625, 0.260524, -0.360797, -0.100760, 0.340967, -0.205621, -0.991944, 1.365254, 0.227629, -0.501322, 0.177810, -0.086487, 0.334380, -0.254346, 0.086324, -0.013525, 0.143665, 0.092948, 0.236155, 0.283040, 0.147158, 0.281824, 0.190699, -0.060238, -0.339764, -0.501103, -0.146016, -0.375193, -0.569179, -0.489721, -0.219827, 0.189843, 0.361418, 0.204197, 0.182502, 0.066340, -0.373560, -0.011830, 0.365869, 0.678875, 0.693966, 0.215539, 0.836541, 0.257032, -0.155592, -0.346889, -0.433770, -0.827913, -0.854050, -1.244768, -1.094570, -0.948560, -0.305306, 0.265868, 0.423635, 0.416117, 0.572051, 0.930892, 0.986495, 0.501176, 0.172837, -0.217006, 0.094771, -0.248163, -0.217692, 0.490456, 0.011026, -0.274936, -0.928668, -0.820974, -0.369286, 0.978300, -0.432209, -1.213473, -0.376071, -0.283727, -0.732709, -0.658678, -1.037284, -0.896359, -0.473304, 0.165428, 0.690050, 0.907862, 0.104113, -0.216783, 1.023446, 0.324857, -0.165111, -0.594678, -0.310105, 0.043130, -0.290067, -0.945262, 1.249345, 0.081087, -0.584050, 0.107525, -0.006487, 0.320575, -0.037002, 0.088569, 0.113746, 0.241789, 0.288542, 0.491530, 0.577500, 0.379859, 0.367417, 0.310248, 0.045397, -0.294123, -0.320366, -0.434348, -0.484286, -0.403058, -0.444389, -0.231571, -0.042860, 0.383348, 0.204817, 0.250880, 0.079937, 0.094037, 0.088792, 0.537797, -1.058761, -0.789136, -0.775636, -0.378511, -0.452076, -0.365512, -0.112822, -0.016098, -0.036108, 0.153438, 0.109002, 0.204375, 0.115468, 0.217511, 0.332047, 0.348807, 0.150675, -0.067404, -0.125073, -0.179284, -0.288168, -0.454759, -0.496207, -0.228286, -0.228054, -0.315730, 0.073005, -0.186606, -0.465003, 0.539298, 0.265725, 0.809709, 1.805815, 0.220886, -0.630104, 0.167977, -0.021300, -0.365276, -0.350714, -1.104875, -0.977083, -0.430825, -0.023172, 0.404448, 0.464498, -0.241340, -0.414490, 0.992335, 0.438081, -0.157937, -0.370172, 0.058632, 0.400104, -0.226535, -0.850358, 1.570001, 0.342344, -0.186938, -0.008128, -0.119109, 0.351327, 0.273818, 0.078156, -0.120824, 0.030864, 0.028946, 0.102008, 0.059674, 0.222745, 0.209080, 0.305904, 0.070667, -0.054737, -0.056762, -0.128332, -0.251226, -0.132448, -0.477105, -0.072143, -0.068643, 0.306784, 0.285601, 0.267792, -0.031052, 0.099852, 0.016238, 0.091979, 0.980984, 0.515481, 1.187401, 0.822015, 0.522338, 0.135036, 0.213043, 0.239047, 0.328768, 0.169910, -0.260953, -0.322179, -0.076687, -0.160955, -0.348469, -0.481142, -0.514061, -0.480363, -0.067264, -0.089048, -0.132435, 0.294965, 0.645348, 0.482324, 0.399478, -0.020551, 0.318126, 0.357376, 0.930047, 0.0, 0.0, 0.0, },
{-0.134425, -0.022673, -0.120178, 0.002984, 0.110212, 0.016817, -0.237617, -0.042602, -0.035800, -0.112347, -0.172901, -0.176550, -0.080265, 0.060967, -0.127961, -0.189281, -0.075792, 0.029358, 0.037712, 0.132492, 0.071526, -0.074889, -0.140698, -0.303499, -0.404003, -0.346749, -0.394800, -0.318558, 0.044553, 0.848846, 0.451370, 0.444463, 0.475909, 0.329804, 0.268953, 0.231600, 0.304660, 0.375472, 0.455961, 0.537723, 0.482049, 0.346621, 0.436738, 0.458962, 0.454329, 0.142564, -0.191275, -0.043280, -0.002298, 0.135228, 0.243164, 0.129954, 0.133274, 0.303739, 0.502275, 0.439043, 0.274903, 0.198934, 0.180274, -0.046997, 0.072592, 0.022931, -0.140520, -0.227674, -0.300222, -0.415078, -0.237118, -0.326423, -0.479719, -0.436501, -0.206457, -0.319334, -0.261296, -0.149497, -0.199209, -0.061778, -0.178280, -0.223681, -0.351456, -0.117247, -0.013120, -0.445586, -0.125091, -0.343515, -0.311759, -0.090624, -0.235630, -0.188676, -0.152726, -0.257482, -0.171980, -0.120702, -0.282468, -0.422576, -0.270844, -0.278522, -0.388116, -0.407085, -0.377215, -0.261792, -0.210149, -0.353795, -0.372665, -0.373077, -0.230699, -0.214766, -0.180780, -0.176488, -0.275320, -0.436114, -0.612358, -0.643197, -0.488070, -0.514667, -0.549583, -0.189945, 0.419138, 0.070490, 0.245332, 0.239159, 0.124357, 0.071015, 0.081238, 0.188926, 0.200751, 0.209082, 0.323859, 0.290222, 0.253090, 0.279540, 0.337025, 0.349398, 0.086137, -0.151889, -0.068340, 0.094730, 0.064202, 0.230535, 0.130245, -0.131315, 0.223431, 0.272441, 0.217888, 0.202589, 0.029376, -0.063470, -0.163724, -0.158119, -0.240473, -0.190066, -0.100089, -0.217093, -0.271227, -0.060136, -0.050427, -0.200220, -0.210632, -0.160568, -0.022400, -0.090474, -0.054923, 0.023297, -0.009599, -0.105418, -0.038160, -0.180307, -0.134258, 0.157572, -0.208492, 0.058169, -0.212759, -0.233308, 0.220958, 0.055079, -0.300051, -0.309521, -0.349932, -0.220355, -0.128018, -0.311539, -0.423791, -0.191963, -0.218265, -0.213845, -0.225589, -0.219768, -0.103464, -0.029025, -0.112777, -0.135147, -0.146787, -0.096991, -0.072213, 0.046373, -0.010243, -0.083710, -0.199901, -0.417987, -0.325013, -0.265762, -0.315394, -0.316849, 0.038467, 0.298976, -0.042117, 0.118930, 0.142579, -0.013279, 0.086318, 0.083261, 0.224925, 0.452805, 0.377247, 0.399858, 0.358647, 0.153694, 0.242817, 0.234559, 0.226012, -0.070790, -0.090784, -0.024344, 0.202072, 0.058587, 0.172011, 0.164220, -0.234296, 0.217307, 0.113595, 0.100785, 0.279778, 0.000899, 0.850568, 0.804657, 0.549819, 0.282797, 0.196855, 0.378523, 0.103103, -0.098745, 0.227807, 0.264420, 0.108401, 0.162056, 0.196871, 0.392174, 0.357596, 0.375386, 0.304331, 0.059261, -0.125338, -0.075425, -0.067024, -0.167008, 0.254303, 0.190855, 0.287885, 0.227572, 0.206635, 0.581946, 0.418550, 0.0, 0.0, 0.0, },
};
static float mdlfile_bias1[]={-36.594082, -47.372810, -4.251525, -11.861270, -2.963950, -2.514612, -47.064079, -30.895950, -18.215130, -32.141590, -29.670931, -52.543732, -53.023731, -38.011509, -3.893579, -22.813000, 4.825665, -15.547260, -58.953659, -19.964491, -14.913680, 5.810576, 3.892887, -4.952838, 4.760112, -1.623945, -6.164682, -46.338421, 4.015632, 1.869608, -5.536723, -47.698910, };
static float mdlfile_weights12[][32]={
{0.779778, -0.151709, -0.641196, -0.647153, -0.582706, -0.979518, 0.696363, 1.318231, -1.108512, -0.066373, -0.430930, -0.291384, -0.236662, -0.201068, -0.614166, -0.158719, 0.481958, -0.555329, 0.086343, -0.243615, -0.473751, 0.776860, 0.778950, -0.635428, 0.459298, -0.587364, -0.580763, -0.460340, 0.740326, 0.747562, -0.426242, 1.955226, },
{-0.747180, 0.115695, 0.564120, 0.663790, 0.556223, 0.746374, -1.019075, -1.040727, 1.022650, -0.050162, 0.525644, 0.028126, 0.203375, 0.231850, 0.647756, 0.216365, -0.661139, 0.565320, -0.164842, 0.266506, 0.270894, -0.622383, -0.732437, 0.604875, -0.524208, 0.535703, 0.638195, 0.551837, -0.709456, -0.859235, 0.469796, -1.855244, },
{0.0, 0.0, 0.0, 0.0, 0.0, 0.0, 0.0, 0.0, 0.0, 0.0, 0.0, 0.0, 0.0, 0.0, 0.0, 0.0, 0.0, 0.0, 0.0, 0.0, 0.0, 0.0, 0.0, 0.0, 0.0, 0.0, 0.0, 0.0, 0.0, 0.0, 0.0, 0.0, },
{0.0, 0.0, 0.0, 0.0, 0.0, 0.0, 0.0, 0.0, 0.0, 0.0, 0.0, 0.0, 0.0, 0.0, 0.0, 0.0, 0.0, 0.0, 0.0, 0.0, 0.0, 0.0, 0.0, 0.0, 0.0, 0.0, 0.0, 0.0, 0.0, 0.0, 0.0, 0.0, },
};
static float mdlfile_bias2[]={-1.663768, 1.663799, 0.0, 0.0, };
static float mdlfile_priors[]={-0.909336, -0.515489, };
