static int mdlfile_total_layer_num=3;
static int mdlfile_num_per_layer[]={126, 64, 2, };
static float mdlfile_weights01[][128]={
{-2.701602, -2.251780, -1.308776, -1.684652, -0.860213, -0.549497, -0.395330, -0.175068, -0.093641, -0.085154, -0.183095, -0.229239, 0.000218, 0.850349, 1.564125, 3.097696, 1.690452, 1.899057, 1.356356, 0.869139, 0.583706, 0.472107, 0.318875, 0.149777, 0.181424, 0.115705, 0.033689, -0.540817, -0.586061, 0.296124, -0.386367, -0.462708, -0.526486, -0.356542, -0.401604, -0.229643, -0.040331, -0.016227, -0.164947, -0.180339, -0.064273, -1.391636, -0.807092, -0.675368, -0.861539, -2.679826, -2.496481, -1.937697, -1.618889, -1.325930, -0.961213, -0.737490, -0.313217, 0.023428, 0.095184, -1.188054, -1.413976, -3.191013, -1.333377, -1.222022, -0.590713, -0.237581, 0.029784, 0.122487, 0.221624, 0.339590, 0.261631, 0.154062, 0.170441, -0.648835, 1.867805, 1.644628, 1.730015, 2.013765, 1.606755, 1.000028, 0.744074, 0.468450, 0.183283, -0.017969, 0.142285, 0.272681, -0.009881, 2.020139, 6.150102, 4.534668, 2.887659, 4.780849, 3.413777, 2.730303, 2.149610, 1.620798, 1.132837, 0.873362, 0.569978, 0.100963, -0.069003, 0.026356, -1.404596, -1.019994, -1.113472, -1.911522, -1.680302, -1.315958, -1.034372, -0.875663, -0.780509, -0.618896, -0.447999, -0.325184, -0.168333, 1.288601, -0.396400, 0.268589, -0.203424, -0.111724, -0.181336, 0.183586, 0.173301, 0.289333, 0.324809, 0.378580, 0.255322, -0.020453, 0.024274, -1.652383, 0.0, 0.0, },
{-1.139280, 1.006103, 0.175154, -0.279318, -1.039902, -1.226844, -1.453279, -1.100029, -0.906533, -0.829182, -0.593742, -0.335941, -0.050542, -1.020362, -1.734339, -1.284914, -1.015206, -1.179430, -1.367909, -1.251203, -0.829369, -0.589719, -0.186608, 0.138617, 0.265898, 0.181874, 0.159378, -1.508386, 0.601657, 0.737896, 0.275010, 0.212727, 0.372990, 0.429378, 0.202402, 0.445446, 0.283827, 0.022810, -0.118003, -0.066227, -0.066653, -0.006821, 0.223451, 0.661215, 0.572274, 1.512984, 1.015300, 0.803855, 0.915242, 0.879611, 0.839281, 1.040398, 0.890235, 0.509412, 0.359595, 0.779992, 3.242944, 3.088933, 1.756996, 2.115447, 1.996313, 1.580541, 1.301130, 0.828126, 0.374099, 0.136718, 0.074639, -0.055047, -0.021165, -0.890507, -3.022357, -1.585686, -1.299505, -0.819740, -1.585285, -1.585320, -1.206545, -1.309563, -0.654922, -0.057211, 0.159960, 0.049151, 0.125939, -0.693791, 3.043876, -0.479785, -0.332307, -0.660396, 0.294300, 0.627882, 0.687989, 0.439171, 0.154283, -0.096885, -0.192470, -0.249516, -0.180238, -0.296513, -1.460528, -1.158862, -0.333831, -0.781623, -0.650224, -0.683168, -0.688478, -0.432946, -0.357947, -0.337265, -0.229160, -0.132577, -0.126951, 2.112341, 2.772341, 1.548182, 1.192561, 0.938373, 1.334691, 1.307966, 1.249927, 1.137830, 0.751682, 0.501221, 0.416160, 0.114294, 0.039853, -0.737363, 0.0, 0.0, },
{1.863908, -0.688228, 0.151909, -0.110358, 0.079807, -0.017609, -0.002373, -0.033651, -0.023897, -0.047080, -0.027342, -0.124075, 0.005203, 0.604993, -4.366643, -0.154392, -0.265510, 0.072074, 0.010611, 0.005869, -0.040651, -0.012314, 0.171497, -0.025033, 0.022548, 0.003787, -0.017083, -0.684366, 1.766114, -1.009550, 0.390313, -0.091929, 0.035644, 0.017993, -0.227452, -0.230777, 0.014619, -0.257226, -0.144824, -0.169800, 0.047524, 0.118860, 2.642804, -0.334973, 0.003930, -0.214167, -0.298127, -0.136394, 0.036104, 0.054702, -0.010055, 0.002968, 0.008060, -0.030086, -0.042244, -0.075926, -2.061707, 0.192014, -0.452753, -0.014825, 0.035201, 0.073272, -0.007793, 0.019674, 0.113983, -0.001462, 0.010132, 0.018576, 0.043451, -1.058065, 2.871958, 0.534855, 0.056809, -0.106194, -0.482110, -0.204271, 0.118124, 0.178566, -0.015617, 0.052668, 0.037355, 0.114366, -0.124937, -0.769674, -3.706523, -0.496696, -0.256881, -0.141458, 0.157476, 0.031016, -0.007460, -0.017771, 0.092633, -0.058927, 0.000396, -0.111228, 0.071429, -0.248615, -2.298137, 0.325886, -0.291602, 0.076602, 0.121289, 0.057799, 0.075440, 0.127028, 0.060734, 0.066265, 0.046581, -0.040848, 0.076114, 1.793753, -5.572619, -0.768057, -0.473177, 0.059265, 0.314102, 0.149280, -0.194644, -0.167742, 0.246064, -0.218866, -0.005082, -0.082556, 0.125056, -0.359887, 0.0, 0.0, },
{0.414910, -0.756670, -0.382249, 0.074641, -0.329373, -0.168932, -0.258597, -0.349680, -0.158856, -0.124643, -0.012730, 0.027135, -0.027817, 0.154766, 0.144771, 0.629704, 0.286130, 0.055428, 0.181306, 0.103632, 0.161249, 0.152538, 0.111043, 0.135649, 0.041711, 0.071163, -0.015964, 0.180637, 0.410101, -0.757984, -0.433456, -0.203031, -0.224542, 0.124592, 0.134831, -0.158536, -0.035398, -0.073697, -0.076643, 0.041547, -0.118319, -0.107332, 0.040183, 2.494649, 1.308051, 0.910400, 0.414183, 0.047957, -0.092421, -0.054924, -0.058183, -0.072578, 0.089783, 0.020317, 0.006096, -0.349302, -0.678236, -0.101484, -0.071330, 0.134325, 0.135755, 0.033350, -0.091953, -0.010497, -0.055549, -0.001861, 0.064858, 0.011420, 0.052593, 0.239992, -0.856159, 0.856299, 0.467787, 0.017702, 0.063638, -0.203921, -0.193731, 0.094212, -0.017605, -0.089597, -0.036049, 0.061087, 0.061768, 0.124964, 0.549276, 0.322303, 0.160450, 0.544971, 0.175765, 0.198796, 0.002835, -0.135721, -0.143023, -0.110634, 0.080958, 0.009013, 0.007906, -0.170474, 0.048652, -0.112635, -0.232278, 0.085269, -0.097862, -0.162057, -0.203856, -0.133458, -0.096386, -0.044078, 0.058517, 0.017129, 0.052194, -0.370222, -0.268825, -0.859042, -0.372014, 0.114242, 0.262177, 0.303152, 0.116290, 0.008374, -0.108380, 0.051966, 0.000638, 0.089092, 0.022713, 0.133320, 0.0, 0.0, },
{0.487441, -0.183001, -0.252811, 0.299924, 0.078946, 0.370587, -0.219754, -0.128519, -0.018453, 0.073915, -0.011409, 0.033874, 0.135843, -0.687312, -0.108422, -0.805328, 0.342364, 0.297960, -0.092069, -0.342691, -0.071778, 0.169664, 0.092945, -0.063367, -0.129042, 0.022521, 0.035267, -0.503493, -0.102247, -0.840193, -0.070039, -0.289338, 0.137568, 0.414585, -0.102224, -0.024944, 0.059429, 0.055164, -0.133051, 0.093242, 0.015269, -0.494421, -0.666827, 1.150697, -0.153284, 0.255664, -0.184458, 0.113303, 0.043722, -0.057728, -0.005042, -0.009965, 0.151570, 0.019702, 0.075124, -0.321440, 0.767152, -1.709662, 0.629469, 1.330204, 0.235852, -0.562100, -0.113480, 0.158672, -0.003211, -0.154684, -0.116840, 0.005108, 0.020211, 0.762892, -0.858553, 2.538380, -0.377585, -0.902221, -0.539137, 0.027305, 0.254540, -0.045701, -0.035088, -0.017775, 0.265403, -0.048676, 0.003105, 0.085510, 1.325437, -3.568002, 0.732234, 2.114089, 0.412472, -0.343446, -0.218675, 0.053850, 0.036567, -0.094012, -0.046703, 0.031162, 0.095306, 0.858672, 0.367594, -0.005302, 0.055287, 0.358910, 0.220399, -0.098130, -0.184318, 0.001271, 0.012719, 0.032374, -0.102673, -0.028392, 0.030268, -0.195707, 1.281379, -4.787040, 1.220334, 2.651845, 0.551681, -0.905393, -0.427933, 0.356197, 0.088509, -0.185150, -0.406710, 0.155426, 0.212120, 0.349292, 0.0, 0.0, },
{0.221413, -0.358323, -0.101958, 0.342377, 0.029013, -0.508453, 0.322991, 0.161992, -0.509109, 0.256796, 0.108835, -0.830868, 0.547342, -0.274710, -0.417450, 0.056965, -0.078010, -0.629331, 0.072695, -0.032943, -0.096329, -0.058865, 0.239809, -0.029677, -0.401546, 0.464020, -0.245076, -0.239297, 0.079438, -0.539860, -0.168872, -0.396535, 0.147692, 0.880090, -0.498951, -0.608531, 0.092104, -0.005383, 0.638328, -0.278199, -0.077747, -0.466516, 0.615993, 0.213946, 0.074706, 0.591498, 0.074642, -0.605479, 0.525672, 0.355104, -0.474879, 0.285798, 0.118734, -0.769197, 0.621896, -0.081530, -0.177615, 0.253559, -0.134115, -0.316666, 0.036696, -0.570428, 0.286300, 0.354113, -0.008417, -0.011252, -0.354663, 0.105539, 0.160709, 0.038505, 0.038694, 0.126450, 0.157368, 0.234683, -0.154336, -0.133928, 0.126920, -0.026235, -0.175727, 0.030494, -0.060637, -0.081660, 0.036015, 0.350273, 0.491894, 0.151572, -0.224556, 0.121500, 0.237595, -0.730417, 0.561258, 0.678052, -0.396757, 0.357779, 0.342195, -0.826502, 0.820917, -0.081756, -0.032165, 0.311121, 0.091442, 0.319332, -0.001876, -0.669904, 0.570221, 0.574288, -0.157366, 0.169103, -0.411219, -0.106417, 0.375257, 0.043424, -0.214314, 0.283800, -0.393844, -1.129675, 0.345902, -0.393932, 0.145173, 0.346069, 0.028876, 0.039035, -0.052354, -0.098366, 0.457697, -0.323245, 0.0, 0.0, },
{0.648287, -0.571388, 0.202288, -0.195687, 0.322664, -0.558805, 0.531494, -0.878003, 0.638906, -0.828845, 0.353734, -0.328246, 0.122652, 0.093442, -0.358835, 0.087258, 0.021762, -0.207802, -0.113370, -0.116177, 0.184283, -0.240510, 0.287236, -0.257331, 0.270936, -0.093838, 0.031112, 0.099033, 0.071883, -0.659245, -0.048920, -0.034590, -0.084269, 0.153266, -0.046719, -0.138342, -0.093071, 0.224443, -0.490099, 0.144911, 0.161507, -0.211326, 1.218652, 0.296076, 0.376400, -0.065631, 0.422416, -0.410352, 0.543064, -0.641392, 0.610088, -0.686862, 0.500063, -0.301528, 0.107613, 0.060391, 0.065456, 0.090011, 0.010171, -0.276927, -0.043814, -0.437645, 0.281880, -0.426592, 0.447078, -0.666185, 0.538002, -0.278365, 0.013327, 0.101087, -0.194853, 0.473816, 0.042001, -0.001867, -0.040267, 0.037485, -0.072176, 0.129838, -0.180024, 0.187314, 0.030038, -0.026565, -0.079608, 0.309538, 0.627680, -0.044619, 0.399613, -0.398401, 0.481073, -0.545067, 0.860109, -0.748572, 0.954629, -0.980817, 0.780743, -0.419557, 0.244695, -0.119189, 0.128355, 0.403768, 0.197762, 0.016685, 0.435195, -0.390814, 0.417758, -0.466734, 0.562391, -0.776474, 0.612658, -0.303257, -0.063922, -0.072850, 0.231393, -0.155724, 0.055801, -0.666148, -0.036662, -0.639516, 0.840833, -1.038906, 1.201985, -1.420146, 0.959891, -0.626643, 0.279924, -0.072430, 0.0, 0.0, },
{0.519609, 1.142051, 0.963632, 1.268470, 1.210936, 1.158308, 0.811892, 0.508632, 0.289421, 0.006158, -0.107754, -0.118453, -0.121185, 0.082472, 3.348720, 5.783017, 3.102746, 3.079670, 2.124566, 1.609914, 1.331459, 0.841183, 0.466770, 0.240573, 0.113647, -0.018601, -0.045329, 0.902401, 1.046600, 0.410833, 0.720901, 0.122756, 0.264180, 0.226261, -0.086455, -0.040559, 0.018491, -0.220791, -0.162152, -0.022022, -0.073836, -0.498212, 0.461576, 3.074117, 2.018205, 2.368508, 1.046772, 0.277562, 0.208264, -0.179559, -0.345792, -0.252839, -0.200475, -0.264428, -0.095835, -0.029474, -0.305289, 0.448610, -0.326361, -0.210784, -0.252508, -0.349190, -0.266423, -0.150760, -0.182610, -0.056681, -0.078524, -0.128043, 0.005414, 1.100646, -1.652926, 0.250278, 0.556912, 1.280665, 0.638801, 0.212275, 0.537530, 0.016754, -0.164754, -0.107444, -0.065705, -0.068494, -0.008654, 1.503961, -1.865904, -4.380453, -3.263355, -4.009943, -2.584494, -1.535603, -1.170927, -0.362305, 0.029564, 0.231340, 0.329461, 0.291767, 0.240937, 0.195812, -0.883584, -2.147695, -1.364954, -1.180481, -0.794105, -0.348416, -0.200170, 0.000368, -0.009919, 0.089654, 0.072229, 0.031850, -0.022518, -2.336646, 1.302654, 1.086795, 0.120704, -0.246366, 0.058363, 0.194913, 0.039551, 0.336733, 0.267734, 0.183377, 0.067722, 0.036224, 0.024125, 0.036459, 0.0, 0.0, },
{3.839388, -1.753712, -0.053204, -0.745817, -0.189942, -0.163787, -0.016468, 0.051430, 0.068650, -0.083178, 0.049777, -0.018840, -0.051255, -0.728927, 0.209417, -0.603754, 0.248093, 0.262801, -0.099385, 0.008583, 0.030061, -0.106789, -0.025302, -0.036231, -0.099220, 0.058650, 0.052132, -0.265330, 7.705572, -4.053424, -0.612292, -0.593296, -0.916520, -0.060034, -0.268740, 0.032889, 0.014084, -0.009780, -0.069876, 0.041205, 0.020470, -0.122341, -6.092808, 1.982854, 0.710953, 0.100577, 0.626079, -0.168744, 0.332882, 0.134113, 0.047490, -0.076744, 0.138334, -0.112271, -0.066320, -0.203221, -1.805717, 0.599079, 0.017414, 0.140169, 0.112984, 0.018319, -0.010277, -0.105718, 0.001507, -0.044152, -0.027330, 0.013119, 0.013109, 0.027478, -6.944443, 3.534597, 1.172580, 0.489722, 0.913740, -0.181230, 0.550211, 0.189648, 0.019767, 0.036164, 0.121541, -0.116238, -0.061521, -0.320744, 0.357386, -0.625629, -0.079719, -0.157539, -0.011009, -0.151213, 0.003223, -0.029393, 0.075422, -0.085901, 0.110143, 0.003543, -0.027614, 1.034356, -0.635045, 0.795780, -0.047317, -0.274302, 0.132079, 0.074254, -0.077237, -0.058149, 0.066029, -0.079987, 0.029884, -0.087951, -0.000018, 0.069496, 3.901862, -2.667926, -0.506738, 0.041742, -0.566780, -0.062384, -0.212364, -0.303749, -0.114790, -0.045480, -0.095230, 0.086852, -0.038157, 0.252958, 0.0, 0.0, },
{-0.381237, -0.802499, 0.511041, 1.006990, 0.468786, -0.257492, -0.500080, -0.446232, -0.275187, -0.315732, -0.058645, -0.132653, -0.192217, -0.273734, -0.139092, 0.485272, -0.108747, -0.505849, -0.236369, 0.199327, 0.286790, 0.246085, 0.019244, 0.057415, 0.026355, 0.010600, 0.053330, 0.136627, -0.585771, -1.006458, 0.655203, 1.397768, 0.651276, -0.427559, -0.795319, -0.748362, -0.279871, -0.443129, 0.043123, -0.057163, -0.257889, 0.124102, -0.834804, 0.346744, -0.094683, 0.081577, 0.199842, -0.026727, -0.150542, -0.134541, -0.137996, -0.008594, 0.019428, -0.109334, -0.031822, -0.202777, 1.112588, 0.616925, -0.077383, -0.619549, -0.387600, 0.198944, 0.396287, 0.255282, 0.056562, 0.127346, -0.060870, 0.010909, 0.044622, -0.400332, -0.860384, 0.628716, -0.590891, -0.632305, -0.058416, 0.106900, 0.179774, 0.268055, 0.077576, 0.297305, 0.063002, -0.033724, 0.119946, -0.100266, 1.487204, -0.245352, 0.424460, 0.530984, 0.208180, -0.096912, -0.170267, -0.244321, -0.124246, -0.091429, -0.043116, -0.075102, -0.141074, 1.183914, 0.758634, 0.018206, 0.032063, -0.269820, -0.133700, 0.142212, 0.280592, 0.180667, 0.011145, 0.012021, -0.084965, 0.000036, -0.043674, -0.034648, 1.295501, 0.263418, 0.554981, 0.066646, -0.183070, 0.027937, 0.127124, -0.051932, -0.105042, -0.217762, -0.142256, -0.029034, -0.115028, 0.201932, 0.0, 0.0, },
{1.512105, 0.190668, -0.431532, -0.498114, -0.247024, 0.011771, -0.145903, -0.101465, 0.216897, 0.052934, -0.067349, -0.292142, 0.163963, 0.412134, -0.886399, -0.507344, 0.142007, 0.108089, -0.098085, 0.109047, -0.010084, 0.080518, -0.152805, 0.099525, -0.004492, 0.112222, -0.049515, -0.213653, 0.171769, -2.559148, -0.518695, -0.930926, -0.396763, 0.227324, -0.595084, -0.235552, 0.283300, 0.227073, -0.059315, -0.286016, 0.215604, 0.261256, 1.759116, 2.710196, 0.305863, 0.435970, 0.213594, -0.272196, 0.070809, -0.019158, 0.001220, -0.113465, 0.004641, -0.036062, 0.031298, -0.149797, -0.381039, -0.220058, -0.213120, 0.105703, -0.227570, -0.109448, -0.116645, -0.033978, -0.301357, -0.000232, -0.161610, 0.164382, -0.151885, -0.240672, 0.651696, 2.524036, 0.452514, 0.436709, 0.467751, -0.449054, 0.368219, 0.100553, -0.260825, -0.374362, 0.019906, 0.048780, -0.161218, -0.310122, -1.111832, -0.621475, -0.295012, 0.194593, 0.188425, 0.173858, 0.073456, 0.033449, 0.303632, 0.284347, 0.036658, 0.051430, 0.047086, -0.525331, -0.515766, 0.384215, -0.182215, 0.083008, -0.038261, 0.174147, 0.124833, 0.143303, -0.022169, 0.027581, -0.017355, 0.051059, -0.069067, 0.378350, -1.443744, -2.066482, -0.408248, 0.043308, -0.217326, 0.349775, -0.311151, -0.015327, 0.029426, 0.396032, -0.176180, 0.065637, -0.047321, 0.011668, 0.0, 0.0, },
{-0.441748, 3.349971, 1.333810, 0.367371, -0.229700, -0.367955, -0.515710, -0.376736, -0.162763, -0.003085, 0.128662, 0.135729, 0.203667, 1.557925, -0.641452, -2.005134, -1.601900, -1.929130, -1.584669, -1.179613, -0.724137, -0.394324, -0.203539, 0.095970, 0.233890, 0.184201, 0.095907, -0.427436, -0.938169, -0.861144, -0.241425, -0.327545, -0.031285, -0.129211, -0.101892, -0.091201, -0.058392, -0.228372, -0.048201, 0.110831, 0.141512, -0.086330, -0.829505, -2.159991, -1.979334, -2.469102, -1.632044, -0.954951, -0.596317, -0.285987, -0.191483, -0.081014, 0.096227, 0.075370, 0.148991, 0.025997, 1.501813, 1.314442, 0.390354, 0.719524, 0.533207, 0.564222, 0.564580, 0.463602, 0.322214, 0.269403, 0.196858, 0.094892, 0.068086, -0.243424, 1.199642, 0.247929, -0.229225, -0.756053, -0.993527, -0.609243, -0.317719, -0.295457, -0.045928, 0.348304, 0.271517, 0.158764, 0.115916, -0.819307, -0.121491, -1.839735, 0.177259, 1.536674, 1.426757, 1.121495, 0.836470, 0.526731, 0.223373, 0.003101, -0.295592, -0.257311, -0.321877, -1.350628, 0.781811, 4.501768, 1.939074, 1.753841, 1.017834, 0.522505, 0.213861, 0.126690, 0.023719, -0.010936, -0.068122, -0.202688, -0.091770, 1.077278, -0.459148, -1.670658, -1.272034, -0.698001, -0.389651, -0.338697, -0.105501, 0.043540, -0.092262, -0.210803, -0.111108, -0.074757, -0.132347, -0.066669, 0.0, 0.0, },
{-0.312051, -0.011927, -0.639969, -1.599508, -0.916522, 0.018793, 0.122429, 0.303899, 0.471794, 0.529404, 0.009302, 0.038888, 0.126757, -0.457193, -0.425812, 0.239822, 0.408655, 0.907832, 0.364575, 0.073001, 0.057770, -0.218670, -0.341683, -0.272459, -0.040994, -0.008453, -0.138094, -0.354869, -0.378763, -0.127399, -1.010950, -2.931498, -1.779438, -0.221655, -0.229279, 0.309010, 0.787613, 0.964922, 0.021197, -0.075637, 0.364592, -0.387554, 0.059665, -1.196814, -0.404812, -0.247232, 0.035662, 0.087528, 0.027789, 0.205167, 0.217644, 0.103431, 0.003770, 0.002129, -0.025842, -0.058972, 0.648197, 0.246794, 0.735468, 1.588005, 0.736669, 0.172444, 0.230415, -0.210041, -0.396017, -0.348313, 0.013766, 0.066828, -0.137139, -0.134943, -0.170126, -1.306806, -0.306261, 0.561739, 0.571113, 0.001331, -0.103628, -0.040131, -0.113664, -0.307572, -0.052700, -0.134046, -0.194223, 0.231086, 0.525783, 0.121362, 0.079888, -0.218410, -0.145150, 0.078973, 0.113431, 0.064159, 0.256535, 0.210963, 0.050475, 0.106264, 0.019753, 0.725162, 0.251220, 0.753358, 0.516481, 1.061900, 0.423969, 0.246294, 0.349733, -0.064888, -0.257721, -0.226028, 0.016420, 0.100661, -0.000005, 0.494456, 0.532385, 0.927181, 0.824706, 0.677213, 0.065130, 0.102680, 0.180466, -0.226874, -0.072032, 0.049867, 0.009637, 0.079855, -0.042765, -0.279536, 0.0, 0.0, },
{4.830110, -0.980344, -0.120081, 0.054690, 0.525177, 0.709777, 0.391468, 0.119929, 0.076991, -0.025183, 0.294116, 0.292471, 0.432254, 0.348552, -0.967258, 1.501181, -0.278198, -0.420761, -0.108567, -0.156333, 0.154961, 0.205273, 0.267566, 0.075051, 0.053782, -0.178859, -0.102285, -1.863141, -0.350144, -0.569003, -0.509446, -0.337074, 0.148112, 0.344274, -0.231575, -0.557142, -0.299007, -0.242406, 0.263059, 0.317624, 0.307525, 0.813078, 1.275707, 0.515715, -0.152402, -0.321387, 0.057536, 0.029663, 0.248549, 0.273256, 0.220274, 0.028944, 0.084190, 0.018016, 0.066747, -0.141449, -1.147472, -0.792463, 0.806596, 0.386433, 0.118804, -0.124410, 0.119902, 0.061516, 0.020800, 0.040697, 0.011867, -0.127818, -0.026810, -0.911627, -0.418682, 1.916930, 0.236710, 0.020841, -0.107462, -0.174560, 0.398597, 0.599588, 0.533690, 0.492530, -0.189974, -0.241979, -0.360090, -1.092094, -3.110610, -0.379507, 0.163726, -0.499158, 0.124621, -0.258822, -0.418415, -0.577415, -0.524535, -0.494232, -0.032534, -0.195560, 0.112079, -0.726657, 4.223427, -1.308329, -0.045393, 0.047468, 0.102621, 0.221245, 0.307120, 0.428204, 0.117755, -0.113414, 0.085931, 0.127393, 0.277888, 2.569786, -1.687988, -0.524010, -0.044432, -0.415719, -0.004851, -0.268488, -0.260259, -0.387867, -0.216880, -0.406894, 0.278840, -0.119292, 0.178616, -1.619974, 0.0, 0.0, },
{-1.901731, -2.513466, -0.767578, -0.609141, -0.490497, -0.309569, -0.368517, -0.360899, -0.389907, -0.268980, -0.293434, 0.111617, 0.088102, -0.351645, 0.673099, 0.111228, -0.221745, -0.296625, -0.362416, -0.093473, -0.033525, 0.128465, 0.094801, 0.029097, 0.115878, 0.100206, 0.099416, 1.097474, -1.862645, -0.556216, -0.501985, -0.055276, 0.010057, -0.114224, -0.388712, -0.327825, -0.233788, -0.221719, -0.165163, 0.038737, 0.229462, 0.135821, 1.702756, 1.168128, 0.243654, 0.348556, -0.011930, 0.039470, 0.062401, -0.037673, -0.114522, -0.041034, -0.089078, 0.134602, -0.052286, -1.129043, -0.428694, 0.713388, -0.132279, -0.237070, -0.074780, 0.014914, 0.022767, 0.008593, 0.079888, 0.092065, 0.023710, 0.029043, 0.039916, -2.483720, 2.921379, 0.728912, 0.415929, -0.041958, -0.173927, -0.037804, 0.136995, 0.198261, 0.150177, 0.042701, 0.145175, 0.034488, -0.209627, 1.194024, -1.695714, 0.813728, -0.010183, 0.503516, 0.433336, 0.190870, -0.000908, -0.125290, -0.181704, 0.033636, -0.132884, 0.140400, 0.091737, 0.039954, -0.621278, -1.426892, 0.153126, 0.111636, 0.002528, -0.011524, 0.065961, -0.016256, -0.093478, -0.046227, -0.107948, -0.060385, -0.019574, 0.372187, -1.914008, 0.440916, -0.541752, -0.056931, 0.012788, -0.062269, -0.149906, -0.148509, -0.081426, -0.004621, -0.046301, 0.191777, 0.286034, -2.572176, 0.0, 0.0, },
{1.357590, 0.619159, -0.230987, 0.025923, -0.112991, -0.230754, -0.416174, -0.299824, -0.294420, -0.189978, -0.070717, -0.073443, -0.054181, 0.195836, -1.250017, -2.103207, -0.981752, -0.994667, -0.610627, -0.501349, -0.389828, -0.282524, -0.276704, -0.319359, -0.240730, -0.069689, -0.043138, -0.345360, 0.189049, -0.917305, -0.380031, 0.128477, 0.059034, -0.245461, -0.516443, -0.389104, -0.350457, -0.315177, -0.002697, -0.114345, -0.095176, -0.732825, 0.543461, 1.279918, 0.355659, 0.267900, -0.014254, 0.123345, 0.085138, 0.140828, 0.118499, 0.174299, 0.102072, 0.057863, 0.012572, -0.536174, -1.127689, -0.451937, -0.252847, -0.391897, -0.032249, -0.146339, -0.088544, -0.019901, 0.018803, -0.037098, -0.060079, -0.022166, 0.014173, -0.218066, 0.259584, 1.324980, 0.564555, 0.051707, -0.199657, 0.121224, 0.375286, 0.375665, 0.338189, 0.317194, 0.058366, 0.015095, 0.089285, 0.729592, -1.004938, 0.798523, 0.424985, 0.917307, 0.639764, 0.378948, 0.215548, 0.205494, 0.190389, 0.261776, 0.253329, 0.137325, 0.070415, -0.445809, 0.602735, 0.587623, 0.185496, 0.201727, 0.205418, 0.135462, 0.105599, 0.020156, 0.004698, 0.022471, -0.036144, -0.003084, 0.060436, 0.698535, -1.446648, -1.281661, -0.621349, -0.267614, 0.033712, -0.224650, -0.376601, -0.347665, -0.197633, -0.155704, -0.034015, -0.111175, -0.037773, -0.759140, 0.0, 0.0, },
{0.897515, -0.061821, -0.683697, -0.836265, 0.550522, 1.246223, -0.104421, -0.725110, -0.213666, 0.452701, 0.598384, 0.138404, -0.392988, -0.141345, -0.603463, -0.230801, 0.112780, -0.071101, -0.337659, -0.418545, -0.004397, 0.419227, 0.384172, -0.185003, -0.666035, 0.062334, 0.274374, -0.249123, 0.934894, -0.354771, -0.848223, -1.031834, 0.454877, 1.532016, -0.459866, -1.546069, -0.494063, 0.893781, 1.021587, 0.199623, -0.855124, -0.221604, 0.187894, 0.626470, 0.081683, -0.199090, 0.394890, 0.596895, 0.259840, -0.196127, -0.209457, 0.020563, 0.377090, 0.109095, -0.209819, -0.006403, -0.681280, 0.031829, 0.216574, 0.091053, -0.290593, -0.597002, 0.069616, 0.710299, 0.457764, -0.421568, -0.580004, -0.027702, 0.419918, -0.062535, -0.598656, 0.450353, 0.626794, 0.409510, 0.031279, -0.257920, 0.439691, 0.210419, -0.212341, -0.299152, -0.086701, 0.102346, -0.010427, 0.077356, 0.056986, 0.073944, -0.400739, -0.596456, 0.491116, 0.731009, 0.053421, -0.131655, 0.002223, 0.184405, 0.502301, 0.050317, -0.121185, 0.014282, 0.098649, 0.017835, 0.081133, 0.189352, -0.091628, -0.278190, 0.121839, 0.619478, 0.342100, -0.163931, -0.407875, 0.004237, 0.254917, 0.446596, -0.452515, -0.201134, -0.521231, -0.879750, -0.107616, 0.090688, -0.286718, 0.181772, 0.592948, 0.086074, -0.268861, 0.011374, 0.340258, -0.379920, 0.0, 0.0, },
{0.103331, -0.424467, 0.082459, -0.082855, 0.093177, 0.088563, -0.141605, -0.222732, -0.115832, -0.243724, -0.030505, 0.013494, -0.017657, 0.106766, -0.215985, 0.877791, 0.499004, 0.719855, 0.200362, 0.101797, 0.205048, -0.051861, -0.169715, -0.134080, -0.036046, -0.007345, -0.038525, -0.216520, -0.201485, -1.376553, -0.438026, -1.235014, -0.381143, 0.288305, -0.115276, -0.039991, 0.139756, 0.090156, -0.021335, 0.056680, -0.036486, -0.467770, -0.113556, 0.850060, 0.445263, 0.819791, 0.362324, -0.044614, -0.015272, -0.197495, -0.143331, -0.200774, 0.011841, -0.025669, 0.058344, 0.031171, 0.542459, 0.558836, 0.371069, 1.040373, 0.223290, -0.006768, 0.045206, -0.129324, -0.229326, -0.235150, -0.071729, -0.006891, -0.059748, 0.381417, -0.289531, 1.283908, 0.343682, 0.621836, 0.224902, -0.172314, 0.098072, -0.011352, -0.052192, 0.081073, 0.034314, -0.032009, 0.121693, 0.606167, 0.833536, -0.022566, 0.490479, 0.805703, 0.375123, 0.085450, -0.073611, -0.272671, -0.179240, -0.360793, -0.021487, 0.015519, -0.036427, -0.367181, -0.155337, 0.691934, 0.324336, 0.621383, 0.206773, 0.060329, 0.018141, -0.081703, -0.147714, -0.238472, -0.010404, 0.019107, 0.031639, -0.195446, 0.255552, 0.368673, 0.674990, 1.069668, 0.364071, 0.353322, 0.193973, -0.226672, -0.361922, -0.580258, -0.110162, 0.081669, -0.261802, -0.465495, 0.0, 0.0, },
{0.535444, -1.449203, -0.665857, -0.199447, -0.128524, 0.081752, -0.145597, -0.188721, -0.231833, -0.176874, -0.195995, -0.041810, 0.041426, -0.287641, 0.640134, -0.477143, 0.119871, 0.177436, 0.147568, 0.057997, 0.258711, 0.073543, -0.018166, 0.028136, 0.009246, -0.076631, -0.068286, 2.425532, -0.915574, -0.959173, -0.547492, -0.250546, -0.152153, 0.126019, -0.317476, -0.155223, -0.214099, -0.114638, -0.157526, -0.020194, -0.061585, 0.029707, 0.386008, 0.316530, -0.144238, 0.134739, 0.005853, -0.089635, 0.165287, -0.135013, -0.110093, -0.056524, -0.078989, 0.016004, 0.047803, 0.183113, 1.240639, -1.607560, -0.059900, -0.243469, 0.015583, 0.055131, 0.181598, 0.096703, -0.149485, -0.091868, -0.027980, 0.004900, -0.038524, 1.145518, 0.177177, 2.336022, 0.572951, 0.658212, 0.253424, -0.288549, 0.302304, -0.081996, 0.160278, 0.148605, -0.007008, -0.004861, 0.016396, -0.067157, 0.132098, -2.812854, -0.772702, -0.737331, -0.315062, 0.121620, 0.057288, -0.015379, -0.265464, -0.234816, -0.076714, -0.013157, 0.014539, 0.186274, 0.470981, -0.909232, -0.110759, -0.147990, 0.040200, 0.131906, -0.004363, -0.017677, -0.062825, -0.017359, -0.044226, -0.009707, 0.045454, -2.200834, 0.874326, -4.120955, -0.685660, -0.768900, -0.192612, 0.345560, 0.258543, 0.110210, -0.361160, -0.309756, -0.203570, -0.071844, -0.077451, 2.763526, 0.0, 0.0, },
{-0.283443, 0.372481, -0.236539, -0.151309, 0.033999, 0.114975, 0.086019, 0.119212, 0.063800, 0.061420, 0.102591, 0.153478, 0.046024, -0.302378, -0.103980, 0.659223, -0.140001, -0.214470, -0.405635, 0.166628, 0.529723, 0.433879, 0.000851, 0.104300, -0.001375, 0.079291, 0.202856, -0.290570, -0.447575, 1.466776, 1.027245, 0.613145, 0.168492, -0.897806, -0.142901, 0.355300, 0.218502, -0.033209, 0.088567, -0.066562, -0.035409, -0.501856, 0.449894, -1.356857, -1.102983, -0.221409, 0.117238, 0.683139, 0.133584, -0.074864, -0.060643, 0.133273, -0.036032, 0.110385, 0.046973, 0.145809, 0.982853, 0.735440, -0.556786, -1.049260, -0.917249, 0.602842, 0.698568, 0.666869, -0.207154, 0.190062, -0.034295, 0.136142, 0.169466, -0.103139, -0.493904, -2.493947, -1.065649, 0.290540, 0.460480, 0.382537, -0.368141, -0.888434, -0.032212, -0.102100, -0.158250, -0.007417, -0.017683, 0.664265, 0.732476, 1.573503, -0.726809, -1.279365, -0.860642, 0.658616, 0.915544, 0.978000, -0.096245, 0.349427, -0.025390, 0.198833, 0.101369, -0.219499, 0.536148, 0.223240, -0.471386, -0.475655, -0.177564, 0.582195, 0.291007, 0.175748, -0.116542, -0.009638, 0.117549, 0.114772, 0.062008, 0.265036, 0.812513, 3.028300, -0.100618, -1.470465, -1.615429, 0.444023, 1.641586, 2.092031, -0.141617, 0.578480, -0.016163, 0.346368, 0.355698, -0.865489, 0.0, 0.0, },
{-0.519291, -0.262951, 0.386261, 0.175086, -0.164606, -0.913027, -0.794574, -0.122335, 0.420471, 0.175551, -0.317167, -0.505511, -0.135725, -0.215988, -0.256316, 0.551891, -0.189186, 0.434075, 0.214533, 0.385158, 0.756585, 0.149895, -0.534563, -0.253278, 0.339254, 0.412762, 0.189181, -0.465963, -0.658620, 0.142078, 0.661593, -0.437950, -0.363591, -0.952826, -0.784521, 0.273727, 0.591672, -0.048201, -0.955370, -0.188786, 0.068516, 0.003023, 0.107581, -0.692561, -0.003602, 0.295944, 0.024306, -0.528992, -0.587218, -0.209708, 0.386750, 0.409877, -0.017386, -0.344918, -0.140556, 0.171479, 0.261050, 0.724866, -0.468819, 0.750871, 0.352860, 0.395675, 0.664985, 0.034823, -0.458662, -0.244148, 0.498161, 0.167569, 0.108547, -0.279365, -0.035352, -0.915899, -0.085118, -0.074566, -0.077663, 0.074096, -0.132848, -0.224668, 0.034672, 0.374984, 0.073083, 0.038431, -0.153940, 0.359119, 0.043250, 0.735730, -0.103618, 0.674824, 0.297285, -0.557407, -0.351968, 0.011049, 0.352208, 0.216007, 0.032659, -0.321453, -0.024898, 0.198715, 0.465347, 0.248713, -0.262168, 0.577931, 0.243958, 0.221107, 0.362740, -0.099774, -0.261178, -0.000150, 0.475849, -0.135442, 0.030474, 0.322750, -0.465897, 1.785073, -0.266143, 1.108095, 0.585120, 0.015441, 0.672153, 0.425126, -0.345678, -0.462270, 0.282251, 0.182514, 0.179779, -1.215817, 0.0, 0.0, },
{8.253942, 2.732666, 0.220111, 0.173404, -0.204342, -0.180189, -0.013427, -0.002841, 0.146275, 0.067961, 0.030771, 0.046766, -0.033891, -0.170773, 1.479872, 0.254480, -0.345058, -0.156167, -0.023883, 0.101921, -0.244236, -0.159203, -0.102597, -0.068191, 0.031211, 0.005788, -0.089008, -0.013550, 9.536311, 5.885404, 0.956454, -0.762941, -0.755029, -0.290018, 0.141942, -0.200368, 0.137742, 0.062647, 0.037226, 0.000520, 0.157603, 0.388273, -3.773478, -1.917678, -0.324667, 0.456252, 0.239289, 0.041015, 0.033718, 0.302245, -0.039283, 0.068382, -0.024758, 0.084813, -0.084194, -0.506139, -5.071099, -2.788668, -0.328484, 0.477923, 0.646601, 0.226125, -0.089430, 0.078387, -0.056626, 0.007201, 0.114181, 0.008104, -0.053604, -0.226657, -3.791623, -2.466145, -0.397358, 0.254340, 0.200556, 0.143439, 0.191802, 0.326520, -0.109279, 0.083459, -0.105996, 0.026326, -0.061340, -0.779825, -5.316792, -2.395495, -0.101612, 0.460790, 0.471689, 0.122666, -0.022999, 0.263474, 0.014745, 0.036549, 0.017159, 0.134902, -0.059939, 0.617967, -2.387617, -2.005177, -0.608992, 0.457300, 0.227634, 0.015815, -0.214397, -0.023488, 0.044800, -0.008065, 0.034680, 0.000599, -0.063103, 0.203771, -0.738810, -0.871019, 0.024477, 0.062359, 0.353070, 0.286954, -0.307090, 0.014640, -0.041169, -0.027065, 0.162216, 0.045142, -0.103850, 0.394379, 0.0, 0.0, },
{0.830254, -3.077142, 0.653234, 1.636763, 0.185197, -0.512185, 0.120889, 0.086356, -0.102671, -0.316162, 0.032883, 0.081169, 0.067821, -0.566005, -0.427882, 0.525159, -0.341447, -0.301395, -0.096490, 0.140988, -0.007194, 0.031966, -0.087012, 0.144720, -0.000981, 0.016794, 0.008372, -0.486132, 0.358587, -3.255379, 0.916147, 2.493166, 0.016355, -0.907501, 0.336948, 0.444109, -0.458643, -0.429474, 0.055255, 0.188704, 0.009508, -0.748405, 0.518309, -0.160989, 0.251732, 0.003453, 0.011435, -0.087996, -0.038223, -0.109207, 0.068923, -0.083205, -0.017662, 0.039354, 0.132485, 0.198352, -0.803641, 1.715703, -0.689302, -1.245351, 0.112234, 0.580594, -0.149818, -0.157499, 0.166293, 0.167044, -0.017358, -0.055336, 0.043215, 0.207668, 0.276299, 0.924803, 0.057532, -0.921033, -0.339600, -0.026152, -0.068577, -0.185089, 0.023615, 0.128748, 0.028555, 0.009538, 0.014056, 0.602009, -0.637203, 0.080299, 0.070455, 0.166076, 0.509090, 0.214979, -0.013902, -0.108930, 0.101291, -0.123792, -0.100094, 0.028260, 0.150628, 0.036074, 0.231885, 0.487745, -0.402640, -0.538205, 0.085880, 0.322244, -0.137013, -0.162778, 0.126206, 0.017267, -0.018275, -0.047509, -0.062480, 0.155140, -0.875422, 0.352217, -0.438835, -0.230932, 0.433565, 0.357863, -0.043647, 0.024058, -0.015484, 0.022408, -0.122839, 0.033500, 0.061959, -0.643127, 0.0, 0.0, },
{1.065783, -0.698203, -1.071808, -1.883859, -1.330166, -0.860658, -0.363722, 0.102140, 0.440524, 0.729485, 0.788199, 0.597627, 0.502841, -0.655335, -0.373612, -2.136789, -0.505214, 0.096145, 0.677875, 0.785103, 0.852020, 0.673655, 0.526905, 0.419226, 0.163951, 0.126880, 0.074301, 2.643386, 0.248646, 1.593577, 0.709721, 0.463478, 0.309810, 0.186320, 0.139078, 0.166151, 0.289605, 0.371738, 0.303832, 0.095247, 0.088022, 3.124610, 1.188803, 2.219288, 1.630507, 2.348353, 1.563088, 0.982404, 0.437455, 0.024069, -0.203904, -0.451924, -0.458966, -0.359205, -0.204782, 1.724941, -2.188426, -2.396181, -1.780676, -2.578871, -2.585199, -2.065535, -1.510576, -1.309064, -0.990221, -0.699882, -0.423408, -0.247334, -0.123886, -1.533181, -1.342876, -4.540223, -1.681753, -0.910936, -0.313608, 0.126824, 0.257523, 0.090775, -0.075911, -0.281887, -0.351431, -0.003016, 0.056968, -4.437691, -0.193156, -0.578580, -0.060940, -0.330215, -0.101800, 0.025433, 0.039058, -0.062931, -0.220815, -0.270802, -0.249895, -0.284247, -0.159238, -0.990985, 2.652806, 4.550086, 2.003033, 2.030509, 1.483390, 0.994306, 0.664467, 0.667454, 0.552548, 0.509719, 0.498770, 0.240625, 0.082694, -1.107459, -0.157827, 0.997291, 0.182664, -0.166055, -0.309291, -0.311079, -0.249836, -0.277247, -0.207814, -0.156207, -0.104930, -0.306595, -0.171513, 3.278365, 0.0, 0.0, },
{0.084099, -0.088820, 0.081508, 0.039069, -0.111628, 0.335227, -0.464970, 0.058104, -0.154845, -0.467447, 0.668906, -0.453461, 0.280955, -0.214082, -0.179934, 0.069291, 0.190715, -0.088911, -0.098313, 0.037271, -0.121683, 0.309753, -0.071338, -0.103443, 0.479364, -0.558141, 0.421678, -0.089088, -0.105240, -0.342832, 0.175415, 0.000588, 0.007279, -0.086419, 0.431381, -0.591957, 0.315793, -0.031884, -0.434175, 0.616916, -0.385114, -0.333766, 0.416343, 0.235856, 0.059655, -0.028447, -0.038074, 0.274065, -0.460051, 0.268355, -0.259739, -0.308237, 0.612853, -0.437075, 0.331413, -0.019017, -0.119976, 0.292678, 0.104788, -0.006971, -0.209350, 0.167105, -0.440738, 0.631800, -0.304057, -0.120081, 0.684076, -0.804693, 0.613581, 0.095731, -0.018713, -0.055978, -0.114134, -0.160600, -0.070514, -0.082684, 0.016972, 0.030862, -0.027419, 0.051140, -0.120178, 0.040642, -0.001390, 0.343781, 0.140557, 0.517000, 0.238841, 0.068275, -0.110058, 0.476651, -0.575625, 0.606926, -0.239370, -0.330233, 0.914074, -0.686105, 0.533467, -0.120551, 0.054652, 0.448440, 0.046554, 0.074943, -0.064863, 0.314965, -0.503230, 0.583712, -0.193200, -0.240755, 0.826072, -0.909359, 0.617792, 0.038342, -0.306795, 0.322394, 0.477879, -0.070944, -0.318608, 0.371192, -0.593352, 0.915261, -0.183617, -0.408492, 1.257521, -1.198406, 0.971459, -0.236508, 0.0, 0.0, },
{-6.532001, 0.124697, 0.224098, -0.140162, 0.002009, -0.175461, 0.086320, -0.046468, -0.027143, -0.163436, -0.037523, -0.118576, -0.008488, 0.109860, 0.682894, -0.393757, 0.074251, 0.105456, 0.021663, -0.044341, 0.058525, 0.020049, -0.055310, 0.111838, -0.019245, 0.135173, 0.029072, 0.065635, -2.819876, 0.050651, 0.330389, 0.083261, 0.053640, 0.012467, -0.132708, 0.137038, -0.028378, -0.196620, 0.020577, -0.086806, 0.042559, 0.232086, -0.633459, -0.168010, 0.055160, -0.061038, -0.027259, -0.110279, 0.176079, -0.057892, 0.032129, 0.038174, -0.048763, -0.008070, 0.006957, -0.057575, 0.400423, 0.006664, -0.028541, -0.094075, 0.103663, -0.100753, 0.016302, -0.116615, -0.045706, 0.143633, -0.097685, 0.112296, 0.041495, 0.187084, 3.623810, -0.607239, -0.415109, 0.039172, -0.390251, -0.047866, 0.108521, -0.099250, -0.000227, 0.143236, -0.032793, 0.078786, -0.075366, -0.239101, 8.577419, -0.778593, -0.213081, 0.112041, 0.007460, 0.113917, 0.026009, -0.015256, 0.145655, -0.058573, 0.005120, -0.007449, 0.049689, -0.147871, -1.336030, 0.164670, 0.097979, -0.158966, 0.015584, -0.037454, 0.017477, -0.054339, 0.000972, 0.090907, -0.097264, 0.023520, 0.083105, -0.292665, -2.430004, 0.153216, 0.311405, -0.039494, 0.530921, -0.152510, 0.072889, 0.045616, -0.066554, 0.094355, -0.144083, 0.147613, 0.068566, 0.415137, 0.0, 0.0, },
{-0.904822, 0.971758, 0.491380, -1.292121, -1.252231, 0.264722, 0.589177, -0.230951, -0.403154, -0.033830, 0.245571, 0.188946, -0.488802, -0.110715, -0.551902, 0.131258, 0.271070, 0.166899, 0.086250, -0.108685, -0.170668, 0.064935, 0.113498, -0.077942, -0.105721, 0.105259, 0.024207, 0.032631, -0.588758, 0.829873, 0.696015, -1.220307, -1.584848, 0.045338, 0.861431, -0.003072, -0.169619, -0.061480, 0.169035, 0.326147, -0.105014, 0.005019, -0.354665, 0.279889, 0.099593, -0.120095, -0.143523, 0.286849, 0.234430, -0.137254, -0.289564, 0.029003, 0.255370, 0.030001, -0.344918, 0.074868, 0.105229, 0.294751, -0.029135, 0.098046, 0.027009, -0.132131, -0.185360, -0.029549, 0.012589, -0.145928, 0.015396, -0.073613, -0.143049, -0.082015, -0.032718, -0.991553, -0.322317, 0.924003, 1.009467, 0.138823, -0.288176, -0.034853, -0.031758, 0.086619, 0.008429, -0.129323, 0.090408, 0.237298, -0.072458, 1.609132, 0.447628, -1.098418, -1.131002, 0.152474, 0.640188, -0.107155, -0.212568, -0.070335, 0.348255, 0.152773, -0.527371, 0.097637, 0.383515, 0.224880, -0.064095, -0.026917, 0.198931, 0.213977, -0.127243, -0.104673, -0.132774, -0.047908, 0.041006, -0.017895, -0.304160, -0.194578, -0.628312, 1.877922, 0.811656, -1.004439, -1.363210, -0.222359, 0.537331, 0.026239, -0.116830, -0.343973, 0.158254, 0.295226, -0.496420, -0.222824, 0.0, 0.0, },
{-2.295711, 0.166650, -0.300736, -0.541202, -0.222069, -0.056359, 0.341479, 0.541411, 0.606766, 0.387730, 0.056811, -0.322787, -0.495126, 0.334131, -0.959014, 0.256473, 0.241165, 0.097747, -0.003400, 0.097012, 0.043944, -0.099473, -0.133123, -0.339318, -0.012186, 0.135353, 0.186735, 0.163708, -0.617132, -0.847030, -0.225928, -0.212276, -0.170941, 0.066505, 0.287576, 0.136065, 0.350441, 0.307477, -0.257693, -0.600712, -0.765028, 0.491569, -1.514494, 0.130490, 0.226262, -0.124493, -0.191495, -0.084808, 0.147690, 0.419620, 0.434771, 0.367577, 0.196195, -0.026351, -0.168407, -0.276444, 1.718270, -1.036162, 0.116480, 0.009268, -0.072173, 0.025705, 0.129943, 0.194991, 0.046943, -0.014950, 0.040393, 0.169794, 0.130700, -0.182395, 0.138225, 0.881835, 0.305904, 0.297067, 0.035979, -0.042949, -0.147121, -0.070991, -0.209086, -0.220615, 0.193539, 0.408444, 0.446360, -0.089524, 2.812989, -2.409391, -0.047271, -0.239307, -0.290390, 0.226450, 0.305524, 0.692690, 0.735220, 0.575630, 0.145684, -0.149318, -0.342813, 0.149842, -1.213034, 1.321100, -0.226855, -0.328932, -0.046931, -0.081475, 0.191309, 0.351488, 0.332063, 0.052054, 0.117760, 0.030768, -0.010659, -0.404911, -0.415978, -0.938981, 0.193101, -0.302296, -0.312936, 0.294499, 0.515476, 0.433678, 0.323817, 0.161481, -0.030049, -0.189687, -0.361432, -0.245877, 0.0, 0.0, },
{0.116167, -0.696159, 0.004802, -0.059435, -0.374445, 0.333441, -0.380815, 0.431675, -0.661543, 0.856211, -0.930991, 0.542988, -0.419089, -0.135724, -0.356826, 0.063291, -0.056658, -0.393287, -0.057924, -0.030247, 0.219225, -0.544162, 0.652129, -0.806775, 0.797409, -0.669450, 0.393362, -0.225650, 0.017364, -0.929177, -0.077010, -0.579607, -0.700829, 0.933827, -0.579130, 0.330559, -0.603317, 1.328590, -1.349104, 0.831952, -0.219482, -0.386005, 0.605677, 0.154313, 0.222001, 0.346503, 0.065143, 0.103313, -0.230283, 0.497662, -0.633790, 0.541845, -0.595016, 0.393867, -0.338807, 0.027451, -0.215124, 0.451678, -0.205906, -0.095508, 0.059896, -0.246168, 0.283799, -0.380827, 0.478575, -0.759578, 0.777684, -0.562925, 0.174062, -0.001754, 0.237359, 0.045734, 0.293362, 0.319535, 0.275771, -0.266290, 0.003576, 0.216238, -0.318938, -0.068703, -0.124468, 0.086979, -0.092182, 0.288465, 0.528170, 0.741661, -0.088516, -0.030587, -0.080945, 0.454671, -0.133851, 0.461686, -0.341452, 0.634080, -0.364261, 0.341584, -0.304106, -0.112292, -0.173558, 0.581314, -0.061582, 0.295301, 0.295654, -0.312936, 0.323148, -0.088693, 0.233883, -0.422706, 0.441390, -0.254614, -0.063685, 0.214179, -0.327148, 0.389834, -0.374977, -0.829182, -0.419409, 0.368773, 0.101303, -0.472029, 0.684876, -0.505002, 0.745486, -0.588337, 0.308994, -0.270967, 0.0, 0.0, },
{0.744072, -1.347837, -0.535684, -0.583848, -0.728212, -0.611639, -0.817528, -0.511776, -0.474212, -0.574070, -0.829038, -0.726009, -0.338498, 0.018823, 0.160314, -0.193167, 0.236059, 0.219720, 0.278463, 0.031658, 0.093208, -0.012761, -0.137073, -0.053911, -0.048327, -0.064731, -0.138852, 1.438667, 1.001157, -0.972301, -0.910485, -0.848956, -0.561357, -0.573913, -0.831066, -0.486889, -0.410858, -0.662128, -0.999805, -0.617348, -0.293898, 0.718546, -0.175145, -0.115958, 0.011069, -0.099850, -0.167951, -0.061289, -0.108640, 0.113889, -0.131672, -0.111943, -0.354518, -0.406788, -0.384755, 0.055795, -0.028369, 0.448223, 0.043164, -0.081897, -0.139825, -0.021914, -0.070815, -0.190277, -0.221588, -0.176259, -0.050518, -0.109719, 0.006973, 0.432077, -1.711951, 1.313705, 1.017884, 1.028845, 0.715783, 0.620610, 0.754990, 0.658202, 0.465375, 0.570395, 0.662226, 0.385325, -0.078392, -0.844917, 0.035228, 0.465329, -0.989593, -1.176027, -0.799761, -0.486680, -0.897385, -0.711166, -0.717429, -0.824586, -0.887829, -0.879293, -0.367351, 0.203969, -0.068016, -0.509323, -0.218823, -0.226078, -0.399989, -0.323063, -0.255552, -0.320134, -0.205039, -0.014355, -0.034556, -0.179016, -0.045709, -1.801966, 1.017717, -0.642020, -0.718527, -0.950479, -0.855300, -0.703539, -1.121960, -1.110406, -1.074902, -0.978505, -1.202767, -1.100028, -0.425684, 1.309412, 0.0, 0.0, },
{1.762413, -1.989096, 0.244029, -0.673140, 0.044801, 0.158268, -0.193203, -0.087887, -0.125388, -0.177702, -0.127195, 0.034487, -0.067315, -0.109908, 0.684243, 1.065429, -0.354789, 0.256510, -0.023703, -0.076715, 0.019016, -0.052624, 0.013412, 0.106939, 0.042822, 0.009543, 0.027949, 0.137307, 1.080122, -0.225231, 0.277637, -0.421421, 0.104565, 0.237670, -0.063253, -0.094813, 0.100306, 0.050328, -0.030976, 0.106989, 0.025102, -0.212123, 0.746378, -1.312300, 0.003741, -0.319752, -0.020932, 0.070376, -0.017592, 0.037018, -0.116955, -0.117746, -0.051182, 0.055895, 0.056779, -0.061987, -1.773140, 0.815069, -0.275577, 0.213784, -0.079130, -0.094340, 0.040345, -0.048298, -0.035503, 0.016631, 0.001731, -0.060370, -0.010173, 0.168438, 1.020983, -0.120928, -0.397713, -0.013213, -0.099333, -0.175251, 0.063628, 0.115892, -0.164722, -0.141237, -0.062387, -0.081233, 0.096846, -0.024225, -2.112739, -1.644231, 0.030877, -0.183364, 0.156700, 0.215184, 0.011865, -0.038622, 0.048421, 0.055107, 0.061926, 0.135308, 0.114206, -0.125385, -0.395398, -0.799312, 0.008875, -0.044001, -0.069821, -0.074149, -0.059021, 0.070394, 0.002483, -0.000097, -0.028017, -0.008605, -0.059013, 0.144301, -1.717665, 0.775237, -0.257399, 0.211061, 0.094632, 0.041898, -0.131349, -0.152756, 0.123374, 0.170311, 0.111209, 0.079306, 0.133038, 0.093461, 0.0, 0.0, },
{-1.380783, -0.098225, 0.423179, 0.106948, -1.403805, -0.602339, 0.729180, 0.456598, -0.456995, -0.434143, -0.139359, 0.462356, -0.049404, -0.210315, -0.600636, 0.390778, 0.255845, 0.369461, 0.876411, 0.159704, -0.614618, -0.203726, 0.484867, 0.297976, -0.132336, -0.199373, 0.035293, -0.297066, -1.105842, -0.210168, 0.234954, -0.476035, -1.876363, -0.828960, 1.262540, 0.220492, -0.820949, -0.612514, -0.184132, 0.439182, 0.151342, 0.128048, -0.104856, -0.076979, 0.166542, 0.527833, -0.413508, -0.277464, 0.272717, 0.386646, -0.184122, -0.171380, 0.077192, 0.343161, -0.090861, 0.048210, 0.289940, 0.689532, 0.035355, 0.486946, 1.052615, 0.308167, -0.745438, -0.039245, 0.661022, 0.107285, 0.003715, -0.144575, 0.034472, -0.288461, 0.373116, -0.360432, -0.075622, 0.350839, 0.465567, 0.130499, -0.159025, -0.079740, 0.009193, 0.280600, 0.119654, 0.015188, -0.159000, -0.102626, -0.616984, 0.911768, 0.301293, 0.480892, -0.436698, -0.394021, 0.316329, 0.496830, 0.101141, -0.451949, 0.065087, 0.341773, 0.027032, -0.220716, 0.195420, 0.271383, 0.162444, 0.255238, 0.497958, 0.205768, -0.407209, 0.139008, 0.343022, 0.099905, -0.053954, 0.019174, -0.037719, 0.208482, -0.735783, 1.293592, 0.326088, 0.565201, 0.623910, -0.148031, -0.428010, 0.150323, 0.731821, -0.374221, -0.123772, 0.036275, 0.135890, -0.234998, 0.0, 0.0, },
{2.401659, 0.058258, 0.991882, -0.358986, -0.110296, 0.024898, 0.415019, 0.286349, 0.350762, -0.049727, 0.205457, 0.024876, -0.015937, -0.319479, -1.135951, 0.075872, -0.552418, -0.408214, -0.690479, -0.378593, -0.544184, -0.240746, -0.267418, -0.172742, -0.157109, -0.058647, -0.078789, -0.702616, 4.485071, 0.209593, 1.312434, -0.582605, -0.263083, 0.058899, 0.694334, 0.442978, 0.361904, -0.324885, 0.028741, 0.025516, 0.136213, -1.866762, 1.644278, -0.589340, 0.232107, 0.116499, 0.314155, 0.191117, 0.086859, 0.136022, 0.135340, 0.119734, 0.189029, 0.043085, 0.018426, -0.502885, -1.670605, 0.254885, -0.782697, 0.179264, 0.163039, 0.342471, 0.189444, 0.291159, 0.229836, 0.381030, 0.041266, 0.153917, 0.097629, -0.839953, -0.919119, -0.612263, -0.050258, 0.781691, 0.686806, 0.304498, -0.549934, -0.166371, -0.073330, 0.184497, 0.275249, 0.033340, -0.092804, 0.518597, 1.970861, 0.319702, -0.059904, -0.513409, -0.471044, -0.358598, 0.011795, -0.164178, -0.242489, -0.234602, -0.369067, -0.211113, -0.068559, -0.281779, -1.889827, -0.163361, -0.545016, -0.290993, -0.431929, -0.344801, -0.114570, -0.195541, -0.126008, 0.049277, -0.090454, -0.100499, 0.025754, 2.965988, -0.669814, 0.542893, -0.752395, -1.053406, -0.956056, -0.256145, 0.179079, 0.154072, -0.059733, -0.113639, -0.403301, 0.025524, 0.004588, -0.629199, 0.0, 0.0, },
{-4.556769, -3.470440, -1.906211, -1.751183, -1.280772, -0.951838, -0.783895, -0.568272, -0.487501, -0.372562, -0.311130, -0.050274, -0.052569, 0.473721, -0.682448, -1.522610, -0.708366, -0.610763, -0.373084, -0.312648, -0.253288, -0.109973, -0.198551, -0.166318, -0.055271, -0.033094, -0.058502, 0.381924, -5.896761, -6.496140, -3.561487, -2.693184, -1.927128, -1.689400, -1.396287, -1.026687, -1.033695, -0.810530, -0.704675, -0.138332, -0.138962, 0.831574, -0.167461, 0.417338, 0.291186, 0.307321, 0.308299, 0.359253, 0.156558, 0.261472, 0.270300, 0.177922, 0.116821, 0.035662, 0.037573, 0.378064, 2.648406, 1.867889, 1.160755, 0.731974, 0.590660, 0.538822, 0.493349, 0.349705, 0.274078, 0.216535, 0.204183, 0.018354, 0.015861, 0.461281, 1.310887, 2.113975, 1.075723, 1.071897, 1.089495, 0.956905, 0.616973, 0.647516, 0.611605, 0.467952, 0.453532, 0.050388, 0.037098, 0.077408, 1.415980, 0.939466, 0.690627, 0.487191, 0.246817, 0.192080, 0.180444, 0.132024, 0.118419, 0.073002, 0.042446, 0.090214, 0.042800, -0.138154, 1.916169, 2.081629, 1.184029, 0.688586, 0.359687, 0.299711, 0.285963, 0.189273, 0.171589, 0.125870, 0.098911, 0.015690, 0.040203, -1.540377, 0.343102, -0.865016, -0.060580, -0.322423, -0.341356, -0.314624, -0.065804, -0.217696, -0.240358, -0.164746, -0.143720, 0.029101, -0.080212, 0.376007, 0.0, 0.0, },
{0.215979, -0.028003, 0.084127, -0.096220, -0.033174, -0.221485, -0.095371, -0.205303, -0.123636, -0.138662, 0.019709, 0.023945, -0.013610, 0.659158, 0.586833, 0.398741, 0.126319, 0.210127, 0.096738, 0.109380, 0.122644, 0.148047, 0.061675, 0.089567, 0.119343, 0.069342, 0.062420, 0.007506, -0.064707, 0.505014, 0.542392, 0.194626, 0.285601, -0.036217, 0.091763, -0.037064, 0.129287, 0.046880, 0.230305, -0.000259, 0.132499, -0.100280, 0.981864, -1.197006, -0.676350, -0.343236, -0.079082, 0.015731, 0.045037, 0.076119, -0.055619, 0.002143, -0.012275, 0.102055, -0.049523, 0.154842, 1.211464, 2.737726, 0.858262, 0.840562, 0.387616, 0.254480, 0.277257, 0.149925, 0.162855, 0.096774, 0.112253, 0.064656, 0.038817, -0.982720, -0.704098, -3.050163, -1.614458, -1.118541, -0.591776, -0.150875, -0.230622, -0.024964, -0.329755, -0.121117, -0.298535, -0.111194, -0.150724, 0.639031, 1.943369, 3.724947, 1.288270, 1.275172, 0.691066, 0.258640, 0.407464, 0.118648, 0.292729, 0.080510, 0.176445, 0.044998, -0.019930, -1.320744, 0.259268, 0.117595, -0.007236, -0.054660, -0.215564, -0.195919, -0.169370, -0.117230, -0.113081, -0.141318, -0.073767, -0.035836, -0.023587, 0.676512, 2.266121, 5.526594, 2.340544, 1.964148, 1.023606, 0.491666, 0.647160, 0.304323, 0.696517, 0.308766, 0.542456, 0.041286, 0.162759, -1.223810, 0.0, 0.0, },
{1.085204, 1.480487, 0.448920, 0.295469, 0.329445, -0.207044, 0.176945, 0.279466, 0.092485, 0.122384, 0.158447, 0.069977, -0.062423, 0.146412, -3.434206, -2.026706, -0.738972, -0.158652, 0.321109, 0.263954, 0.047289, 0.037440, -0.166088, -0.027819, 0.031093, -0.009583, -0.032346, -0.151883, 0.734564, 0.820198, 0.467039, 1.222758, 0.128499, -0.500886, 0.223105, 0.340991, 0.334613, 0.390170, 0.039921, 0.111956, 0.028329, 0.742023, -1.114016, 0.826173, 0.236742, -0.405535, 0.195280, 0.051196, -0.015372, 0.010822, 0.029695, -0.085218, 0.158940, 0.014709, -0.119276, -0.508570, -2.246585, -1.670094, -0.773565, -0.693988, 0.447858, 0.651693, 0.049457, 0.017722, -0.219646, -0.033795, -0.021959, 0.017383, -0.077667, -0.575686, -0.832045, 0.648110, 0.386071, -0.204491, -0.112155, -0.079189, -0.224333, -0.281086, -0.038025, -0.261078, 0.086615, -0.114883, 0.002954, -0.932693, -1.926513, -1.148220, -0.686118, -0.697106, 0.536783, 0.545420, 0.077151, 0.234422, -0.072205, 0.154271, 0.056423, 0.088925, -0.167781, 0.144218, 0.096160, -0.357510, -0.309975, -0.535769, 0.127638, 0.223313, 0.060312, -0.042445, -0.173165, -0.179504, 0.052206, -0.055745, -0.038234, 0.286802, -3.844927, -3.190194, -1.601261, -0.645915, 0.907487, 0.933097, 0.193301, 0.383805, -0.223866, 0.287736, -0.040249, 0.175531, -0.167942, 0.224612, 0.0, 0.0, },
{0.143957, 0.716510, 0.304644, -2.000170, -1.117462, 0.330303, 0.069293, -0.355231, -0.037878, 0.160915, -0.076136, -0.097306, 0.098165, -0.418295, 0.008655, -1.288501, -0.601307, 0.656178, 0.568213, -0.170277, -0.147040, 0.180427, -0.097949, -0.184452, 0.039250, 0.009134, 0.065749, 0.128940, 0.187995, 0.068027, 0.264312, -1.427799, -0.700509, 0.650688, 0.237621, -0.202797, -0.227923, 0.336933, -0.228127, -0.144990, -0.118147, -0.204968, 0.363050, 0.581985, 0.007286, -1.361936, -0.819094, 0.036323, -0.137246, -0.406026, 0.070002, -0.021778, -0.042224, -0.095680, 0.070055, 0.089501, 0.033454, -1.418473, -0.397085, 0.640361, 0.571219, -0.203435, -0.092019, 0.134504, -0.053537, -0.174994, 0.095437, 0.102988, 0.100525, 0.679552, -0.123663, 0.838022, -0.153718, 0.148744, -0.064894, -0.313385, -0.254101, -0.148844, 0.240990, -0.198010, 0.011100, -0.083375, 0.083240, -0.059546, 0.655412, -1.606498, -0.115077, -1.435606, -0.419263, 0.310436, 0.028186, -0.279581, -0.076249, 0.126901, -0.005763, 0.011156, 0.070473, 0.821338, -0.011832, 0.259541, 0.007400, 0.003760, -0.009205, -0.162489, 0.007509, 0.021041, 0.031699, -0.112417, 0.111624, 0.069201, 0.166725, -0.551271, 0.411610, -3.155051, -0.827724, -0.145291, 0.582322, 0.225102, -0.057713, 0.119215, -0.436087, -0.041077, 0.041383, 0.097395, 0.123718, 0.777821, 0.0, 0.0, },
{-0.426418, -0.289809, -0.567223, -0.109459, 0.327386, 0.608335, -0.421739, -0.196471, 0.090313, 0.131326, -0.025265, -0.163849, -0.010288, 0.122211, -0.517915, 0.212646, 0.268850, 0.891808, 0.091154, -1.270138, 0.248088, 0.545534, -0.056624, -0.248414, 0.050374, -0.084661, 0.046224, -0.542205, -0.327839, 0.121796, -0.742560, -0.467684, 0.588019, 1.498827, -0.756874, -1.095325, 0.583259, 0.189840, 0.487960, -0.676212, 0.352323, 0.269139, 0.124363, -0.133400, -0.039901, -0.117800, -0.018652, 0.341651, 0.052070, 0.258079, -0.120139, 0.148920, -0.162113, 0.111118, -0.040456, -0.007206, 0.130869, 0.413502, 0.414097, 0.914066, -0.033766, -1.582825, 0.429397, 0.890640, -0.272808, -0.305387, -0.292586, 0.257668, -0.188586, -0.791632, 0.008795, -0.333812, 0.185997, -0.226543, -0.439979, 0.307646, 0.195967, 0.143808, -0.308111, 0.165247, -0.070931, 0.175614, 0.048441, -0.273092, -0.309132, 0.713002, -0.055018, 0.419534, 0.288982, -0.519989, 0.078555, 0.466509, -0.040952, -0.066023, -0.290877, 0.125178, -0.097384, -0.398773, 0.344306, -0.276604, 0.191173, 0.583303, -0.101436, -0.899922, 0.167770, 0.631400, -0.179997, -0.170748, -0.262740, 0.276888, -0.262534, 0.846941, -0.414579, 1.058087, 0.293445, 1.533534, 0.552578, -2.275729, 0.307020, 1.031133, 0.008935, -0.480611, -0.242952, -0.012631, -0.071571, -0.826880, 0.0, 0.0, },
{0.233810, -0.394379, -0.131766, 0.054263, 0.137361, 0.206314, -0.334107, -0.241129, -0.018208, 0.035120, -0.089333, -0.178965, -0.050398, -0.053896, 0.090456, 0.275100, -0.398383, -0.195281, 0.529820, 0.071082, -0.516315, -0.534673, 0.129574, 0.404703, 0.227441, -0.456517, -0.043820, -0.298127, -0.300875, -0.036207, 0.329115, 0.267319, -0.085571, 0.241888, 0.354062, 0.278502, 0.150510, -0.286564, 0.075666, 0.093275, -0.044699, -0.328242, 0.567914, -0.270052, -0.365929, -0.079809, 0.119084, -0.024486, -0.215909, -0.168099, -0.103130, 0.084351, -0.054186, -0.169712, 0.040929, 0.131169, 0.798728, 0.472037, -0.762377, -0.154987, 0.955934, 0.174798, -0.930494, -0.675355, 0.181681, 0.528425, 0.163174, -0.670636, -0.063687, -0.157278, -0.150892, -0.444724, -0.073513, -0.276726, -0.807712, -0.445230, 0.236583, 0.122938, -0.339982, -0.301782, -0.158766, 0.213570, 0.117412, 0.518168, 1.140965, 0.929011, -1.166597, -0.080113, 1.363875, 0.428853, -0.829763, -0.550336, 0.241659, 0.545773, 0.190036, -0.627472, -0.000998, -0.195216, 0.419314, 0.060436, -0.145839, -0.036453, 0.541068, 0.218702, -0.516395, -0.427440, 0.107221, 0.387756, 0.035193, -0.269469, -0.027754, 0.144269, 1.004881, 1.113771, -1.270033, 0.031247, 2.179473, 0.735817, -1.656206, -1.339513, 0.539262, 1.220437, 0.583181, -1.467976, -0.267401, -0.825949, 0.0, 0.0, },
{-0.493511, 0.358226, -0.313458, -0.453882, -0.389775, 0.094546, -0.070079, 0.022978, 0.095449, -0.007319, 0.338654, 0.038552, -0.043573, 0.379475, -0.258521, -0.326870, -0.404972, -0.228669, -0.443173, -0.063652, -0.022437, 0.088861, 0.049528, -0.069817, 0.078175, -0.022263, 0.124758, 0.616303, -0.415858, 0.870900, -0.506320, -0.677535, -0.261202, 0.153310, -0.074454, -0.042949, -0.022813, -0.027591, 0.276436, 0.084897, -0.050854, 4.914059, -0.144043, -0.022254, 0.215730, -0.055959, 0.099206, 0.142774, 0.125933, 0.123791, 0.051987, 0.044994, 0.156381, 0.006398, -0.065253, 2.934246, -0.400081, 0.330289, -0.016858, 0.223551, -0.042178, 0.015169, 0.074122, -0.097625, 0.059579, 0.048559, 0.106292, -0.066691, 0.085121, 2.780708, -0.284644, -0.226689, 0.316330, 0.206974, 0.420149, -0.041395, 0.024636, 0.189955, 0.033292, 0.046873, -0.164796, -0.043187, -0.043182, -0.092359, 0.866557, 0.384285, 0.215076, -0.034249, -0.141881, 0.120296, 0.067461, -0.132961, -0.012010, -0.061627, 0.150652, 0.010924, -0.003821, 3.369246, 0.170992, -1.226550, 0.194250, 0.179141, -0.342084, -0.167017, -0.047640, -0.047658, 0.041049, 0.062228, 0.092050, 0.001125, -0.000624, -4.117987, 0.059713, -0.186264, -0.327651, -0.229423, -0.539016, 0.162283, 0.090089, -0.131397, 0.062222, 0.002846, 0.428729, 0.053452, 0.224872, -1.053962, 0.0, 0.0, },
{0.173398, 0.132848, 0.026359, 0.033437, 0.110602, 0.111385, -0.046244, 0.017398, 0.012286, 0.014062, 0.050333, 0.125720, 0.081812, -2.189456, -0.234484, -0.214106, -0.016424, 0.028661, 0.143854, 0.052308, -0.085766, -0.032664, -0.013031, -0.053357, 0.000597, 0.018483, -0.081465, 0.111952, -0.215889, -0.051240, 0.244716, -0.026688, 0.051532, 0.059685, 0.001378, -0.109495, -0.021400, 0.006921, 0.116382, -0.135820, 0.249832, 15.222330, -0.515064, -0.311045, -0.143310, -0.061791, -0.021955, 0.004909, -0.085776, 0.037290, -0.005346, -0.035942, -0.079734, 0.130656, -0.024744, 0.229763, 0.240593, -0.127304, 0.065379, 0.122267, 0.180911, 0.088035, 0.091130, -0.014529, -0.012119, -0.002459, -0.009749, 0.161263, -0.032881, 2.932292, -0.215354, -0.041054, -0.332451, -0.141689, -0.160000, -0.119389, -0.187686, 0.113368, 0.115618, -0.043440, -0.171865, -0.036670, -0.083207, 3.892630, 0.248633, -0.492203, 0.090117, 0.052720, 0.152299, 0.078138, 0.095750, -0.083150, -0.096090, -0.046303, -0.018986, 0.186106, 0.054855, 3.159836, 0.334329, 0.132216, -0.146793, 0.023399, 0.062101, 0.064966, 0.010537, 0.031334, 0.021361, 0.056948, 0.023180, 0.137613, -0.057306, 2.973840, 0.252753, -0.434354, 0.415165, 0.154090, 0.305038, 0.199929, 0.108781, -0.229625, -0.134806, 0.035733, 0.151380, 0.194492, 0.036020, -1.835207, 0.0, 0.0, },
{-0.562750, 0.463249, 0.274202, 0.018840, 0.348464, 0.203568, -0.162941, -0.107137, 0.014852, 0.065527, 0.145355, 0.050576, 0.047517, -0.839246, 0.223397, -0.019869, -0.622020, -0.021895, -0.174951, 0.035610, 0.015352, 0.046356, -0.057847, 0.035178, -0.013716, 0.029610, -0.058351, 0.404885, 0.470845, 3.474802, 0.082353, 0.474591, 0.095618, 0.683184, 0.229346, -0.321288, 0.043938, 0.019531, 0.267995, 0.022244, 0.055163, -0.113702, 0.566246, -4.097704, -0.262528, -0.520364, 0.094101, -0.343100, -0.293271, -0.036932, -0.009578, 0.018389, -0.064000, -0.035637, 0.051169, 0.492297, -0.162289, -0.182571, -0.111214, 0.091519, -0.000570, -0.001351, -0.036989, 0.024274, -0.166254, 0.101694, -0.020808, -0.030843, -0.117503, 0.721884, -0.489049, -4.655039, -0.346454, -0.716804, -0.288938, -0.655914, -0.244943, 0.105638, 0.045985, 0.015844, -0.281571, -0.030055, 0.113316, 0.334485, 0.748544, 0.164672, -0.108754, 0.290679, 0.310738, 0.158541, -0.023703, -0.192328, -0.209687, 0.038749, 0.061485, -0.102524, -0.103627, 0.648368, 0.126595, -1.072878, 0.303873, -0.028881, 0.190228, -0.160713, -0.135344, 0.024212, -0.101550, 0.097555, 0.003746, 0.019329, -0.039859, -0.482086, 0.155014, 3.190590, -0.569630, 0.855386, 0.100974, 0.691118, 0.364966, -0.174287, -0.271530, 0.125437, 0.353304, 0.052056, -0.267535, 0.457466, 0.0, 0.0, },
{-1.507413, 0.926564, 0.591750, 2.283840, 1.783703, 1.483221, 0.713618, -0.340544, -1.097911, -1.585871, -1.875620, -1.541433, -1.032196, 0.661752, -2.274222, -2.361525, -1.251135, -1.571516, -1.445146, -1.138236, -1.009345, -0.990021, -0.794773, -0.693956, -0.469839, -0.202168, -0.006124, 0.299076, -2.053264, 0.236010, -0.094418, 0.602262, 0.047291, 0.060566, -0.152799, -0.302070, -0.161501, -0.061411, -0.321124, -0.384690, -0.220082, -0.608351, 0.202998, -0.807085, -0.486822, -1.086355, -0.903903, -0.872255, -0.816168, -0.605824, -0.699418, -0.597290, -0.403374, -0.180764, 0.038319, -0.746356, 0.335387, 2.525784, 1.129736, 0.590000, -0.092716, -0.445152, -0.642981, -0.545037, -0.563362, -0.533891, -0.470429, -0.408263, -0.416070, 0.233922, 1.246968, -1.559800, -1.055466, -2.110292, -1.730339, -1.407983, -1.124751, -0.833241, -0.859793, -0.778160, -0.284373, 0.164638, 0.195903, 1.249901, 2.693212, 1.221311, 0.048111, -0.718211, -0.749214, -0.545521, -0.031538, 0.938392, 1.738757, 2.287548, 2.243767, 1.561669, 1.026937, -0.119856, 1.205136, -0.206815, 0.288997, 1.343852, 2.098382, 2.028885, 1.948510, 1.281850, 0.613176, 0.278617, -0.101717, -0.221022, -0.170998, -0.477506, -1.566222, 0.766378, 0.310923, 0.308155, -0.175785, -0.365774, -0.474918, -0.316008, 0.059170, 0.313782, 0.248846, -0.052238, 0.017570, -0.592792, 0.0, 0.0, },
{1.661140, -3.016007, -0.281054, -0.679446, -0.397001, 0.032368, -0.117983, 0.042975, 0.071303, 0.100361, -0.044626, -0.081590, 0.084496, -0.249044, -0.522357, 0.282616, -0.261322, -0.123322, 0.033194, -0.079334, 0.022207, 0.086191, 0.067341, -0.019703, 0.029860, 0.006927, 0.047466, -0.165032, 0.360864, -3.530186, -0.178166, -1.021891, -0.589826, -0.189163, -0.343227, -0.027778, 0.212560, -0.063795, -0.134764, -0.191092, 0.005336, -0.412644, -0.701650, -0.577482, -0.159339, 0.083666, 0.227098, 0.231880, 0.120223, 0.038366, -0.061495, 0.157743, 0.014633, 0.017607, 0.047779, 0.252710, -0.123034, 2.276984, -0.216404, 0.313151, 0.085532, -0.101170, 0.092488, 0.124729, 0.014185, -0.059898, 0.098283, 0.051760, -0.004926, 0.223653, -1.191673, 0.353710, 0.225211, 0.479613, 0.592628, 0.294413, 0.184224, -0.015960, -0.227626, 0.175878, 0.075329, 0.209252, -0.054229, 0.429254, 0.943422, 1.833259, -0.286152, -0.035972, -0.179549, -0.079184, -0.033956, 0.125434, 0.012951, -0.012182, -0.005722, -0.110175, 0.039577, -0.239184, 0.863701, 0.713768, -0.232112, 0.158400, -0.151901, -0.077271, 0.065194, 0.022401, -0.018202, -0.075287, 0.015975, 0.059570, 0.074110, 0.013442, 0.703951, 1.487048, -0.368415, -0.225579, -0.228265, -0.276625, -0.012362, 0.279262, 0.245266, -0.208423, -0.045876, -0.143340, -0.039566, -0.291835, 0.0, 0.0, },
{-2.752786, 1.131554, 0.101674, 0.070976, 0.697489, -0.407911, 0.623878, -0.193850, 0.498549, -0.408018, 0.644036, -0.512428, 0.525869, -0.160309, 1.279705, 0.604124, -0.221306, 0.251903, -0.074338, 0.208340, -0.192127, 0.171908, -0.244187, 0.335523, -0.586822, 0.264016, -0.390637, 0.435670, -2.594638, 1.687710, 0.237115, 0.037731, 0.599428, -0.476993, 0.501906, -0.065303, 1.057225, -1.172560, 1.187668, -0.551902, 0.782047, -0.093876, -0.394295, 0.469262, -0.802637, -0.252431, 0.412032, -0.304818, 0.547769, -0.489273, 0.069803, 0.164166, 0.444676, -0.571193, 0.418689, -0.080075, 1.416739, -0.792696, 0.177677, -0.091594, -0.305225, 0.348132, -0.400266, 0.175087, -0.343913, 0.336913, -0.549611, 0.244759, -0.450114, -0.368585, 0.110601, 0.182550, -1.190338, -0.002236, 0.136848, -0.167311, 0.492959, -0.644529, -0.453070, 0.561997, 0.107079, -0.484805, 0.205923, -0.059762, -0.783167, -0.436449, 0.526817, -0.391156, 0.007720, -0.007325, -0.054299, 0.080035, 0.402862, -0.288874, 0.247396, -0.194822, 0.243785, -0.267166, 1.633358, -0.877208, 0.329985, 0.033456, -0.230346, 0.131613, -0.154265, 0.250944, -0.264379, 0.338313, -0.590472, 0.351421, -0.290769, 0.075291, 1.122573, -0.164257, 0.829768, -0.006261, -0.219670, 0.361921, -0.517720, 0.539821, 0.262038, -0.270275, -0.518656, 0.293253, -0.430359, -0.070872, 0.0, 0.0, },
{0.032848, 1.283131, 0.057573, 0.272866, 0.124619, 0.007241, -0.195527, 0.049401, 0.098098, 0.184484, 0.080385, 0.068237, 0.081438, 2.493565, -1.998603, -0.415335, 0.238961, 0.329901, 0.169031, -0.096999, -0.190909, -0.182949, -0.164484, -0.182197, -0.094202, -0.174180, -0.214647, -1.497967, -1.419084, -1.381524, -0.343101, -0.225821, -0.184166, -0.042846, -0.353878, -0.461682, -0.204633, -0.125028, -0.097051, -0.111163, 0.154148, 2.182802, -0.154210, 0.577371, 0.376460, 0.279807, 0.249292, 0.043755, 0.071655, 0.204617, 0.065164, 0.082380, 0.030180, 0.024440, -0.038953, 0.888450, 1.013156, -0.509812, -0.022939, 0.262746, -0.101704, -0.003512, 0.128417, -0.011163, -0.049277, 0.029807, 0.027449, 0.129534, 0.049327, -2.580784, 0.229621, 0.526526, 0.638123, 0.458412, 0.457292, 0.097663, 0.314807, 0.567715, 0.329372, -0.001402, -0.021926, -0.116145, -0.220440, -0.415250, -1.480885, -1.343060, -0.785897, -0.078587, -0.553725, -0.125901, -0.166765, -0.450506, -0.482141, -0.188233, -0.259525, 0.023800, 0.086588, -3.105987, 0.869150, 2.392522, -0.157138, -0.301604, -0.138321, -0.056026, 0.006369, 0.271985, 0.196467, 0.251350, 0.190759, 0.229120, 0.046307, 6.333580, -2.112626, -1.055748, -0.623651, -0.002263, -0.533335, -0.314864, -0.550284, -0.694571, -0.479279, -0.090028, -0.096818, 0.102581, 0.049181, -1.229321, 0.0, 0.0, },
{0.818027, 0.952544, 0.760988, 0.824508, 0.565733, 0.314800, 0.301872, 0.170282, 0.100901, -0.044670, -0.087353, -0.105592, -0.126605, 0.342339, -0.360915, -0.252221, -0.262879, -0.277084, -0.359979, -0.209432, -0.185269, -0.159861, -0.124593, -0.088163, -0.091577, -0.041193, -0.040467, 0.353150, -0.953618, -1.519925, -0.919677, -0.613111, -0.405258, -0.387100, -0.325471, -0.236922, -0.173432, -0.357906, -0.210173, -0.233956, -0.206227, 0.522423, 1.537058, 1.321788, 0.644214, 0.312406, 0.016562, 0.021053, 0.023606, -0.163450, -0.157402, -0.152943, -0.067879, -0.102490, -0.076956, -0.229691, -0.483876, 0.001184, -0.075862, -0.034263, -0.099326, -0.025614, -0.106544, -0.075010, -0.020157, 0.039723, -0.041000, -0.101476, 0.050302, -0.066415, 1.680415, 1.753994, 1.169720, 0.656734, 0.131576, 0.221260, 0.167934, 0.046230, 0.023509, 0.138688, 0.297656, 0.228860, 0.178742, -0.582219, 1.608748, 0.298399, -0.415766, -0.267654, -0.101106, -0.105883, -0.046034, 0.110981, 0.175262, 0.194675, 0.189717, 0.138910, 0.098052, -0.786391, 1.395054, 2.231796, 1.274390, 1.086397, 0.895133, 0.684471, 0.656090, 0.466955, 0.407801, 0.348910, 0.179787, 0.064385, 0.052018, -0.516008, -1.687961, -1.520623, -1.376733, -0.765201, -0.645205, -0.447064, -0.516700, -0.225779, -0.180212, -0.160154, -0.340247, -0.144219, -0.084687, 0.288419, 0.0, 0.0, },
{-0.625139, 0.024335, 0.139694, 0.301551, 0.534566, 0.171157, 0.160861, 0.115410, 0.167125, 0.152400, 0.186052, 0.019660, 0.105119, 0.920792, 0.963914, -1.159812, 0.207847, 0.151676, 0.063792, 0.041115, 0.138036, 0.013853, -0.065994, -0.082492, -0.089264, -0.078246, 0.006508, -3.665644, -0.471524, -0.566190, 0.060049, 0.021458, 0.542425, 0.174018, 0.224934, 0.123601, 0.033374, 0.071098, 0.051190, 0.026919, 0.044076, -4.048119, 1.441469, -0.379306, -0.203960, -0.252154, -0.161118, -0.038940, 0.036918, -0.056100, -0.072956, -0.090293, -0.025331, -0.061048, 0.009744, -1.424441, 0.225550, 0.530986, -0.019125, -0.138187, -0.126628, -0.000937, -0.008229, 0.048471, 0.011944, -0.060968, 0.030415, -0.050357, 0.050019, -1.409772, 1.096201, -0.140916, -0.237441, -0.044677, -0.492929, -0.111438, -0.002005, -0.055059, -0.104326, -0.054261, -0.094046, -0.063882, -0.061173, 2.927856, 0.174620, 0.028235, -0.006641, -0.140695, 0.220855, 0.192262, 0.100339, 0.097905, 0.033971, -0.118018, 0.016513, -0.056977, 0.091721, -1.814433, -0.604764, 0.582517, 0.148557, 0.086371, -0.019920, -0.088920, -0.097053, -0.022389, 0.070324, 0.061369, 0.082732, 0.038592, -0.013362, 6.168256, 0.562003, -0.640161, 0.419145, 0.068598, 0.450826, 0.368416, 0.275973, 0.231498, 0.098457, -0.059608, 0.012970, -0.118810, 0.049380, -4.215312, 0.0, 0.0, },
{-0.782032, -0.349562, -0.059200, 0.056454, -0.107218, -0.086295, 0.006012, -0.104867, -0.050149, -0.115628, -0.089247, -0.009188, -0.013987, 0.097458, 1.357889, -0.324006, 0.266048, 0.039529, 0.162188, 0.116253, -0.062056, 0.020156, -0.023621, -0.025724, 0.075411, -0.042002, 0.007494, 0.025670, -0.855977, -0.116039, 0.097140, 0.201413, -0.091228, -0.115693, 0.018941, -0.046344, -0.130568, -0.075526, -0.036686, -0.092963, 0.091344, 0.195252, 0.867821, -0.476516, -0.301975, -0.042201, 0.078360, 0.098048, -0.086687, -0.038441, 0.060083, -0.037345, 0.017679, 0.049902, -0.020023, -0.351140, 2.080486, 0.551741, 0.616198, -0.000757, 0.066612, 0.066179, 0.095477, 0.070407, -0.006564, -0.091143, 0.044678, -0.043004, -0.060622, -0.041138, -0.294871, -0.438841, -0.706937, -0.184541, 0.133923, 0.199823, -0.359141, -0.134698, 0.106170, 0.099631, 0.081527, 0.094962, 0.038931, -0.377710, 3.414203, 0.171674, 0.818217, 0.111470, 0.025576, 0.030156, 0.249109, 0.172859, 0.031131, -0.071295, -0.007781, -0.000129, -0.033826, 0.121914, -0.032923, -0.104742, 0.030039, -0.036498, 0.017473, -0.018957, 0.079605, -0.073756, 0.008211, -0.013547, 0.006673, 0.009153, -0.029568, -0.124266, 3.599120, 0.197834, 1.411559, 0.292690, 0.118386, 0.060287, 0.377989, 0.153394, -0.034055, -0.201137, 0.036956, -0.129219, -0.070349, 0.295622, 0.0, 0.0, },
{-0.132376, 0.905645, 0.986092, 0.900952, 0.075402, -0.318721, -0.090577, -0.181799, 0.054202, -0.296536, -0.058231, -0.028592, 0.051113, -0.559743, 0.164597, -0.808951, -0.952377, -0.750528, -0.270334, 0.192131, 0.065400, -0.036503, -0.237753, 0.158449, 0.029244, 0.133670, 0.013256, 0.268462, -0.120520, 1.174058, 0.900598, 0.917335, 0.026035, -0.403983, -0.171072, 0.049246, 0.557878, -0.028354, 0.052964, -0.448708, 0.201633, 0.425739, -0.321825, -0.931049, 0.152267, -0.107512, -0.006258, 0.069673, -0.192124, -0.212056, -0.155329, -0.403881, -0.115490, 0.120162, -0.060011, -0.562184, 0.263950, -1.176424, -1.013918, -1.021582, -0.149311, 0.286839, 0.242416, -0.067248, -0.557975, 0.171430, -0.052686, 0.195678, -0.172893, -0.455595, -0.574542, -0.777400, -0.179065, -0.504784, -0.050570, 0.278722, -0.290976, -0.100846, -0.029725, -0.334663, -0.094301, 0.184095, -0.015090, -0.386569, 0.926123, -1.071195, -0.273021, -0.198536, 0.111537, 0.079482, 0.169923, -0.167283, -0.345352, -0.124179, -0.069243, 0.093261, -0.108673, 1.741213, 0.462045, 0.014481, 0.039995, 0.065686, 0.005100, 0.029364, 0.223723, -0.055370, -0.376377, -0.044263, -0.050827, 0.216504, -0.073296, 0.275076, 0.965189, -1.334664, -1.452383, -1.122586, -0.338870, 0.274513, 0.377390, -0.075928, -0.656754, 0.271724, -0.052293, 0.104103, -0.099859, -0.095504, 0.0, 0.0, },
{1.002554, -1.216695, 0.241835, -0.157658, 0.372890, 0.024936, -0.244210, -0.333042, 0.003006, -0.265522, -0.067320, -0.055169, -0.111696, 0.160499, 0.173232, 0.790569, -0.038896, 0.157679, -0.124061, -0.033265, 0.000566, 0.173095, -0.028839, 0.039478, 0.003601, 0.043463, -0.055028, -0.223098, -0.830116, 0.726723, 1.036463, 0.432982, 0.766364, 0.266982, -0.210032, -0.183267, 0.059886, -0.227947, -0.057051, 0.056953, -0.134660, -0.247768, 3.078249, -1.959201, -0.625514, -0.580655, -0.305459, -0.169135, -0.090048, -0.190902, -0.118633, -0.125807, -0.064295, -0.016722, 0.000268, 0.458909, -0.043872, 0.628838, -0.342511, -0.000867, -0.286934, -0.032757, -0.014084, 0.153956, -0.079159, -0.008799, 0.074852, -0.016626, -0.040976, -0.147056, 1.504490, -2.021623, -1.057127, -0.604270, -0.741503, -0.360420, 0.135820, -0.070503, -0.314654, 0.163058, -0.118853, 0.036840, 0.062352, 0.468906, -0.248945, 0.770237, -0.106707, -0.262995, 0.289895, 0.051239, -0.175692, -0.048483, 0.054547, -0.216016, 0.095498, -0.011945, -0.031322, -0.176198, 0.081114, -0.160630, -0.039854, 0.221232, -0.082453, 0.146170, 0.056473, 0.065657, -0.017329, 0.032987, 0.054984, -0.013163, -0.095169, 0.558776, -0.742344, 2.459186, 0.220978, 0.290513, 0.273632, 0.170965, -0.153737, 0.182309, 0.015378, -0.301061, 0.149720, 0.042131, -0.215214, -0.649853, 0.0, 0.0, },
{-0.816303, 0.258837, -0.136372, 0.255605, 0.237859, -0.028995, -0.056779, 0.062732, -0.013305, -0.094801, -0.069384, -0.033251, -0.032564, 0.445428, 1.280052, -0.695994, 0.018516, -0.024011, -0.199684, -0.056009, -0.129926, -0.112904, 0.077906, -0.015488, -0.021557, 0.074715, 0.071369, -0.216060, -2.501818, -1.680138, -0.488724, 0.183968, 0.202888, 0.285635, -0.140596, -0.213743, -0.144205, 0.026718, -0.026680, 0.068637, -0.187315, 0.303899, 2.765908, 1.958161, 0.221708, -0.244950, -0.253412, -0.125328, 0.075630, 0.217483, 0.018697, -0.080098, -0.011855, -0.041538, 0.019936, 0.190154, 0.463986, 0.558983, 0.107661, 0.174773, 0.173122, -0.174234, -0.077228, -0.035856, 0.139995, -0.093456, 0.063932, -0.011259, 0.153226, -0.375602, 3.728590, 1.760141, 0.554372, -0.386421, -0.676784, -0.065373, 0.246625, 0.283240, 0.014216, 0.090830, -0.027921, 0.028206, 0.054604, -0.361708, 0.910919, 0.662668, 0.062470, 0.480810, 0.414767, -0.025384, -0.089421, 0.138642, 0.150913, -0.049415, 0.120444, 0.002658, 0.108795, -0.667954, -0.459065, 1.335609, 0.064537, 0.129511, 0.334400, -0.172959, 0.032131, 0.068052, 0.105592, -0.046792, 0.040579, 0.005164, 0.109461, 0.001285, -1.141708, -1.416404, -0.426054, 0.401275, 0.349038, 0.057523, -0.337373, -0.203588, 0.213581, -0.174591, 0.101376, -0.012434, 0.125685, -0.104433, 0.0, 0.0, },
{0.212311, -0.605120, -0.096354, 0.485171, 0.013068, -0.338305, -0.219216, 0.169877, -0.065453, 0.003496, -0.316893, -0.188072, 0.232168, 0.113058, -0.395822, 0.011351, 0.244001, -0.102352, -0.189679, -0.037320, 0.028954, 0.235233, -0.546074, 0.523963, -0.564262, 0.598422, -0.498741, -0.080165, -0.221675, -1.691833, 0.018160, 1.228759, -0.567078, -1.238763, 0.230037, 0.260438, 1.254756, -1.021888, 0.207787, -0.693159, 0.843897, -0.091653, 0.819860, 1.174395, -0.121036, -0.227793, 0.246866, 0.480992, -0.269504, -0.145383, -0.322091, 0.353621, -0.029372, -0.050684, 0.058180, -0.115727, -0.050264, 0.460100, 0.219666, -0.588953, -0.027977, 0.589267, -0.016595, 0.100796, -0.869538, 0.666692, -0.455703, 0.644323, -0.634224, -0.012985, 0.437646, 1.314567, -0.180248, -0.461251, 0.195732, 0.415394, -0.164219, -0.490418, -0.259204, 0.206769, 0.234471, -0.174219, -0.043589, 0.066544, -0.276111, 0.444234, 0.184754, -0.197426, 0.035320, 0.706827, -0.102426, 0.262670, -0.298884, 0.478837, -0.142499, 0.277638, -0.093885, -0.358317, -0.744752, 1.015297, 0.184913, -0.432185, 0.566562, 0.517392, -0.198294, 0.408428, -0.853705, 0.690422, -0.517369, 0.579450, -0.461670, 0.086507, -0.194641, -0.723743, 0.335689, -0.111397, -0.461852, 0.277782, 0.040265, 0.576945, -0.777384, 0.738381, -0.924626, 0.980749, -0.809855, -0.123314, 0.0, 0.0, },
{-0.161662, -0.058222, 0.086862, -0.008888, 0.118353, -0.740682, -0.592071, 0.459853, 0.727293, -0.451989, -0.400034, 0.194864, -0.120976, -0.220935, -0.122306, 0.025522, 0.356600, -0.535773, -0.231756, 0.023960, -0.390023, -0.022312, -0.009767, 0.265428, -0.246471, -0.133697, 0.091420, 0.032738, 0.184129, -0.048499, -0.491576, 0.939325, -0.264919, -0.438044, 0.370652, -0.071041, 0.204901, -0.657086, 0.425252, -0.124956, 0.188733, -0.758010, -0.057283, -0.170261, 0.223137, -0.176058, 0.157357, -0.307005, -0.535448, 0.262081, 0.564309, -0.262753, -0.285334, 0.207236, -0.259875, 0.179645, 0.105918, 0.193393, 0.414428, -1.023320, -0.261903, -0.094913, -0.577629, 0.208018, 0.225797, 0.360502, -0.578525, 0.045028, 0.049760, 0.120140, -0.295190, -0.271057, 0.058850, 0.002280, 0.226465, 0.401314, 0.023332, -0.261091, -0.121256, -0.017658, 0.271511, 0.040019, -0.268701, 0.455261, 0.286791, 0.194211, 0.328560, -0.633994, -0.171699, -0.646370, -0.677457, 0.603133, 0.800549, -0.100135, -0.548530, 0.240626, -0.044619, 0.460099, 0.270082, 0.228654, 0.351919, -0.591962, 0.215156, -0.329814, -0.766268, 0.486923, 0.428980, 0.181367, -0.734823, 0.097635, -0.065262, -0.066072, 0.221604, 0.435246, 0.702941, -1.313034, -0.757145, -0.543505, -0.967093, 0.523351, 0.568603, 0.290066, -0.903070, 0.011952, 0.349195, -0.138857, 0.0, 0.0, },
{-1.478030, -0.101162, 0.281750, 0.428148, -0.134995, -0.601174, -0.609766, -0.422503, -0.047116, 0.189442, 0.546344, 0.518575, 0.303492, 0.180599, 0.598135, -0.618650, 0.210094, -0.005346, 0.003161, 0.216131, 0.208160, -0.136970, -0.000743, 0.237470, 0.281017, 0.129895, 0.191106, 0.971241, -0.751951, -0.041700, 0.299985, 0.642292, 0.012438, -0.591174, -0.400317, -0.074615, 0.002803, 0.153896, 0.268620, 0.540748, 0.297696, 0.447852, -0.044548, -1.134937, 0.234534, 0.500608, -0.140678, -0.425605, -0.421565, -0.343823, -0.073438, 0.043843, 0.508717, 0.411027, 0.260195, 0.244622, 0.963655, 0.066622, 0.067988, 0.057667, 0.062225, 0.321235, 0.012540, -0.142996, -0.000879, 0.054590, 0.311223, 0.081315, 0.077279, -0.035356, -0.094726, -0.452973, 0.067048, -0.082398, -0.156016, -0.016823, 0.204811, 0.158975, -0.016105, -0.182409, -0.161469, -0.231449, 0.016317, 0.053743, 0.298892, -0.343437, 0.565817, 0.881069, -0.016752, -0.166191, -0.568405, -0.449821, -0.004089, -0.030326, 0.600604, 0.534039, 0.264755, 0.125610, -0.449392, 0.466973, -0.326932, -0.528957, -0.199722, -0.044697, -0.303517, -0.319017, -0.006169, 0.190102, 0.375852, 0.113379, 0.102565, -1.162699, 1.198574, -0.547949, 0.677748, 0.801920, 0.255360, 0.267722, -0.210911, -0.492083, 0.019199, 0.406831, 0.961489, 0.708122, 0.414731, 0.669454, 0.0, 0.0, },
{0.136996, -0.076167, -0.898084, 0.012552, 1.488771, -0.331804, -0.560250, 0.412618, -0.099082, 0.316113, -0.243172, 0.002255, 0.049424, -0.389253, -0.043060, -0.295765, 1.096444, 0.036363, -1.064215, 0.281068, 0.215390, -0.742740, 0.481426, -0.492623, 0.145538, -0.004582, -0.007347, -0.544262, -0.015095, -0.436648, -1.853366, 0.236740, 2.601430, -1.319180, -0.950390, 1.172975, -0.649929, 0.915333, -0.504572, 0.141325, -0.222804, 0.097644, -0.861367, 0.864899, 0.058008, -0.080616, 0.354469, 0.263089, -0.051499, 0.149142, 0.009298, -0.006771, 0.015898, -0.031068, 0.098740, -0.203976, -0.110333, -0.278702, 1.426087, -0.007276, -1.868695, 0.732914, 0.544967, -1.076182, 0.689481, -0.684105, 0.324859, -0.195187, 0.170439, -0.196868, -0.429911, 1.128963, 0.466512, -0.196838, -0.164799, 0.252498, 0.211190, 0.109271, -0.147103, -0.137349, 0.182664, 0.040853, 0.008507, -0.243443, 0.012421, -0.531651, 0.240957, 0.069243, -0.375502, 0.320542, 0.040679, -0.359016, 0.295105, -0.134953, 0.022394, -0.132822, 0.209200, 0.333535, 0.499043, -0.151625, 0.908959, -0.086347, -1.064607, 0.625022, 0.215774, -0.674363, 0.558843, -0.409047, 0.138980, -0.104301, 0.121233, 0.281491, 0.011662, -1.461557, 1.240188, 0.196446, -1.723910, 0.488006, 0.274023, -1.425146, 1.015475, -0.632269, 0.218814, -0.233410, 0.291585, -0.304305, 0.0, 0.0, },
{-3.677135, 1.471035, -0.645641, -0.683522, -0.244538, -0.001095, -0.353615, -0.092838, 0.353503, 0.345060, 0.221332, 0.106077, -0.029832, 0.770553, -0.604169, -2.275354, 0.513214, 0.127007, 0.107903, -0.160349, 0.039443, -0.000478, -0.088097, -0.165584, -0.192893, -0.108227, -0.041964, 0.491745, -2.840713, 2.328101, -0.526601, -0.711420, -0.210563, -0.179664, -0.661662, -0.552185, 0.344354, 0.415947, 0.415912, -0.026779, -0.137746, 0.182808, -0.286700, 1.252749, -0.844096, -0.931804, -0.390350, 0.198538, 0.136406, 0.105042, 0.131139, 0.282515, 0.090692, 0.064213, 0.034600, 0.154714, 1.497404, -0.974784, 0.710237, 0.270180, 0.104429, 0.146334, 0.295316, 0.289684, -0.051683, -0.207657, -0.153125, 0.080551, 0.008724, 0.131598, 0.528247, -0.488497, -0.733228, -0.316779, -0.284588, 0.007660, 0.371207, 0.055844, -0.196523, 0.116973, -0.001528, 0.012067, 0.187887, 0.717221, 0.405740, 2.636108, 0.021796, -0.035010, 0.089698, 0.157504, 0.062921, 0.114987, 0.077688, 0.012338, -0.018420, 0.009902, -0.149762, -0.184789, 0.171331, -1.092142, 0.565700, 0.322329, 0.180526, 0.124862, -0.010994, 0.154656, -0.064675, -0.203459, -0.197171, -0.040961, -0.010050, -1.025684, 0.533676, -0.063303, 1.048158, 0.333018, 0.348849, 0.079044, 0.060311, 0.307129, 0.248102, -0.014392, -0.134855, 0.051894, -0.129447, -0.146367, 0.0, 0.0, },
{-0.069478, -0.340138, 0.419701, 0.303714, -0.539723, 0.271195, -0.081479, -0.362387, -0.049720, -0.119010, -0.083231, 0.067991, -0.092027, -0.115487, -0.384423, 0.180700, -0.030143, 0.086658, -0.181513, -0.322866, 0.217998, 0.022960, -0.261868, 0.331581, 0.056817, -0.104776, -0.064859, -0.112294, -0.431291, 0.299835, -0.265134, 0.517699, 1.855198, 0.324260, -0.468721, 0.028228, 0.089963, -0.415777, -0.036254, 0.172028, -0.210843, -0.235306, 0.669438, -0.668367, 0.503627, 0.135744, -1.159013, 0.216871, 0.171970, -0.376817, 0.015871, 0.092878, -0.019588, 0.055292, -0.012595, 0.119656, 0.758783, 0.336702, 0.151077, -0.039569, -1.346621, -0.413227, 0.470022, -0.075180, -0.386389, 0.346993, 0.061743, -0.217261, 0.001047, -0.031748, -0.263737, -1.018939, -0.045124, -0.412991, -0.604072, 0.001511, -0.058500, -0.311140, 0.172329, 0.111133, 0.019833, 0.067172, 0.167702, 0.485706, 0.664449, 0.600351, 0.531778, 0.431828, -1.257624, 0.138845, 0.546490, -0.092898, -0.186815, 0.197387, 0.093573, -0.019825, -0.097660, -0.160353, 0.702612, -0.012111, 0.535949, 0.056207, -1.305220, -0.055139, 0.382057, -0.243531, -0.137111, 0.273362, -0.021675, -0.057457, 0.020444, -0.055495, 0.239165, 1.183062, 0.305783, 0.529077, -0.886228, -0.490039, 0.721584, 0.057305, -0.775509, 0.572827, 0.240149, -0.237498, -0.162319, -0.520942, 0.0, 0.0, },
{-4.286307, 0.543143, 0.349337, -0.274735, 0.059296, -0.105870, 0.096000, -0.057431, 0.087146, -0.193381, -0.029374, -0.001640, 0.031392, -0.556839, 1.144282, 0.170529, -0.253373, -0.306983, -0.145275, -0.112998, 0.019148, 0.153649, -0.042287, 0.090314, -0.063060, 0.013657, 0.016605, -0.195030, 0.169975, 2.655159, 0.690541, -0.503353, -0.217227, -0.404816, 0.040428, -0.166757, 0.278449, -0.287693, 0.120892, 0.003083, 0.300355, -0.368435, -3.005396, -2.749858, -0.754137, 0.104139, 0.411460, 0.270679, 0.227157, 0.073994, 0.039666, -0.101526, -0.094737, -0.033039, -0.081092, 0.165282, 3.949777, 0.252637, 0.006650, 0.026049, -0.290864, -0.046759, -0.009630, 0.144914, -0.015307, 0.147401, -0.146833, 0.054146, -0.033830, -0.118692, -3.815530, -3.777917, -1.328474, 0.019182, 0.460310, 0.453758, 0.210561, 0.100612, -0.065066, 0.027341, -0.046248, -0.068877, -0.060172, 0.393352, 7.773569, 1.255284, 0.337368, 0.063815, -0.220616, -0.018123, 0.081921, 0.062245, 0.142536, -0.032490, -0.150887, 0.000092, -0.008397, 0.226120, -0.683724, -0.390448, 0.286802, 0.145228, -0.035789, 0.003587, -0.035061, 0.110330, -0.123563, 0.018024, -0.098174, 0.060500, -0.052960, 0.188009, 7.671937, 3.052022, 0.723963, -0.342864, -0.873630, -0.440533, -0.052666, 0.195358, 0.130964, 0.141455, -0.211152, 0.143481, 0.082206, -0.315955, 0.0, 0.0, },
{0.056085, -0.375273, 0.506718, -0.018770, 0.156975, 0.250948, 0.115136, 0.150705, 0.196910, 0.058928, 0.107333, 0.073644, 0.113645, -0.158565, 0.006019, -0.561813, 0.629896, -0.192889, -0.064986, -0.079878, -0.028699, 0.020882, -0.000122, -0.051184, 0.009818, -0.079599, -0.087410, 0.200438, -0.559382, 0.222328, -0.210461, -0.082860, -0.121762, -0.021359, -0.135967, -0.123863, -0.047616, -0.040118, 0.058653, 0.189890, 0.109297, 0.188646, 0.845551, -0.939204, 0.398788, -0.517331, -0.018348, -0.032062, 0.049110, 0.075665, 0.035729, 0.018583, -0.027972, -0.067104, -0.013125, 0.115453, 0.762952, -1.109729, 0.541818, 0.237322, 0.196386, 0.191237, 0.109839, 0.119458, 0.094868, 0.002247, 0.016382, -0.025906, 0.042135, -0.087501, 0.774742, 0.220174, 0.284358, -0.376498, -0.132320, -0.235399, 0.183311, 0.135286, -0.008023, 0.159951, -0.023059, -0.028052, -0.104889, 0.160931, 0.959808, -1.515493, 0.560937, 0.113552, 0.109348, 0.047522, -0.137258, -0.033887, -0.030184, -0.212265, -0.096136, -0.042038, 0.057058, -0.077495, -0.427996, -0.721413, 0.337146, 0.002061, 0.128605, 0.198208, 0.135173, 0.197418, 0.113746, -0.033722, 0.030094, -0.029662, 0.025673, -0.439496, 0.302131, -1.713821, 0.740627, 0.150249, 0.254885, 0.173213, -0.072920, 0.040174, 0.089275, -0.264109, -0.021300, 0.059756, 0.055271, -0.113741, 0.0, 0.0, },
{-2.679790, -2.028535, -0.271087, -0.267288, 0.032311, 0.397078, 0.033410, 0.072541, 0.066968, 0.055557, -0.036175, 0.061612, -0.048254, -0.808341, 0.770639, 0.832585, 0.548098, 0.171105, 0.100025, 0.006472, -0.077457, 0.011334, 0.040736, 0.037571, 0.021553, -0.010798, -0.005594, -1.224023, -4.223814, -3.659935, -0.832339, -0.480010, 0.043150, 0.736018, 0.064447, -0.043601, 0.011118, 0.206383, -0.208449, 0.218533, -0.069284, -0.140070, 2.081235, 1.004500, 0.246359, 0.117868, -0.072609, -0.202824, -0.011262, -0.049553, 0.013580, -0.129613, 0.059299, -0.045582, -0.040691, 0.056086, 1.876354, 1.552999, 0.522939, 0.336047, 0.084252, -0.262590, -0.026063, 0.001707, -0.033091, 0.003686, 0.075550, 0.002529, 0.007579, -1.030102, 2.403889, 2.093326, 0.465632, 0.304861, -0.066953, -0.502574, -0.090157, -0.096023, -0.063016, -0.169155, 0.068357, -0.145692, -0.025360, -0.537908, 0.160856, -0.398813, -0.025522, 0.003209, 0.005895, -0.057045, 0.059719, -0.028329, -0.041810, -0.036410, -0.002140, 0.048925, -0.081728, 0.728270, 1.581713, 1.046201, 0.273212, 0.020786, -0.046806, -0.113857, -0.021741, 0.062602, 0.037562, 0.023736, 0.085846, -0.038165, 0.006666, 1.996006, -0.150973, -0.343506, 0.472948, 0.214122, 0.175132, 0.164366, 0.011402, 0.060567, -0.009658, 0.116848, -0.011738, 0.087041, -0.087873, -0.606662, 0.0, 0.0, },
{7.016992, -1.069615, -0.272436, -0.277010, -0.008634, 0.045921, -0.094104, 0.050925, 0.066638, -0.022775, 0.106541, -0.030531, -0.014460, -0.521272, 1.340456, -0.126261, 0.008319, 0.070217, -0.009097, 0.043136, -0.042512, 0.010694, 0.012297, 0.013006, -0.006817, 0.022323, 0.077828, -0.378118, -2.607785, 1.186896, -0.174943, -0.339508, 0.554417, -0.151517, -0.048021, 0.180087, -0.084885, -0.005109, 0.158112, -0.106357, -0.017505, 0.163125, 1.363036, -0.102604, 0.072960, -0.078494, -0.278383, -0.189050, 0.277926, -0.033210, 0.100387, 0.045222, -0.007616, 0.000298, 0.032327, 0.176089, -0.747476, -0.045494, -0.007281, 0.179751, -0.121119, 0.052299, -0.114112, -0.098183, 0.077900, -0.011111, -0.083672, 0.041955, 0.055724, -0.299882, 3.699728, -0.885954, 0.060835, 0.272586, -0.440491, -0.075487, 0.345054, 0.023784, 0.077728, 0.041201, -0.026757, 0.038645, 0.003672, -0.129055, -8.267489, 0.369762, 0.230719, 0.082657, 0.185056, -0.004765, 0.066227, -0.030894, 0.099275, 0.064923, -0.006633, 0.040835, 0.025694, 0.181981, -0.504049, -0.197700, 0.098775, -0.058426, -0.007641, 0.046679, -0.078563, 0.030493, 0.071574, 0.020265, -0.045548, 0.096802, -0.029320, 0.473330, -3.229673, 0.621825, -0.018503, 0.021750, 0.281406, 0.112590, -0.349733, -0.050645, 0.085467, -0.085179, -0.048021, 0.056356, 0.036408, -0.300412, 0.0, 0.0, },
{-0.170054, -0.576923, -0.200649, -0.413980, 0.023403, -0.021451, 0.116308, 0.351580, -0.008085, -0.497713, -0.336702, 0.098762, 0.218346, 0.063130, -2.932786, 1.956426, -0.045120, 0.664605, 0.513240, 0.053856, -0.465435, -0.580420, -0.011695, 0.426674, 0.312229, -0.005658, -0.065768, 0.255464, -0.664274, 0.129797, 0.024624, -0.413429, -0.105096, -0.485232, -0.008084, 0.229615, 0.043563, -0.522129, -0.319977, -0.145056, 0.203101, 0.065045, -0.360466, -0.919616, -0.013643, 0.018968, 0.060888, 0.216021, 0.408587, 0.344765, -0.022777, -0.226798, -0.082084, 0.163618, 0.160450, -0.290139, 0.458271, -0.397737, -0.014125, -0.059487, -0.042203, 0.258498, 0.063741, -0.133584, -0.067666, 0.136019, 0.213232, 0.202085, 0.089167, -0.170131, -1.756286, 1.009359, 0.139791, 0.564337, 0.066841, 0.090385, 0.068221, -0.120631, 0.001078, 0.217066, 0.198901, -0.019310, -0.018333, -0.154960, -0.405859, -1.134139, -0.760098, -0.829704, -0.097729, 0.299499, 0.620374, 0.540347, 0.078113, -0.408384, -0.160844, 0.240840, 0.266821, 0.188008, 1.477947, -1.278805, -0.048989, 0.048375, 0.202103, 0.296491, -0.151072, -0.001586, -0.084469, 0.056383, 0.025812, 0.174624, -0.071723, -0.014542, 0.630703, -0.610977, -0.455851, -0.263707, 0.163053, 0.263320, 0.135331, -0.064791, 0.106585, 0.024489, 0.108385, 0.271492, 0.290393, 0.296912, 0.0, 0.0, },
{-0.350408, 1.073448, 0.066395, -1.328968, -0.611348, 0.341704, 0.748415, 0.530955, -0.140237, -0.190002, -0.064375, 0.258776, 0.356329, -0.380329, 0.059771, -0.154816, 0.047923, 0.780630, 0.115476, -0.318821, -0.302153, -0.506368, -0.001426, 0.222531, 0.188634, -0.201651, -0.267331, 0.130141, -0.094510, 1.491186, 0.034664, -1.203038, -1.092221, 0.516475, 1.502302, 0.933795, -0.632185, -0.530459, 0.117945, 0.592341, 0.357059, 0.045854, -1.752500, 0.025223, 0.405903, -0.500304, 0.265642, 0.274846, 0.134704, 0.332811, 0.171983, -0.019485, -0.204446, 0.046778, 0.274562, -0.030908, 1.401445, -1.081684, 0.030976, 0.911326, 0.259639, -0.540976, -0.607888, -0.627283, 0.191712, 0.229414, 0.072189, -0.315497, -0.191263, -0.039778, -1.941222, -0.030335, 0.306082, 0.062787, 0.667429, 0.176536, -0.489062, 0.090837, 0.280283, 0.100558, -0.115005, -0.076936, 0.054753, 0.068897, 2.160734, -0.538278, 0.119763, -0.271395, -0.141923, -0.069069, 0.327593, 0.145948, 0.054439, -0.045797, -0.141939, -0.003250, 0.189614, 1.124155, 0.865450, -0.331736, -0.001162, 0.234182, 0.149194, -0.267316, -0.440733, -0.374816, 0.183825, 0.183045, 0.058686, -0.257131, -0.004853, 0.173786, 2.548318, -0.685635, 0.013041, 0.841842, -0.390083, -0.621456, -0.047492, -0.598326, -0.126667, 0.052091, 0.110782, -0.111869, -0.249414, -0.252592, 0.0, 0.0, },
};
static float mdlfile_bias1[]={-6.448806, -5.507901, -1.648881, -2.881383, -7.617084, -4.603022, -3.976118, -2.317990, -1.777123, -0.419357, -3.984124, -1.605606, -3.428204, -9.433887, -2.127148, -1.929673, -5.271611, 2.036008, -1.110013, -8.596880, -3.043250, -2.886889, -6.997879, -5.246371, -4.807722, -2.032140, -3.398306, -9.568208, -4.908911, -7.169510, -3.614787, -3.773721, -11.772130, 1.315210, -2.737173, -3.798769, -3.908033, -3.814231, -6.783823, -9.901167, -3.381585, -9.447272, -5.621119, 0.231681, -16.794701, -1.868749, -1.784258, -4.135538, -1.639351, -2.339376, -6.433153, 0.630789, -5.461858, -3.644366, -9.240264, -4.039628, -10.111900, -4.892882, -3.460640, -1.639813, -3.253738, -1.456676, -11.203210, -3.210036, };
static float mdlfile_weights12[][64]={
{0.450939, 0.479942, -0.328129, -0.478938, -0.547913, -0.282275, -0.369182, 0.279443, -0.369918, -0.560377, -0.271292, 0.244987, -0.300461, 0.806807, 0.655031, -0.484128, -0.360132, 0.483343, 0.391680, -0.377494, -0.260434, -0.352757, -0.400829, 0.436660, -0.347835, -0.536005, -0.238305, 0.802935, -0.481588, 0.344553, 0.336027, -0.194025, 0.650938, 0.437241, -0.495577, -0.435412, -0.236046, -0.446525, -0.383783, 0.403179, -0.291046, -0.633813, 0.306311, 0.484023, 1.950234, 0.345277, -0.448848, 0.703216, -0.601903, -0.396228, -0.320814, 0.446466, -0.595941, -0.100646, 0.704613, -0.393752, 0.500742, -0.318119, -0.432280, 0.379917, -0.700605, -0.567482, 1.248555, -0.291301, },
{-0.397099, -0.563298, 0.488097, 0.467769, 0.486433, 0.414631, 0.445281, -0.408886, 0.384900, 0.604646, 0.416193, -0.462550, 0.478406, -0.817344, -0.521730, 0.449629, 0.347837, -0.324111, -0.380760, 0.438901, 0.274106, 0.253058, 0.517144, -0.584164, 0.265025, 0.495552, 0.392960, -0.943179, 0.284430, -0.577319, -0.494633, 0.299478, -0.648844, -0.411121, 0.638794, 0.329798, 0.396156, 0.295305, 0.357021, -0.449010, 0.323086, 0.720878, -0.591537, -0.511043, -1.820046, -0.460430, 0.604204, -0.800638, 0.670407, 0.488111, 0.728036, -0.594934, 0.251382, 0.368420, -0.567026, 0.353507, -0.376864, 0.439201, 0.405270, -0.381697, 0.621870, 0.476082, -1.125694, 0.371390, },
{0.0, 0.0, 0.0, 0.0, 0.0, 0.0, 0.0, 0.0, 0.0, 0.0, 0.0, 0.0, 0.0, 0.0, 0.0, 0.0, 0.0, 0.0, 0.0, 0.0, 0.0, 0.0, 0.0, 0.0, 0.0, 0.0, 0.0, 0.0, 0.0, 0.0, 0.0, 0.0, 0.0, 0.0, 0.0, 0.0, 0.0, 0.0, 0.0, 0.0, 0.0, 0.0, 0.0, 0.0, 0.0, 0.0, 0.0, 0.0, 0.0, 0.0, 0.0, 0.0, 0.0, 0.0, 0.0, 0.0, 0.0, 0.0, 0.0, 0.0, 0.0, 0.0, 0.0, 0.0, },
{0.0, 0.0, 0.0, 0.0, 0.0, 0.0, 0.0, 0.0, 0.0, 0.0, 0.0, 0.0, 0.0, 0.0, 0.0, 0.0, 0.0, 0.0, 0.0, 0.0, 0.0, 0.0, 0.0, 0.0, 0.0, 0.0, 0.0, 0.0, 0.0, 0.0, 0.0, 0.0, 0.0, 0.0, 0.0, 0.0, 0.0, 0.0, 0.0, 0.0, 0.0, 0.0, 0.0, 0.0, 0.0, 0.0, 0.0, 0.0, 0.0, 0.0, 0.0, 0.0, 0.0, 0.0, 0.0, 0.0, 0.0, 0.0, 0.0, 0.0, 0.0, 0.0, 0.0, 0.0, },
};
static float mdlfile_bias2[]={1.437269, -1.437240, 0.0, 0.0, };
static float mdlfile_priors[]={-0.655825, -0.731916, };
